tree
version=v3
num_class=1
num_tree_per_iteration=1
label_index=0
max_feature_idx=5
objective=binary sigmoid:1
feature_names=Column_0 Column_1 Column_2 Column_3 Column_4 Column_5
feature_infos=[0:4] [0:2] [0:10] [0:4] none [1:3]
tree_sizes=438 431 436 431 437 429

Tree=0
num_leaves=3
num_cat=0
split_feature=3 2
split_gain=22.7877 1.79435
threshold=1.0000000180025095e-35 3.5000000000000004
decision_type=2 2
left_child=1 -1
right_child=-2 -3
leaf_value=-1.0698391224568395 -0.66859842946144332 -0.96570250053147466
leaf_weight=12.653061658143999 10.612245261669157 13.877551496028898
leaf_count=62 52 68
internal_value=-0.916291 -1.01537
internal_weight=0 26.5306
internal_count=182 130
shrinkage=1


Tree=1
num_leaves=3
num_cat=0
split_feature=5 2
split_gain=15.3645 0.648053
threshold=2.5000000000000004 3.5000000000000004
decision_type=2 2
left_child=1 -1
right_child=-2 -3
leaf_value=-0.11582956046554538 0.20184855368687946 -0.05306684703062331
leaf_weight=12.544126212596895 10.634212568402289 13.842254891991614
leaf_count=64 51 67
internal_value=0 -0.0829043
internal_weight=0 26.3864
internal_count=182 131
shrinkage=0.2


Tree=2
num_leaves=3
num_cat=0
split_feature=3 2
split_gain=12.3799 0.971667
threshold=1.0000000180025095e-35 3.5000000000000004
decision_type=2 2
left_child=1 -1
right_child=-2 -3
leaf_value=-0.12421597033109805 0.16771277879897123 -0.045123746767721885
leaf_weight=11.375156849622728 11.759367838501928 13.691361486911772
leaf_count=62 52 68
internal_value=0 -0.0810157
internal_weight=0 25.0665
internal_count=182 130
shrinkage=0.2


Tree=3
num_leaves=3
num_cat=0
split_feature=5 0
split_gain=8.46112 0.292147
threshold=2.5000000000000004 1.5000000000000002
decision_type=2 2
left_child=1 -1
right_child=-2 -3
leaf_value=-0.043209268124741275 0.14075857317532067 -0.086722669773102889
leaf_weight=11.230048209428789 11.4182753264904 13.702576562762259
leaf_count=59 51 72
internal_value=0 -0.0671235
internal_weight=0 24.9326
internal_count=182 131
shrinkage=0.2


Tree=4
num_leaves=3
num_cat=0
split_feature=3 0
split_gain=7.27238 0.800103
threshold=1.0000000180025095e-35 1.5000000000000002
decision_type=2 2
left_child=1 -1
right_child=-2 -3
leaf_value=-0.025786597325882201 0.12348436124828595 -0.099559117220532151
leaf_weight=10.702594608068468 12.232717886567114 13.051885634660719
leaf_count=58 52 72
internal_value=0 -0.0663209
internal_weight=0 23.7545
internal_count=182 130
shrinkage=0.2


Tree=5
num_leaves=3
num_cat=0
split_feature=5 1
split_gain=5.017 0.247523
threshold=2.5000000000000004 1.5000000000000002
decision_type=2 2
left_child=1 -1
right_child=-2 -3
leaf_value=-0.030763380197769766 0.10544030990193116 -0.072060095410338018
leaf_weight=10.084583193063736 11.702055633068083 13.6822130382061
leaf_count=58 51 73
internal_value=0 -0.0545373
internal_weight=0 23.7668
internal_count=182 131
shrinkage=0.2


end of trees

feature_importances:
Column_2=3
Column_3=3
Column_5=3
Column_0=2
Column_1=1

parameters:
[boosting: gbdt]
[objective: binary]
[metric: binary_logloss]
[tree_learner: serial]
[device_type: cpu]
[data: ]
[valid: ]
[num_iterations: 10000]
[learning_rate: 0.2]
[num_leaves: 95]
[num_threads: 0]
[force_col_wise: 0]
[force_row_wise: 0]
[histogram_pool_size: -1]
[max_depth: -1]
[min_data_in_leaf: 50]
[min_sum_hessian_in_leaf: 0.001]
[bagging_fraction: 1]
[pos_bagging_fraction: 1]
[neg_bagging_fraction: 1]
[bagging_freq: 0]
[bagging_seed: 32458]
[feature_fraction: 0.9]
[feature_fraction_bynode: 1]
[feature_fraction_seed: 15412]
[extra_trees: 0]
[extra_seed: 19498]
[early_stopping_round: 50]
[first_metric_only: 0]
[max_delta_step: 0]
[lambda_l1: 0]
[lambda_l2: 0]
[min_gain_to_split: 0]
[drop_rate: 0.1]
[max_drop: 50]
[skip_drop: 0.5]
[xgboost_dart_mode: 0]
[uniform_drop: 0]
[drop_seed: 818]
[top_rate: 0.2]
[other_rate: 0.1]
[min_data_per_group: 100]
[max_cat_threshold: 32]
[cat_l2: 10]
[cat_smooth: 10]
[max_cat_to_onehot: 4]
[top_k: 20]
[monotone_constraints: ]
[monotone_constraints_method: basic]
[monotone_penalty: 0]
[feature_contri: ]
[forcedsplits_filename: ]
[refit_decay_rate: 0.9]
[cegb_tradeoff: 1]
[cegb_penalty_split: 0]
[cegb_penalty_feature_lazy: ]
[cegb_penalty_feature_coupled: ]
[path_smooth: 0]
[interaction_constraints: ]
[verbosity: -1]
[saved_feature_importance_type: 0]
[max_bin: 255]
[max_bin_by_feature: ]
[min_data_in_bin: 3]
[bin_construct_sample_cnt: 200000]
[data_random_seed: 4078]
[is_enable_sparse: 1]
[enable_bundle: 1]
[use_missing: 1]
[zero_as_missing: 0]
[feature_pre_filter: 1]
[pre_partition: 0]
[two_round: 0]
[header: 0]
[label_column: ]
[weight_column: ]
[group_column: ]
[ignore_column: ]
[categorical_feature: ]
[forcedbins_filename: ]
[objective_seed: 21231]
[num_class: 1]
[is_unbalance: 0]
[scale_pos_weight: 1]
[sigmoid: 1]
[boost_from_average: 1]
[reg_sqrt: 0]
[alpha: 0.9]
[fair_c: 1]
[poisson_max_delta_step: 0.7]
[tweedie_variance_power: 1.5]
[lambdarank_truncation_level: 20]
[lambdarank_norm: 1]
[label_gain: ]
[eval_at: ]
[multi_error_top_k: 1]
[auc_mu_weights: ]
[num_machines: 1]
[local_listen_port: 12400]
[time_out: 120]
[machine_list_filename: ]
[machines: ]
[gpu_platform_id: -1]
[gpu_device_id: -1]
[gpu_use_dp: 0]

end of parameters

pandas_categorical:null
