tree
version=v3
num_class=1
num_tree_per_iteration=1
label_index=0
max_feature_idx=8
objective=binary sigmoid:1
feature_names=Column_0 Column_1 Column_2 Column_3 Column_4 Column_5 Column_6 Column_7 Column_8
feature_infos=[0:4] [0:2] [0:10] [0:4] [0:2] [1:3] [0:1] [0:5] [0:1]
tree_sizes=1342 1456 1462 1462 1565 1461 1462 1575

Tree=0
num_leaves=12
num_cat=0
split_feature=3 5 2 6 2 8 5 2 2 2 5
split_gain=22.7877 10.2546 5.13034 4.60056 1.45515 1.33389 1.97167 1.59691 1.2599 0.662941 0.427015
threshold=1.0000000180025095e-35 2.5000000000000004 2.5000000000000004 1.0000000180025095e-35 4.5000000000000009 1.0000000180025095e-35 2.5000000000000004 3.5000000000000004 5.5000000000000009 1.5000000000000002 1.5000000000000002
decision_type=2 2 2 2 2 2 2 2 2 2 2
left_child=2 3 9 -2 -3 6 7 -4 10 -1 -9
right_child=1 4 5 -5 -6 -7 -8 8 -10 -11 -12
leaf_value=-1.0562907333344689 -0.77045740127891005 -0.61529073530589251 -0.9121730869199014 -0.94740184493235124 -0.72962406812811598 -0.86029073421065716 -0.89295740073129237 -1.0562907333344689 -0.93379073388208655 -0.9986436747686418 -0.9986436747686418
leaf_weight=4.6938777118921298 2.4489796757698041 2.0408163964748383 3.4693878740072304 3.6734695136547089 2.4489796757698059 2.0408163964748374 4.8979593515396109 2.0408163964748383 2.4489796757698059 3.469387874007225 3.469387874007225
leaf_count=23 12 10 17 18 12 10 24 10 12 17 17
internal_value=-0.916291 -0.792445 -0.965829 -0.876624 -0.677654 -0.936513 -0.946041 -0.968791 -0.99347 -1.03179 -1.01999
internal_weight=0 10.6122 26.5306 6.12245 4.4898 18.3673 16.3265 11.4286 7.95918 8.16327 5.5102
internal_count=182 52 130 30 22 90 80 56 39 40 27
shrinkage=1


Tree=1
num_leaves=13
num_cat=0
split_feature=3 5 2 6 0 8 5 2 2 0 5 2
split_gain=17.859 7.04927 4.53954 3.48629 1.29056 1.07925 1.64497 1.37454 1.12263 0.879673 0.405856 0.000515346
threshold=1.0000000180025095e-35 2.5000000000000004 2.5000000000000004 1.0000000180025095e-35 1.5000000000000002 1.0000000180025095e-35 2.5000000000000004 3.5000000000000004 5.5000000000000009 1.5000000000000002 1.5000000000000002 1.5000000000000002
decision_type=2 2 2 2 2 2 2 2 2 2 2 2
left_child=2 3 9 -2 -3 6 7 -4 10 -1 -9 -11
right_child=1 4 5 -5 -6 -7 -8 8 -10 11 -12 -13
leaf_value=-0.066199401867870933 0.12342729096037866 0.25129722280502692 0.0036990051149368361 -0.028402543165112183 0.14836166847047028 0.049171570675396153 0.020781858908383116 -0.13477432636023901 -0.015876189423789839 -0.13477432636023903 -0.077038152088360609 -0.13683787167005823
leaf_weight=2.8928374052047756 2.5954050421714765 2.2361359745264053 3.4755035191774422 3.6241021156311035 2.6750798672437668 2.0890404284000388 4.9466328620910636 1.9144517183303831 2.4305294752120972 2.29734206199646 3.3444971889257431 2.5575566738843918
leaf_count=15 12 10 17 18 12 10 24 10 12 12 17 13
internal_value=0 0.105674 -0.0457439 0.0349562 0.195229 -0.0184544 -0.0272229 -0.0484913 -0.0720804 -0.109851 -0.0980563 -0.135861
internal_weight=0 11.1307 25.9484 6.21951 4.91122 18.2007 16.1116 11.165 7.68948 7.74774 5.25895 4.8549
internal_count=182 52 130 30 22 90 80 56 39 40 27 25
shrinkage=0.1


Tree=2
num_leaves=13
num_cat=0
split_feature=5 4 8 7 7 7 7 0 7 0 1 6
split_gain=11.1163 8.06501 3.20957 2.17919 1.03506 1.12892 1.08388 0.808984 0.724977 0.504637 0.325032 0.015937
threshold=2.5000000000000004 1.5000000000000002 1.0000000180025095e-35 2.5000000000000004 4.5000000000000009 3.5000000000000004 2.5000000000000004 2.5000000000000004 2.5000000000000004 1.5000000000000002 1.5000000000000002 1.0000000180025095e-35
decision_type=2 2 2 2 2 2 2 2 2 2 2 2
left_child=2 8 4 -4 5 6 7 10 -2 -8 -1 -12
right_child=1 -3 3 -5 -6 -7 9 -9 -10 -11 11 -13
leaf_value=-0.034281269942544899 0.052773469425431332 0.18350179771055339 0.088311155901152391 -0.034130748007338084 0.012813062834805163 -0.13315360628796008 0.010959943013537409 -0.13382478059634348 -0.015841621888246216 -0.047087643785598432 -0.071833840879969926 -0.083429473000325077
leaf_weight=2.9129070490598767 2.5223586708307248 4.6504579186439514 2.9864396899938574 2.8319402933120728 1.9837532639503468 2.0497303009033194 2.718617469072341 1.8791314363479612 3.9533479660749435 3.3346838057041168 3.0853921622037888 1.9246314913034437
leaf_count=15 12 20 14 14 10 11 14 10 19 17 16 10
internal_value=0 0.0830343 -0.0366122 0.0287158 -0.0557235 -0.0633169 -0.0542886 -0.0748352 0.0108847 -0.0210177 -0.0608442 -0.0762884
internal_weight=0 11.1262 25.7072 5.81838 19.8888 17.9051 15.8554 9.80206 6.47571 6.0533 7.92293 5.01002
internal_count=182 51 131 28 103 93 82 51 31 31 41 26
shrinkage=0.1


Tree=3
num_leaves=13
num_cat=0
split_feature=3 5 5 0 8 0 0 1 0 5 7 5
split_gain=12.162 3.73897 1.86594 1.65011 1.19813 0.826519 0.579752 1.06444 0.431435 0.0435278 0.0340033 0.0743245
threshold=1.0000000180025095e-35 2.5000000000000004 2.5000000000000004 1.5000000000000002 1.0000000180025095e-35 1.5000000000000002 2.5000000000000004 1.5000000000000002 1.5000000000000002 1.5000000000000002 3.5000000000000004 1.5000000000000002
decision_type=2 2 2 2 2 2 2 2 2 2 2 2
left_child=2 8 4 -4 6 -3 7 9 -2 -1 11 -9
right_child=1 5 3 -5 -6 -7 -8 10 -10 -11 -12 -13
leaf_value=-0.02550221338980346 0.064491455779687332 0.18810093173271158 0.075360799134497558 -0.03261159093964567 0.0066504641757149461 0.10917518725325111 -0.10208946255258865 -0.059486435092269078 0.010633711916912324 -0.0049104874466828902 -0.086412257536762571 -0.081110416838930999
leaf_weight=1.8537839502096254 2.4341231882572156 2.4574697762727737 2.2946655899286261 3.6940066814422607 2.6827040761709204 2.8838975876569748 3.4168900102376929 2.7463521212339401 3.82406385242939 2.3004565834999084 2.186560720205307 3.7734570652246475
leaf_count=10 12 10 11 18 13 12 19 15 18 12 12 20
internal_value=0 0.0840331 -0.0399009 0.00875994 -0.0552706 0.145488 -0.0654759 -0.0557481 0.0315817 -0.0140993 -0.0756208 -0.0720017
internal_weight=0 11.5996 24.9489 5.98867 18.9602 5.34137 16.2775 12.8606 6.25819 4.15424 8.70637 6.51981
internal_count=182 52 130 29 101 22 88 69 30 22 47 35
shrinkage=0.1


Tree=4
num_leaves=14
num_cat=0
split_feature=3 2 6 2 2 7 5 7 1 2 7 1 1
split_gain=9.82991 3.98839 3.28873 2.81915 1.76474 1.01988 1.74136 2.41908 1.33927 1.02176 0.753227 0.425151 0.000467458
threshold=1.0000000180025095e-35 2.5000000000000004 1.0000000180025095e-35 4.5000000000000009 4.5000000000000009 2.5000000000000004 1.5000000000000002 4.5000000000000009 1.0000000180025095e-35 4.5000000000000009 2.5000000000000004 1.5000000000000002 1.0000000180025095e-35
decision_type=2 2 2 2 2 2 2 2 2 2 2 2 2
left_child=1 10 4 -4 -2 9 -7 8 -8 11 12 -3 -1
right_child=2 5 3 -5 -6 6 7 -9 -10 -11 -12 -13 -14
leaf_value=-0.12802669142613743 0.1765410181135223 0.020293577274490722 -0.049190613265859828 0.097232842445755405 0.071860772469981751 0.047386403272218658 -0.040109696589060384 0.035243968267945867 -0.13556605189216173 0.062716109945089679 -0.062699354060872722 -0.043990367983199552 -0.13019660823679766
leaf_weight=1.8637682497501402 3.1183332651853544 1.9177289307117487 2.9416274577379227 2.3777905106544495 3.3305078893899918 2.2128166556358329 3.0286078006029111 2.2619353085756302 2.8556677550077438 2.9655591994524002 2.975567102432251 2.2195636928081512 2.1244186609983444
leaf_count=11 13 10 14 11 14 12 15 11 15 15 17 12 12
internal_value=0 -0.0367866 0.0744669 0.016261 0.122479 -0.0112682 -0.0312801 -0.0526488 -0.0864351 0.0179177 -0.100775 -0.0141933 -0.129183
internal_weight=0 24.4256 11.7683 5.31942 6.44884 17.4619 10.359 8.14621 5.88428 7.10285 6.96375 4.13729 3.98819
internal_count=182 130 52 25 27 90 53 41 30 37 40 22 23
shrinkage=0.1


Tree=5
num_leaves=13
num_cat=0
split_feature=3 2 5 2 7 2 2 2 7 0 2 0
split_gain=7.97458 3.71738 2.78519 0.984894 1.59664 0.842069 0.764662 0.763792 0.652426 0.860217 0.636248 0.000744102
threshold=1.0000000180025095e-35 1.5000000000000002 2.5000000000000004 5.5000000000000009 4.5000000000000009 3.5000000000000004 4.5000000000000009 4.5000000000000009 2.5000000000000004 1.5000000000000002 2.5000000000000004 1.5000000000000002
decision_type=2 2 2 2 2 2 2 2 2 2 2 2
left_child=1 11 7 4 5 10 -4 -2 9 -7 -3 -1
right_child=2 3 6 -5 -6 8 -8 -9 -10 -11 -12 -13
leaf_value=-0.12725596550969415 -0.0090349231782917497 -0.053111554538141086 0.15976461570226519 0.025885245744333946 0.054224410525976457 0.0067291698887960247 0.084566019864632649 0.06030865678769709 -0.099381128051489742 -0.084750323218134638 0.0095478009416287476 -0.12442721259077349
leaf_weight=1.8378805816173582 3.5843721181154233 2.6798276156187075 2.4842437207698822 4.2254716008901587 2.0403192341327658 2.0847453773021698 2.967506542801857 2.8524873405694962 3.0557047873735428 2.0277373939752579 4.0995868742465973 1.8823041319847105
leaf_count=11 17 16 10 21 10 11 12 13 17 11 21 12
internal_value=0 -0.0339593 0.066239 -0.0170519 -0.0283999 -0.0404865 0.118832 0.0216946 -0.064382 -0.0383765 -0.0152207 -0.125825
internal_weight=0 23.9336 11.8886 20.2134 15.9879 13.9476 5.45175 6.43686 7.16819 4.11248 6.77941 3.72018
internal_count=182 130 52 107 86 76 22 30 39 22 37 23
shrinkage=0.1


Tree=6
num_leaves=13
num_cat=0
split_feature=3 2 6 0 2 5 1 2 2 2 2 0
split_gain=6.50869 3.37735 2.44912 4.13062 2.09497 0.965912 1.55972 1.11746 0.502561 1.23558 0.199916 0.000510521
threshold=1.0000000180025095e-35 1.5000000000000002 1.0000000180025095e-35 1.5000000000000002 4.5000000000000009 2.5000000000000004 1.5000000000000002 5.5000000000000009 2.5000000000000004 3.5000000000000004 4.5000000000000009 1.5000000000000002
decision_type=2 2 2 2 2 2 2 2 2 2 2 2
left_child=1 11 3 -2 -4 7 -7 8 -3 -10 -11 -1
right_child=2 5 4 -5 -6 6 -8 -9 9 10 -12 -13
leaf_value=-0.12401117204524713 0.20357132494569591 -0.084085566809359594 -0.048632508320975806 0.039357479775033774 0.076610844145895085 -0.022132558896355462 0.086703616153868859 0.024786886691820532 0.016165326632771856 -0.046429273896618529 -0.085147441849667105 -0.12157645268617966
leaf_weight=1.7042367160320311 2.4378877133131009 2.4110667854547527 2.8860227018594742 4.1212573200464249 2.4860645234584808 3.4139629155397406 2.1434552520513535 3.0288529545068732 3.2880860120058042 3.6021994948387146 2.117492213845253 1.7410470247268675
leaf_count=11 10 15 14 17 11 17 10 15 17 21 12 12
internal_value=0 -0.0313335 0.0593896 0.100392 0.00932691 -0.0155844 0.0198448 -0.0292125 -0.0435359 -0.0326822 -0.0607632 -0.122781
internal_weight=0 23.4504 11.9312 6.55915 5.37209 20.0051 5.55742 14.4477 11.4188 9.00778 5.71969 3.44528
internal_count=182 130 52 27 25 107 27 80 65 50 33 23
shrinkage=0.1


Tree=7
num_leaves=14
num_cat=0
split_feature=3 2 6 0 2 1 6 0 2 7 6 7 0
split_gain=5.33119 3.0743 1.98999 3.43415 1.68556 0.751045 1.31611 1.35033 1.01726 0.428944 1.24914 0.333177 0.000353538
threshold=1.0000000180025095e-35 1.5000000000000002 1.0000000180025095e-35 1.5000000000000002 4.5000000000000009 1.0000000180025095e-35 1.0000000180025095e-35 2.5000000000000004 5.5000000000000009 2.5000000000000004 1.0000000180025095e-35 2.5000000000000004 1.5000000000000002
decision_type=2 2 2 2 2 2 2 2 2 2 2 2 2
left_child=1 12 3 -2 -4 6 11 -8 9 -7 -11 -3 -1
right_child=2 5 4 -5 -6 8 7 -9 -10 10 -12 -13 -14
leaf_value=-0.12122039802765897 0.18537909046299739 -0.042783592703032704 -0.04458163045167602 0.035245329009035729 0.067697937467235181 -0.034369901240802504 -0.047964716445558379 0.06447664793545127 0.070822008801120398 0.071142002879199515 -0.032713709691311363 -0.095739449127093298 -0.11911216579929265
leaf_weight=1.5757204890251189 2.4104995578527433 2.1928350627422333 2.8361390382051468 4.1407674700021744 2.5295238643884659 4.0618924945592862 2.2756375819444656 2.0126479268074036 1.8636541366577155 1.9609686881303785 2.8286612331867218 2.5929512083530426 1.606272220611572
leaf_count=11 10 12 14 17 11 23 12 11 9 11 15 14 12
internal_value=0 -0.0289244 0.0535039 0.0904861 0.0083501 -0.0142549 -0.0354247 0.00480809 0.00367256 -0.0104655 0.00980686 -0.0714752 -0.120156
internal_weight=0 22.9712 11.9169 6.55127 5.36566 19.7892 9.07407 4.28829 10.7152 8.85152 4.78963 4.78579 3.18199
internal_count=182 130 52 27 25 107 49 23 58 49 26 26 23
shrinkage=0.1


end of trees

feature_importances:
Column_2=28
Column_0=15
Column_5=14
Column_7=13
Column_6=8
Column_1=7
Column_3=7
Column_8=4
Column_4=1

parameters:
[boosting: gbdt]
[objective: binary]
[metric: binary_logloss]
[tree_learner: serial]
[device_type: cpu]
[data: ]
[valid: ]
[num_iterations: 10000]
[learning_rate: 0.1]
[num_leaves: 15]
[num_threads: 0]
[force_col_wise: 0]
[force_row_wise: 0]
[histogram_pool_size: -1]
[max_depth: -1]
[min_data_in_leaf: 10]
[min_sum_hessian_in_leaf: 0.001]
[bagging_fraction: 0.8]
[pos_bagging_fraction: 1]
[neg_bagging_fraction: 1]
[bagging_freq: 0]
[bagging_seed: 10961]
[feature_fraction: 0.8]
[feature_fraction_bynode: 1]
[feature_fraction_seed: 53]
[extra_trees: 0]
[extra_seed: 11644]
[early_stopping_round: 50]
[first_metric_only: 0]
[max_delta_step: 0]
[lambda_l1: 0]
[lambda_l2: 0]
[min_gain_to_split: 0]
[drop_rate: 0.1]
[max_drop: 50]
[skip_drop: 0.5]
[xgboost_dart_mode: 0]
[uniform_drop: 0]
[drop_seed: 30626]
[top_rate: 0.2]
[other_rate: 0.1]
[min_data_per_group: 100]
[max_cat_threshold: 32]
[cat_l2: 10]
[cat_smooth: 10]
[max_cat_to_onehot: 4]
[top_k: 20]
[monotone_constraints: ]
[monotone_constraints_method: basic]
[monotone_penalty: 0]
[feature_contri: ]
[forcedsplits_filename: ]
[refit_decay_rate: 0.9]
[cegb_tradeoff: 1]
[cegb_penalty_split: 0]
[cegb_penalty_feature_lazy: ]
[cegb_penalty_feature_coupled: ]
[path_smooth: 0]
[interaction_constraints: ]
[verbosity: -1]
[saved_feature_importance_type: 0]
[max_bin: 255]
[max_bin_by_feature: ]
[min_data_in_bin: 3]
[bin_construct_sample_cnt: 200000]
[data_random_seed: 4071]
[is_enable_sparse: 1]
[enable_bundle: 1]
[use_missing: 1]
[zero_as_missing: 0]
[feature_pre_filter: 1]
[pre_partition: 0]
[two_round: 0]
[header: 0]
[label_column: ]
[weight_column: ]
[group_column: ]
[ignore_column: ]
[categorical_feature: ]
[forcedbins_filename: ]
[objective_seed: 602]
[num_class: 1]
[is_unbalance: 0]
[scale_pos_weight: 1]
[sigmoid: 1]
[boost_from_average: 1]
[reg_sqrt: 0]
[alpha: 0.9]
[fair_c: 1]
[poisson_max_delta_step: 0.7]
[tweedie_variance_power: 1.5]
[lambdarank_truncation_level: 20]
[lambdarank_norm: 1]
[label_gain: ]
[eval_at: ]
[multi_error_top_k: 1]
[auc_mu_weights: ]
[num_machines: 1]
[local_listen_port: 12400]
[time_out: 120]
[machine_list_filename: ]
[machines: ]
[gpu_platform_id: -1]
[gpu_device_id: -1]
[gpu_use_dp: 0]

end of parameters

pandas_categorical:null
