tree
version=v3
num_class=1
num_tree_per_iteration=1
label_index=0
max_feature_idx=8
objective=binary sigmoid:1
feature_names=Column_0 Column_1 Column_2 Column_3 Column_4 Column_5 Column_6 Column_7 Column_8
feature_infos=[0:4] [0:2] [0:10] [0:5] [0:2] [1:3] [0:1] [0:5] [0:1]
tree_sizes=1546 1360 1580 1474 1566 1688 1584 1479 1787 1589 1692 1591 1681 1685 1792 1575 1464 1684 1358 1572 1472 1570 1585 1576 1577 1581 1574 1691 1573

Tree=0
num_leaves=14
num_cat=0
split_feature=4 5 2 5 0 3 2 1 7 7 2 2 1
split_gain=16.9947 11.0982 5.21318 2.15032 2.83265 1.01685 1.53353 1.87207 0.983236 0.909911 0.289128 0.212822 0.104283
threshold=1.5000000000000002 2.5000000000000004 1.5000000000000002 2.5000000000000004 1.5000000000000002 2.5000000000000004 5.5000000000000009 1.0000000180025095e-35 2.5000000000000004 3.5000000000000004 3.5000000000000004 3.5000000000000004 1.5000000000000002
decision_type=2 2 2 2 2 2 2 2 2 2 2 2 2
left_child=2 12 -1 5 -5 6 7 11 -8 10 -9 -4 -2
right_child=1 -3 3 4 -6 -7 8 9 -10 -11 -12 -13 -14
leaf_value=-0.9938009353524917 -0.92005827284026431 -0.79137009708363215 -0.97145467398515006 -0.87089649783211276 -0.93527501272373981 -0.91186464367223907 -0.89547738533618848 -0.91816743533995082 -0.94463916034434015 -0.96922004784841598 -0.94112760498661507 -0.99380093535249181 -0.90441588988312516
leaf_weight=4.0682014822959927 2.0341007411479941 3.4579712599515915 2.2375108152627998 2.8477410376071921 4.2716115564107895 2.4409208893775931 2.0341007411479941 2.6443309634923935 2.034100741147995 2.034100741147995 2.847741037607193 2.034100741147995 2.2375108152627945
leaf_count=20 10 17 11 14 21 12 10 13 10 10 14 10 11
internal_value=-0.923954 -0.857959 -0.941249 -0.93284 -0.909524 -0.941908 -0.94653 -0.955658 -0.920058 -0.940653 -0.930073 -0.982096 -0.911865
internal_weight=0 7.72958 29.4945 25.4263 7.11935 18.3069 15.866 11.7978 4.0682 7.52617 5.49207 4.27161 4.27161
internal_count=183 38 145 125 35 90 78 58 20 37 27 21 21
shrinkage=1


Tree=1
num_leaves=12
num_cat=0
split_feature=4 5 5 0 8 8 0 7 5 5 7
split_gain=15.0127 9.16568 3.45718 2.49446 1.87688 0.416021 0.175378 2.24006 1.49832 0.819045 0.407973
threshold=1.5000000000000002 2.5000000000000004 2.5000000000000004 1.5000000000000002 1.0000000180025095e-35 1.0000000180025095e-35 1.5000000000000002 3.5000000000000004 1.5000000000000002 1.5000000000000002 2.5000000000000004
decision_type=2 2 2 2 2 2 2 2 2 2 2
left_child=2 5 4 -4 6 -2 7 8 -1 -8 -11
right_child=1 -3 3 -5 -6 -7 9 -9 -10 10 -12
leaf_value=0.020932250541061671 -0.0034140038627635018 0.11920638848229799 0.049261890196965641 -0.010809707418778633 0.0044049351267307409 0.027748524266019842 -0.05593398597663593 -0.068972566534312191 -0.030692905100052029 -0.038003620240835007 -0.01134316854716632
leaf_weight=2.2141052335500806 2.2494608610868445 3.6483499109745026 2.9120390713214865 4.2506747245788574 4.0498945266008368 2.0443438738584518 3.7978665977716428 2.3926470875740051 3.8482706397771835 3.2051994204521179 2.5981050282716751
leaf_count=11 11 17 14 21 20 10 19 12 19 16 13
internal_value=0 0.0609349 -0.0165761 0.0136127 -0.0263577 0.0114229 -0.0332576 -0.0280065 -0.0118383 -0.0378818 -0.0260679
internal_weight=0 7.94215 29.2688 7.16271 22.1061 4.2938 18.0562 8.45502 6.06238 9.60117 5.8033
internal_count=183 38 145 35 110 21 90 42 30 48 29
shrinkage=0.05


Tree=2
num_leaves=14
num_cat=0
split_feature=4 5 2 0 7 7 5 0 1 2 7 5 6
split_gain=13.3238 7.71786 4.87265 1.72823 0.977345 1.73533 1.08642 0.692379 0.675054 0.522636 0.105943 0.0268519 6.14285e-05
threshold=1.5000000000000002 2.5000000000000004 1.5000000000000002 1.0000000180025095e-35 4.5000000000000009 2.5000000000000004 2.5000000000000004 2.5000000000000004 1.5000000000000002 3.5000000000000004 2.5000000000000004 1.5000000000000002 1.0000000180025095e-35
decision_type=2 2 2 2 2 2 2 2 2 2 2 2 2
left_child=2 10 12 -4 5 8 7 -7 9 -5 -2 -10 -1
right_child=1 -3 3 4 -6 6 -8 -9 11 -11 -12 -13 -14
leaf_value=-0.067775363493951676 0.0025846494858424596 0.10849052090360059 0.027294669934206268 0.030519147327031527 0.013766650613903029 -0.03295867950930495 -0.0088447365779135614 -0.068827604826562208 -0.020053388480973617 -0.0024601077705847241 0.018271812080869036 -0.012384446280922201 -0.068172835185023331
leaf_weight=1.9344406723976162 2.0562257468700391 3.8039209097623825 3.0736044496297863 2.0041727274656331 3.0078764259815207 4.1750772744417191 3.2660210728645325 1.9850542098283765 2.0196769535541534 2.9988545179367065 2.258333757519722 2.6248395293951035 1.9539373815059662
leaf_count=10 10 17 15 10 15 21 16 10 10 15 11 13 10
internal_value=0 0.0565707 -0.0158848 -0.00783289 -0.0127224 -0.0168997 -0.0321572 -0.0445172 -0.00199226 0.0107511 0.0107956 -0.0157193 -0.0679751
internal_weight=0 8.11848 29.0436 25.1552 22.0816 19.0737 9.42615 6.16013 9.64754 5.00303 4.31456 4.64452 3.88838
internal_count=183 38 145 125 110 95 47 31 48 25 21 23 20
shrinkage=0.05


Tree=3
num_leaves=13
num_cat=0
split_feature=5 4 2 8 0 1 2 1 6 2 6 6
split_gain=12.024 7.69848 4.06712 2.40003 2.1314 1.37657 1.34559 1.13452 0.272318 1.01105 0.0315801 5.01262e-05
threshold=2.5000000000000004 1.5000000000000002 1.5000000000000002 1.0000000180025095e-35 1.5000000000000002 1.5000000000000002 5.5000000000000009 1.0000000180025095e-35 1.0000000180025095e-35 3.5000000000000004 1.0000000180025095e-35 1.0000000180025095e-35
decision_type=2 2 2 2 2 2 2 2 2 2 2 2
left_child=2 4 11 6 -2 -5 7 10 9 -9 -4 -1
right_child=1 -3 3 5 -6 -7 -8 8 -10 -11 -12 -13
leaf_value=-0.066610714005865157 0.0450390263600597 0.099683134062452147 -0.042142677778063284 0.043829084957501117 -0.010162949956105559 -0.0053775525767154157 0.0088125881626814184 0.014528002527648515 -0.026985018776506754 -0.030530223294738746 -0.050468235752562665 -0.0669757220201216
leaf_weight=1.8714471310377148 2.9838320612907392 3.9295186102390289 1.9396199882030529 2.6393661797046652 4.2240637987852097 3.0798263996839523 3.2045775949954978 2.3935724496841431 3.5778963565826416 2.5944493860006332 2.7594496458768845 1.891014039516449
leaf_count=10 14 17 10 13 21 15 16 12 18 13 14 10
internal_value=0 0.0433823 -0.0187252 -0.0105743 0.0126889 0.017331 -0.0202646 -0.0272891 -0.0164588 -0.0089084 -0.0470317 -0.0667942
internal_weight=0 11.1374 25.9512 22.1888 7.2079 5.71919 16.4696 13.265 8.56592 4.98802 4.69907 3.76246
internal_count=183 52 131 111 35 28 83 67 43 25 24 20
shrinkage=0.05


Tree=4
num_leaves=14
num_cat=0
split_feature=4 2 7 0 8 2 0 0 7 7 7 3 6
split_gain=10.764 4.34087 3.50342 1.80939 1.59515 1.13835 1.05637 1.23814 0.42396 0.385257 0.286714 0.113319 4.1049e-05
threshold=1.5000000000000002 1.5000000000000002 3.5000000000000004 1.5000000000000002 1.0000000180025095e-35 3.5000000000000004 1.5000000000000002 2.5000000000000004 2.5000000000000004 2.5000000000000004 2.5000000000000004 2.5000000000000004 1.0000000180025095e-35
decision_type=2 2 2 2 2 2 2 2 2 2 2 2 2
left_child=1 12 3 -2 5 8 10 9 -3 -8 -7 -6 -1
right_child=2 4 -4 -5 11 6 7 -9 -10 -11 -12 -13 -14
leaf_value=-0.065540456302771555 0.058737048444603958 -0.017318919885471816 0.10363818590715318 0.0043892619057578821 0.01154963223698198 0.026832527621430916 -0.017288411150117793 0.01029444166627189 -0.041058893945583388 -0.047283003211755145 0.003205796638791187 0.026723440512529853 -0.065876436377550113
leaf_weight=1.8085027486085918 2.932396247982977 3.8280351608991685 2.2208812385797501 3.2056443244218826 3.0614066123962393 2.0538867563009244 1.9593577086925504 2.5437733381986618 3.6968002468347549 2.3599726855754852 3.4257809221744537 2.0572673082351685 1.8280376493930817
leaf_count=10 13 19 10 15 15 10 10 13 19 12 17 10 10
internal_value=0 -0.0146696 0.0498245 0.0303535 -0.00724115 -0.0136536 -0.00430865 -0.017379 -0.0289819 -0.0336767 0.0120616 0.0176482 -0.0657093
internal_weight=0 28.6228 8.35892 6.13804 24.9863 19.8676 12.3428 6.8631 7.52484 4.31933 5.47967 5.11867 3.63654
internal_count=183 145 38 28 125 100 62 35 38 22 27 25 20
shrinkage=0.05


Tree=5
num_leaves=15
num_cat=0
split_feature=5 4 2 3 6 6 2 7 1 7 7 2 2 6
split_gain=10.3515 5.99487 3.59728 2.08467 3.61243 1.62448 0.941144 1.10158 1.09343 0.710344 0.659376 0.602188 0.404149 3.37269e-05
threshold=2.5000000000000004 1.5000000000000002 1.5000000000000002 2.5000000000000004 1.0000000180025095e-35 1.0000000180025095e-35 5.5000000000000009 2.5000000000000004 1.0000000180025095e-35 3.5000000000000004 2.5000000000000004 4.5000000000000009 3.5000000000000004 1.0000000180025095e-35
decision_type=2 2 2 2 2 2 2 2 2 2 2 2 2 2
left_child=2 5 13 6 -5 11 8 -8 10 12 -4 -2 -10 -1
right_child=1 -3 3 4 -6 -7 7 -9 9 -11 -12 -13 -14 -15
leaf_value=-0.064554716075010191 0.01647813436183386 0.088211100004963794 -0.067923760507442685 0.057552979889277489 -0.021571920066532746 0.049773772525164739 0.027185334449508537 -0.023749393091824788 0.0088250097171203336 -0.041042354222652053 -0.029534131670612036 -0.017952852027100851 -0.018235115567486981 -0.064864648043179526
leaf_weight=1.7458992004394558 2.2828750908374769 4.0793612748384476 1.9357397854328207 2.7165256142616263 3.0757160633802414 2.070459857583046 2.0520680099725714 2.1991131603717804 2.5774993896484375 1.9060826003551481 2.649446964263916 2.8619398772716522 2.9694784134626389 1.7653145492076874
leaf_count=10 11 17 10 13 15 10 10 11 13 10 14 14 15 10
internal_value=0 0.0397655 -0.0177011 -0.0102262 0.0155372 0.0123754 -0.0193872 0.000837074 -0.0265291 -0.0147097 -0.0457412 -0.00267502 -0.00566116 -0.0647105
internal_weight=0 11.2946 25.5929 22.0817 5.79224 7.21527 16.2894 4.25118 12.0382 7.45306 4.58519 5.14481 5.54698 3.51121
internal_count=183 52 131 111 28 35 83 21 62 38 24 25 28 20
shrinkage=0.05


Tree=6
num_leaves=14
num_cat=0
split_feature=5 4 2 3 6 0 2 1 5 0 2 0 6
split_gain=9.3143 5.28218 3.42352 1.89449 3.19324 1.7765 0.868492 1.03108 0.0947323 0.0449197 0.00563695 0.0053991 2.7794e-05
threshold=2.5000000000000004 1.5000000000000002 1.5000000000000002 2.5000000000000004 1.0000000180025095e-35 1.5000000000000002 5.5000000000000009 1.0000000180025095e-35 1.5000000000000002 1.5000000000000002 3.5000000000000004 2.5000000000000004 1.0000000180025095e-35
decision_type=2 2 2 2 2 2 2 2 2 2 2 2 2
left_child=2 5 12 6 -5 -2 7 11 -9 -8 -10 -4 -1
right_child=1 -3 3 4 -6 -7 9 8 10 -11 -12 -13 -14
leaf_value=-0.063644944095407233 0.040674719271868637 0.082457601925250215 -0.042584982049513782 0.053425744663692112 -0.020687774440944131 -0.0094436569431477768 -0.0040374289985817312 -0.0077958366300800754 -0.017236115995468662 0.0062622605389724903 -0.02095266574146188 -0.046066138696650383 -0.063931411787774423
leaf_weight=1.6838847994804409 3.0573433935642225 4.1440060436725616 2.0625761598348671 2.7783861309289923 3.0475393682718277 4.1929958909749985 2.2594300061464301 3.3121131956577301 1.95793080329895 1.9917880892753599 2.1303138881921768 2.4214125126600266 1.7031061202287674
leaf_count=10 14 17 11 13 15 21 11 17 10 10 11 13 10
internal_value=0 0.0374277 -0.0169988 -0.00978267 0.014657 0.0116904 -0.0186069 -0.0255448 -0.0140809 0.000788199 -0.0191727 -0.0444649 -0.063789
internal_weight=0 11.3943 25.3485 21.9615 5.82593 7.25034 16.1356 11.8843 7.40036 4.25122 4.08824 4.48399 3.38699
internal_count=183 52 131 111 28 35 83 62 38 21 21 24 20
shrinkage=0.05


Tree=7
num_leaves=13
num_cat=0
split_feature=5 4 2 8 0 1 2 1 6 2 6 6
split_gain=8.39635 4.6859 3.26143 1.81593 1.5787 1.21229 1.11049 0.938994 0.210622 0.928846 0.0319756 2.29699e-05
threshold=2.5000000000000004 1.5000000000000002 1.5000000000000002 1.0000000180025095e-35 1.5000000000000002 1.5000000000000002 5.5000000000000009 1.0000000180025095e-35 1.0000000180025095e-35 3.5000000000000004 1.0000000180025095e-35 1.0000000180025095e-35
decision_type=2 2 2 2 2 2 2 2 2 2 2 2
left_child=2 4 11 6 -2 -5 7 10 9 -9 -4 -1
right_child=1 -3 3 5 -6 -7 -8 8 -10 -11 -12 -13
leaf_value=-0.062803669696732511 0.038086372714366351 0.077432607878396925 -0.038291694371978949 0.038979491476040899 -0.0090106807011207882 -0.0067445709537022006 0.0082075936402155134 0.014104447448552583 -0.024317341425510109 -0.029264628798244121 -0.046954452219629628 -0.063068941972991635
leaf_weight=1.6226699650287655 3.100699454545973 4.1909755319356918 1.8139043599367202 2.713172882795333 4.1752168387174606 3.1127392947673798 3.2177542597055426 2.396930515766142 3.4606767296791077 2.5459266155958176 2.580900564789772 1.6416340917348862
leaf_count=10 14 17 10 13 21 15 16 12 18 13 14 10
internal_value=0 0.0353183 -0.0163213 -0.00935449 0.0110602 0.0145495 -0.0180497 -0.0246512 -0.0148572 -0.00823374 -0.043379 -0.0629371
internal_weight=0 11.4669 25.1063 21.842 7.27592 5.82591 16.0161 12.7983 8.40353 4.94286 4.3948 3.2643
internal_count=183 52 131 111 35 28 83 67 43 25 24 20
shrinkage=0.05


Tree=8
num_leaves=16
num_cat=0
split_feature=5 2 3 3 6 6 0 2 7 1 7 7 0 8 6
split_gain=7.57843 3.10961 2.30942 1.68618 2.75382 1.4619 1.07288 0.72739 1.02213 0.95401 0.667799 0.665319 1.71948 0.596691 1.903e-05
threshold=2.5000000000000004 1.5000000000000002 1.0000000180025095e-35 2.5000000000000004 1.0000000180025095e-35 1.0000000180025095e-35 1.5000000000000002 5.5000000000000009 2.5000000000000004 1.0000000180025095e-35 2.5000000000000004 3.5000000000000004 1.5000000000000002 1.0000000180025095e-35 1.0000000180025095e-35
decision_type=2 2 2 2 2 2 2 2 2 2 2 2 2 2 2
left_child=1 14 5 7 -5 6 -2 9 -9 10 -3 12 -11 -4 -1
right_child=2 3 13 4 -6 -7 -8 8 -10 11 -12 -13 -14 -15 -16
leaf_value=-0.062024378348731049 0.024164489213746684 -0.065704915078485471 0.077631969814705451 0.049345419571023716 -0.019343942606861071 0.04583590654486689 -0.025610256849057458 0.025389085058206064 -0.023550253505823904 0.016656122605345349 -0.025832002360920911 -0.038878420800072019 -0.042009325087619974 0.042177404232614402 -0.062270426199193568
leaf_weight=1.562430843710902 2.0092195272445661 1.8053807020187393 2.4033242911100388 2.837922900915145 3.0033116042613983 2.4163173884153366 2.347511500120163 2.0775212794542304 2.1932712197303772 3.5296778976917267 2.510093480348587 1.8382719457149503 1.9330739229917524 2.3442545533180237 1.5810850709676743
leaf_count=10 9 10 10 13 15 11 12 10 11 18 14 10 10 10 10
internal_value=0 -0.0156672 0.0333866 -0.0089427 0.0140283 0.0146441 -0.00265534 -0.0173884 0.000256222 -0.0238754 -0.0425129 -0.0128592 -0.0041035 0.0601253 -0.0621481
internal_weight=0 24.872 11.5206 21.7285 5.84123 6.77305 4.35673 15.8873 4.27079 11.6165 4.31547 7.30102 5.46275 4.74758 3.14352
internal_count=183 131 52 111 28 32 21 83 21 62 24 38 28 20 20
shrinkage=0.05


Tree=9
num_leaves=14
num_cat=0
split_feature=5 4 2 8 2 0 1 2 1 6 2 6 6
split_gain=6.84024 3.90342 2.96536 1.57562 1.49463 2.84956 1.11978 0.977623 0.836883 0.191746 0.847871 0.0304795 1.58041e-05
threshold=2.5000000000000004 1.5000000000000002 1.5000000000000002 1.0000000180025095e-35 3.5000000000000004 1.5000000000000002 1.5000000000000002 5.5000000000000009 1.0000000180025095e-35 1.0000000180025095e-35 3.5000000000000004 1.0000000180025095e-35 1.0000000180025095e-35
decision_type=2 2 2 2 2 2 2 2 2 2 2 2 2
left_child=2 4 12 7 -2 -6 -5 8 11 10 -10 -4 -1
right_child=1 -3 3 6 5 -7 -8 -9 9 -11 -12 -13 -14
leaf_value=-0.061301313441519949 -0.025859074512971165 0.069748478690216331 -0.036203403508351904 0.036877962566497724 0.069922476254169821 -0.0057811217547662913 -0.0069328026849003917 0.0077436115373235529 0.013627273693977805 -0.023028304420643988 -0.027972058967037406 -0.044835977100460972 -0.061529891841392292
leaf_weight=1.503314450383189 2.1251614242792112 4.2386248409748077 1.7442454844713235 2.7426637709140769 2.0441033393144608 3.1718975752592087 3.1150787174701691 3.2271990329027167 2.4028218835592252 3.4025619924068451 2.4986072927713394 2.4711333811283112 1.5216146856546402
leaf_count=10 10 17 10 13 9 16 15 16 12 18 13 14 10
internal_value=0 0.0315442 -0.0150507 -0.00855885 0.00948582 0.0238864 0.0135799 -0.0167945 -0.0231198 -0.0139093 -0.00757887 -0.041264 -0.0614163
internal_weight=0 11.5798 24.6292 21.6043 7.34116 5.216 5.85774 15.7466 12.5194 8.30399 4.90143 4.21538 3.02493
internal_count=183 52 131 111 35 25 28 83 67 43 25 24 20
shrinkage=0.05


Tree=10
num_leaves=15
num_cat=0
split_feature=4 2 7 0 0 0 6 2 0 8 6 2 7 6
split_gain=5.8422 3.15504 2.90151 1.26228 1.20572 0.998209 1.65463 1.46121 0.792745 0.752591 2.15384 0.289524 0.197735 1.31539e-05
threshold=1.5000000000000002 1.5000000000000002 3.5000000000000004 1.0000000180025095e-35 1.5000000000000002 2.5000000000000004 1.0000000180025095e-35 3.5000000000000004 1.5000000000000002 1.0000000180025095e-35 1.0000000180025095e-35 4.5000000000000009 2.5000000000000004 1.0000000180025095e-35
decision_type=2 2 2 2 2 2 2 2 2 2 2 2 2 2
left_child=1 13 4 -3 -2 6 8 -8 12 10 -7 -10 -5 -1
right_child=2 3 -4 5 -6 9 7 -9 11 -11 -12 -13 -14 -15
leaf_value=-0.060629408269747581 0.040573230589072487 0.024047481354075112 0.083278934875980315 0.023907179157278535 -0.0030084551423395401 -0.041521713389911036 -0.066970343365772886 -0.017425545581456394 -0.0041771131599327273 0.033424152046355259 0.031523603796562959 -0.028420398390688648 0.0020304701113787386 -0.060842065034271732
leaf_weight=1.4454412311315563 3.0723119825124723 3.1211349517107037 2.3309473693370819 2.0912596136331576 3.2826749533414841 2.0062622725963584 2.413552612066268 3.8814610838890076 2.4049679934978485 1.8939826935529707 2.0305967926979065 2.5239813178777695 2.0409684479236603 1.4633514285087585
leaf_count=10 13 15 10 10 15 11 13 20 13 9 11 13 10 10
internal_value=0 -0.0115134 0.0355629 -0.0056474 0.0180611 -0.0100013 -0.0167301 -0.0364214 -0.00305017 0.00742105 -0.00477889 -0.0165914 0.0131019 -0.0607364
internal_weight=0 27.317 8.68593 24.4082 6.35499 21.287 15.3562 6.29501 9.06118 5.93084 4.03686 4.92895 4.13223 2.90879
internal_count=183 145 38 125 28 110 79 33 46 31 22 26 20 20
shrinkage=0.05


Tree=11
num_leaves=14
num_cat=0
split_feature=5 4 2 2 0 8 1 2 1 6 2 6 6
split_gain=5.93811 3.23044 2.66023 1.37683 2.41187 1.29859 0.924398 0.911891 0.784872 0.139501 0.774222 0.0356813 1.09701e-05
threshold=2.5000000000000004 1.5000000000000002 1.5000000000000002 3.5000000000000004 1.5000000000000002 1.0000000180025095e-35 1.5000000000000002 5.5000000000000009 1.0000000180025095e-35 1.0000000180025095e-35 3.5000000000000004 1.0000000180025095e-35 1.0000000180025095e-35
decision_type=2 2 2 2 2 2 2 2 2 2 2 2 2
left_child=2 3 12 -2 -5 7 -7 8 11 10 -10 -4 -1
right_child=1 -3 5 4 -6 6 -8 -9 9 -11 -12 -13 -14
leaf_value=-0.060004168629344747 -0.02493330889944927 0.064008238157616831 -0.034331234196918491 0.06457512728089311 -0.0047559691859292187 0.032438310080363401 -0.0070967807296386052 0.007825652335787749 0.012295813089003543 -0.021053477596884428 -0.027441332955987097 -0.043813545749124105 -0.060202274915095957
leaf_weight=1.3889088481664684 2.1057122647762281 4.2452411502599716 1.6844340264797235 2.0894435346126556 3.1387729197740555 2.8129831105470648 3.1167454421520233 3.2245601266622534 2.4271037578582746 3.3135237842798233 2.4765094369649887 2.4137113839387894 1.4063998460769653
leaf_count=10 10 17 10 9 16 13 15 16 12 18 13 14 10
internal_value=0 0.0292962 -0.0142223 0.00920323 0.022952 -0.00824864 0.0116581 -0.0158447 -0.0220424 -0.0131283 -0.00777294 -0.0399161 -0.0601038
internal_weight=0 11.5792 24.2649 7.33393 5.22822 21.4696 5.92973 15.5398 12.3153 8.21714 4.90361 4.09815 2.79531
internal_count=183 52 131 35 25 111 28 83 67 43 25 24 20
shrinkage=0.05


Tree=12
num_leaves=15
num_cat=0
split_feature=5 4 2 3 6 2 0 2 7 1 7 7 0 6
split_gain=5.37768 2.92619 2.5428 1.36328 2.26755 1.242 2.12963 0.531852 0.982613 0.874804 0.676291 0.6083 1.58878 9.16606e-06
threshold=2.5000000000000004 1.5000000000000002 1.5000000000000002 2.5000000000000004 1.0000000180025095e-35 3.5000000000000004 1.5000000000000002 5.5000000000000009 2.5000000000000004 1.0000000180025095e-35 2.5000000000000004 3.5000000000000004 1.5000000000000002 1.0000000180025095e-35
decision_type=2 2 2 2 2 2 2 2 2 2 2 2 2 2
left_child=2 5 13 7 -5 -2 -7 9 -9 10 -4 12 -11 -1
right_child=1 -3 3 4 -6 6 -8 8 -10 11 -12 -13 -14 -15
leaf_value=-0.059421591029291357 -0.023924059550511412 0.060901718417652122 -0.064178048349290626 0.043983187838052794 -0.018191997030989015 0.060333523376142645 -0.0045283752158312065 0.023748744720746246 -0.024062100521349529 0.017328117890860303 -0.022770781120992678 -0.036381997327511649 -0.039828051230436659 -0.059606372029394318
leaf_weight=1.3337947726249721 2.0853449255228025 4.2388269305229187 1.6827051043510453 2.9092260450124732 2.9568933844566345 2.1235905587673187 3.1318809688091278 2.1002105176448813 2.2007664144039154 3.5072271823883057 2.3819931447505951 1.7567890584468839 1.8609928637742994 1.3508434295654297
leaf_count=10 10 17 10 13 15 9 16 10 11 18 14 10 10 10
internal_value=0 0.027825 -0.0136507 -0.00788538 0.012643 0.00872539 0.0216805 -0.0156592 -0.000715581 -0.0214031 -0.0399126 -0.0108437 -0.00248613 -0.0595146
internal_weight=0 11.5796 24.0414 21.3568 5.86612 7.34082 5.25547 15.4907 4.30098 11.1897 4.0647 7.12501 5.36822 2.68464
internal_count=183 52 131 111 28 35 25 83 21 62 24 38 28 20
shrinkage=0.05


Tree=13
num_leaves=15
num_cat=0
split_feature=5 4 2 3 6 6 2 7 1 5 2 7 7 6
split_gain=4.87611 2.65774 2.43015 1.23953 2.02253 1.21049 0.595792 0.496601 1.03482 1.22619 0.660938 0.410221 0.260171 7.67229e-06
threshold=2.5000000000000004 1.5000000000000002 1.5000000000000002 2.5000000000000004 1.0000000180025095e-35 1.0000000180025095e-35 4.5000000000000009 4.5000000000000009 1.0000000180025095e-35 1.5000000000000002 5.5000000000000009 2.5000000000000004 2.5000000000000004 1.0000000180025095e-35
decision_type=2 2 2 2 2 2 2 2 2 2 2 2 2 2
left_child=2 5 13 7 -5 6 -2 8 10 -10 12 -11 -4 -1
right_child=1 -3 3 4 -6 -7 -8 -9 9 11 -12 -13 -14 -15
leaf_value=-0.058878106570974413 0.014060643879536143 0.058054304263913559 -0.063309150881147996 0.041214692017281174 -0.017430330057769807 0.039559516514953534 -0.020103438407349173 0.0082134466215927088 0.014038912116965986 -0.01154850639587353 -0.010256963502949717 -0.04158399991206279 -0.035732070196756685 -0.059050659445116671
leaf_weight=1.28015869855881 2.2998436540365201 4.2247297763824463 1.6220469027757656 2.9483606517314902 2.9324352443218231 2.1762113124132156 2.8669128865003586 1.9996440559625632 3.6553634852170926 2.5913622379302979 1.6497441232204435 2.0252939760684967 1.8092339932918546 1.2967473119497299
leaf_count=10 11 17 10 13 15 10 14 11 19 13 8 11 11 10
internal_value=0 0.0264578 -0.0131123 -0.0075476 0.0119716 0.00827899 -0.00489621 -0.0150244 -0.0185043 -0.00759535 -0.0362642 -0.0247249 -0.0487684 -0.0589649
internal_weight=0 11.5677 23.8104 21.2335 5.8808 7.34297 5.16676 15.3527 13.353 8.27202 5.08103 4.61666 3.43128 2.57691
internal_count=183 52 131 111 28 35 25 83 72 43 29 24 21 20
shrinkage=0.05


Tree=14
num_leaves=16
num_cat=0
split_feature=5 2 3 3 6 6 0 0 2 7 1 7 7 0 6
split_gain=4.41882 2.32339 1.37144 1.1266 1.80687 0.917358 0.685604 0.481582 0.468716 0.889674 0.761498 0.644055 0.566852 1.48197 6.4327e-06
threshold=2.5000000000000004 1.5000000000000002 1.0000000180025095e-35 2.5000000000000004 1.0000000180025095e-35 1.0000000180025095e-35 1.5000000000000002 1.5000000000000002 5.5000000000000009 2.5000000000000004 1.0000000180025095e-35 2.5000000000000004 3.5000000000000004 1.5000000000000002 1.0000000180025095e-35
decision_type=2 2 2 2 2 2 2 2 2 2 2 2 2 2 2
left_child=1 14 5 8 -5 6 -2 -4 10 -10 11 -3 13 -12 -1
right_child=2 3 7 4 -6 -7 -8 -9 9 -11 12 -13 -14 -15 -16
leaf_value=-0.058370518789586746 0.017573527805233267 -0.062503862370468108 0.061256662490818695 0.038685183906623351 -0.016696668376373763 0.034983717521030321 -0.022272444897925372 0.029438334384431594 0.022690228660581124 -0.022876550373527836 0.016873908254083698 -0.020963680640721485 -0.035113089202566443 -0.038656899853724606 -0.058531829667918783
leaf_weight=1.2280450537800816 2.0746802985668165 1.5623113512992879 2.4367402046918869 2.9831528365612021 2.9088389128446579 2.4800387173891068 2.2507011741399765 2.322790190577507 2.1149324774742118 2.1706301718950272 3.518685057759285 2.3168321400880814 1.7167282551527021 1.8244108408689497 1.244160458445549
leaf_count=10 9 10 10 13 15 11 12 10 10 11 18 14 10 10 10
internal_value=0 -0.0125903 0.0251395 -0.00722107 0.0113435 0.0107402 -0.00316022 0.0457284 -0.0144057 -0.000389267 -0.0198969 -0.0376938 -0.0101181 -0.0020872 -0.0584517
internal_weight=0 23.5887 11.565 21.1165 5.89199 6.80542 4.32538 4.75953 15.2245 4.28556 10.939 3.87914 7.05982 5.3431 2.47221
internal_count=183 131 52 111 28 32 21 20 83 21 62 24 38 28 20
shrinkage=0.05


Tree=15
num_leaves=14
num_cat=0
split_feature=5 4 2 2 0 8 2 0 6 7 2 0 6
split_gain=4.00376 2.30369 2.22129 1.16425 1.76234 1.02914 0.758977 1.37677 1.05932 1.74194 0.93372 0.374753 5.40142e-06
threshold=2.5000000000000004 1.5000000000000002 1.5000000000000002 3.5000000000000004 1.5000000000000002 1.0000000180025095e-35 5.5000000000000009 1.0000000180025095e-35 1.0000000180025095e-35 2.5000000000000004 3.5000000000000004 1.5000000000000002 1.0000000180025095e-35
decision_type=2 2 2 2 2 2 2 2 2 2 2 2 2
left_child=2 3 12 -2 -5 6 7 -4 9 -9 -10 -7 -1
right_child=1 -3 5 4 -6 11 -8 8 10 -11 -12 -13 -14
leaf_value=-0.057895955592723619 -0.024489952043326935 0.053518315821101642 0.023386713430783659 0.054213566503784838 -0.0044702705947077554 -0.0021439703584548047 0.0076683306921618948 -0.03544795035247187 -0.0634697366866495 0.022164268369955081 -0.019463424504407238 0.023000326574958881 -0.058046905907507509
leaf_weight=1.1774847358465221 2.0927516520023328 4.1837131232023239 1.6022924929857278 2.1669323742389679 3.1234353333711624 2.8943021446466437 3.219085067510604 3.114153787493704 2.6405442953109741 2.2672571688890457 2.2177903354167938 3.0365383177995682 1.1931178644299507
leaf_count=10 10 17 8 9 16 14 16 17 16 13 13 14 10
internal_value=0 0.0238759 -0.0120934 0.00707873 0.0195666 -0.00691242 -0.0138596 -0.0197117 -0.0264556 -0.0111752 -0.0433812 0.0107297 -0.0579719
internal_weight=0 11.5668 23.3626 7.38312 5.29037 20.992 15.0611 11.842 10.2397 5.38141 4.85833 5.93084 2.3706
internal_count=183 52 131 35 25 111 83 67 59 30 29 28 20
shrinkage=0.05


Tree=16
num_leaves=13
num_cat=0
split_feature=5 2 4 2 0 7 0 1 8 5 0 7
split_gain=3.63492 2.12472 2.10418 1.05307 1.57005 1.02157 1.00971 1.30519 1.31188 0.995847 0.765546 0.721175
threshold=2.5000000000000004 1.5000000000000002 1.5000000000000002 3.5000000000000004 1.5000000000000002 4.5000000000000009 1.5000000000000002 1.5000000000000002 1.0000000180025095e-35 1.5000000000000002 2.5000000000000004 2.5000000000000004
decision_type=2 2 2 2 2 2 2 2 2 2 2 2
left_child=1 -1 3 -2 -5 6 9 8 10 -3 -8 -11
right_child=2 5 -4 4 -6 -7 7 -9 -10 11 -12 -13
leaf_value=-0.057522997757587985 -0.023496493265118015 0.027560846354938606 0.051215045730006847 0.051002777774201674 -0.0042557818740690473 0.021564667270153628 -0.0042008561206280442 -0.050603342289925052 0.024263286598618598 0.0060255597933417844 -0.043870641663981885 -0.029236099974482666
leaf_weight=2.2721392139792469 2.0726949125528318 2.5803628712892586 4.1540230959653854 2.1876178532838821 3.1169812977313995 2.7878160625696173 2.4224307686090452 2.8217667192220688 1.9680663645267484 3.2493608891963959 2.4423010945320129 2.6185465008020401
leaf_count=20 10 13 17 9 16 15 14 15 9 16 15 14
internal_value=0 -0.0116049 0.0227517 0.00672446 0.0185329 -0.00661072 -0.0109497 -0.0219959 -0.0101817 0.00167373 -0.0241168 -0.00970991
internal_weight=0 23.1628 11.5313 7.37729 5.3046 20.8907 18.1028 9.65456 6.8328 8.44827 4.86473 5.86791
internal_count=183 131 52 35 25 111 96 53 38 43 29 30
shrinkage=0.05


Tree=17
num_leaves=15
num_cat=0
split_feature=5 2 4 3 6 6 0 7 0 5 7 2 2 6
split_gain=3.30082 2.03297 1.92461 0.971374 1.55811 0.959713 1.59689 0.427166 1.49219 1.1211 0.659778 0.426827 0.60163 3.88241e-06
threshold=2.5000000000000004 1.5000000000000002 1.5000000000000002 2.5000000000000004 1.0000000180025095e-35 1.0000000180025095e-35 1.5000000000000002 4.5000000000000009 1.5000000000000002 1.5000000000000002 2.5000000000000004 5.5000000000000009 3.5000000000000004 1.0000000180025095e-35
decision_type=2 2 2 2 2 2 2 2 2 2 2 2 2 2
left_child=1 13 5 7 -5 6 -2 8 9 -3 -11 12 -10 -1
right_child=2 3 -4 4 -6 -7 -8 -9 11 10 -12 -13 -14 -15
leaf_value=-0.057035311269233183 0.025002464817542994 0.025859191689007056 0.049061314032983444 0.036001295231698462 -0.015500767615972719 0.033812999684098219 -0.030951738043888739 0.0084673939156247532 -0.02586504978260953 0.0028734273398774495 -0.038574043681779857 -0.012483302121669586 -0.062054884488458896 -0.057168862456071459
leaf_weight=1.0810327902436283 2.3403809517621976 2.6118144989013672 4.1204160153865814 3.0129705071449271 2.8649681657552719 2.2265766710042953 2.8014152944087982 1.9900057166814811 2.6947642713785172 2.0469599962234502 1.8084223866462705 1.7711432576179502 2.0012794882059097 1.0958035513758659
leaf_count=10 10 13 17 13 15 10 15 11 17 10 10 9 13 10
internal_value=0 -0.0111287 0.0216948 -0.00631777 0.0108987 0.00639135 -0.00548318 -0.0130984 -0.0164164 0.000566403 -0.0165681 -0.0333992 -0.0412878 -0.0571025
internal_weight=0 22.9792 11.4888 20.8023 5.87794 7.36837 5.1418 14.9244 12.9344 6.4672 3.85538 6.46719 4.69604 2.17684
internal_count=183 131 52 111 28 35 25 83 72 33 20 39 30 20
shrinkage=0.05


Tree=18
num_leaves=12
num_cat=0
split_feature=3 5 7 3 0 1 6 7 0 1 6
split_gain=3.08666 3.41475 2.14374 1.0792 1.07392 1.78432 1.24071 0.85165 0.624878 0.402221 0.117
threshold=4.5000000000000009 2.5000000000000004 4.5000000000000009 2.5000000000000004 1.5000000000000002 1.5000000000000002 1.0000000180025095e-35 2.5000000000000004 2.5000000000000004 1.5000000000000002 1.0000000180025095e-35
decision_type=2 2 2 2 2 2 2 2 2 2 2
left_child=1 2 4 9 7 6 8 10 -6 -3 -1
right_child=-2 3 -4 -5 5 -7 -8 -9 -10 -11 -12
leaf_value=0.010989793372414337 0.060810806619029691 8.1311064428626261e-05 0.027478295448308696 0.048921873397454407 0.014257469976987906 -0.066565784006893433 -0.045766478886349909 -0.026421449476190368 -0.022542171196632002 0.022668512512740362 -0.003894408637205961
leaf_weight=3.0001094266772323 1.9551685601472844 4.1383030563592893 2.6094373911619178 2.4331381469964981 2.4009854197502118 2.7323774322867393 2.7650992348790169 3.836024783551693 2.2203977331519127 3.7633709311485291 2.35806555300951
leaf_count=15 9 21 14 10 14 16 18 23 14 16 13
internal_value=0 -0.00388858 -0.0150583 0.0198049 -0.0208055 -0.0320444 -0.0192743 -0.00843641 -0.00342335 0.010839 0.00443944
internal_weight=0 32.2573 21.9225 10.3348 19.3131 10.1189 7.38648 9.1942 4.62138 7.90167 5.35817
internal_count=183 174 127 47 113 62 46 51 28 37 28
shrinkage=0.05


Tree=19
num_leaves=14
num_cat=0
split_feature=3 5 7 2 2 0 1 6 5 7 2 0 6
split_gain=2.76135 3.10069 1.9458 1.25754 1.22978 1.08812 2.00193 1.38823 1.14462 1.34025 0.752076 0.634326 1.0684e-06
threshold=4.5000000000000009 2.5000000000000004 4.5000000000000009 5.5000000000000009 1.5000000000000002 1.5000000000000002 1.5000000000000002 1.0000000180025095e-35 1.5000000000000002 2.5000000000000004 3.5000000000000004 2.5000000000000004 1.0000000180025095e-35
decision_type=2 2 2 2 2 2 2 2 2 2 2 2 2
left_child=1 2 4 10 12 8 7 11 -6 -10 -3 -7 -1
right_child=-2 3 -4 -5 5 6 -8 -9 9 -11 -12 -13 -14
leaf_value=-0.056612831839539163 0.057202774745184343 0.010232522597855632 0.025761011599505331 -0.0096564462915801653 0.024670919708112637 0.023834580837883687 -0.066308702985890478 -0.043211284653530205 0.0053251768895399027 -0.044408165952655433 0.042502844531717987 -0.016067005757931623 -0.056540678715280748
leaf_weight=1.0309056937694612 1.9740529805421818 3.0207107812166196 2.6433140933513632 2.8167050182819366 2.6323259621858615 2.1054995208978635 2.4409211724996567 2.3905862048268318 3.2618540525436401 2.3168750256299973 4.4879654496908188 1.8902184367179873 1.0213507190346718
leaf_count=10 9 14 14 13 13 11 14 15 16 13 20 11 10
internal_value=0 -0.0037266 -0.0144444 0.0188333 -0.0200114 -0.0156071 -0.0277937 -0.0130728 -0.00250593 -0.0153293 0.0295206 0.0049587 -0.0565769
internal_weight=0 32.0592 21.7339 10.3254 19.0905 17.0383 8.82723 6.3863 8.21106 5.57873 7.50868 3.99572 2.05226
internal_count=183 174 127 47 113 93 51 37 42 29 34 22 20
shrinkage=0.05


Tree=20
num_leaves=13
num_cat=0
split_feature=4 7 5 8 5 0 7 0 5 6 6 7
split_gain=2.51018 2.22865 1.12031 0.802147 0.548311 0.309834 0.176246 0.829424 0.541054 1.09886 0.229713 0.130285
threshold=1.5000000000000002 3.5000000000000004 2.5000000000000004 1.0000000180025095e-35 2.5000000000000004 2.5000000000000004 3.5000000000000004 2.5000000000000004 1.5000000000000002 1.0000000180025095e-35 1.0000000180025095e-35 2.5000000000000004
decision_type=2 2 2 2 2 2 2 2 2 2 2 2
left_child=3 2 -2 4 6 -5 7 8 10 -10 -1 -6
right_child=1 -3 -4 5 11 -7 -8 -9 9 -11 -12 -13
leaf_value=-0.0059856404994316275 -0.01223472839710473 0.06530167172351127 0.030532270917992058 -0.00020889806569390079 0.0092834868426209926 0.024449064722751254 -0.029076348845772756 -0.041236002557218696 0.0027915299024283426 -0.04275823318013975 0.01991468750606722 -0.0059223350782558375
leaf_weight=1.6547547131776863 3.2887716442346555 2.3069564700126648 2.86555215716362 3.4413423389196387 2.3342834115028372 2.0227663293480873 2.8891326263546935 2.4042951539158812 2.894682765007019 2.4402762278914452 1.77369724214077 3.552623063325882
leaf_count=10 16 10 12 17 11 10 18 17 17 16 12 17
internal_value=0 0.0233892 0.00767827 -0.00805365 -0.0127038 0.00891927 -0.018069 -0.0152213 -0.008084 -0.0180435 0.0074138 0.000107096
internal_weight=0 8.46128 6.15432 25.4079 19.9437 5.46411 14.0568 11.1677 8.76341 5.33496 3.42845 5.88691
internal_count=183 38 28 145 118 27 90 72 55 33 22 28
shrinkage=0.05


Tree=21
num_leaves=14
num_cat=0
split_feature=3 7 0 0 7 2 6 2 3 1 2 2 2
split_gain=2.37279 2.05135 1.53048 1.18232 0.96255 3.01029 1.5822 2.22654 1.15575 0.93188 0.93143 0.482432 0.224986
threshold=4.5000000000000009 4.5000000000000009 1.0000000180025095e-35 1.5000000000000002 2.5000000000000004 2.5000000000000004 1.0000000180025095e-35 4.5000000000000009 1.0000000180025095e-35 1.5000000000000002 4.5000000000000009 5.5000000000000009 4.5000000000000009
decision_type=2 2 2 2 2 2 2 2 2 2 2 2 2
left_child=1 2 -1 -3 5 -4 7 -6 10 11 -8 -7 -11
right_child=-2 3 4 -5 6 9 8 -9 -10 12 -12 -13 -14
leaf_value=0.020392881083603584 0.052830222183075704 0.002909469516965817 -0.05952434019519013 0.054367720148662452 0.024187358149830387 0.036752840324352311 -0.048555860438281952 -0.045413941578029367 -0.07662623468223756 -0.016809240019602902 -0.0033425776735241798 0.0051354907163999189 0.0037745716629037094
leaf_weight=3.8852357044816079 1.9854754507541645 2.3000036031007758 2.0266950279474267 2.1688898801803589 2.9710172265768051 2.755905553698538 2.4922750145196915 1.8736871629953382 1.6551983207464216 2.867896556854248 2.0979602932929993 2.1459631770849228 2.4716295450925827
leaf_count=19 9 11 17 11 17 15 17 10 9 15 11 10 12
internal_value=0 -0.0035146 -0.00866504 0.0278837 -0.0134983 -0.003848 -0.0241737 -0.00273091 -0.0408072 0.00716993 -0.0278912 0.0229112 -0.00728114
internal_weight=0 31.7124 27.2435 4.46889 23.3582 12.2681 11.0901 4.8447 6.24543 10.2414 4.59024 4.90187 5.33953
internal_count=183 174 152 22 133 69 64 27 37 52 28 25 27
shrinkage=0.05


Tree=22
num_leaves=14
num_cat=0
split_feature=4 2 7 0 7 0 1 7 2 6 0 2 6
split_gain=2.20362 1.90824 1.90068 0.765341 1.08359 1.68677 1.38171 0.809262 0.988727 0.731548 0.652239 0.305065 4.78403e-07
threshold=1.5000000000000002 1.5000000000000002 3.5000000000000004 2.5000000000000004 3.5000000000000004 1.5000000000000002 1.5000000000000002 2.5000000000000004 4.5000000000000009 1.0000000180025095e-35 1.5000000000000002 4.5000000000000009 1.0000000180025095e-35
decision_type=2 2 2 2 2 2 2 2 2 2 2 2 2
left_child=1 12 10 4 5 7 -7 8 -3 -5 -2 -6 -1
right_child=2 3 -4 9 11 6 -8 -9 -10 -11 -12 -13 -14
leaf_value=-0.055956288950677752 0.024313545692319839 -0.020160941648476434 0.060681141353503436 -0.0079357628513566838 -0.018409773528722799 -0.0066723565570495878 -0.062088495464598714 0.030237571172190805 0.022555997589398441 0.028741593849872973 -0.0084004005558222915 -0.046428104798475263 -0.055905963651341511
leaf_weight=0.94900118559599167 2.94084385037422 3.0052132606506401 2.3021699190139771 2.4292926192283621 1.9945203959941857 3.3527298346161833 1.6927256435155866 3.3709908276796341 2.4663241803646088 3.0872814133763313 3.1616861820220947 1.8941164314746854 0.93999379128217697
leaf_count=10 13 15 10 14 11 19 11 17 11 17 15 10 10
internal_value=0 -0.00759878 0.0219688 -0.00367919 -0.00872805 -0.00219588 -0.0252642 0.0109667 -0.000906057 0.0125903 0.00736464 -0.0320572 -0.0559312
internal_weight=0 25.1822 8.4047 23.2932 17.7766 13.888 5.04546 8.84253 5.47154 5.51657 6.10253 3.88864 1.88899
internal_count=183 145 38 125 94 73 30 43 26 31 28 21 20
shrinkage=0.05


Tree=23
num_leaves=14
num_cat=0
split_feature=3 5 7 2 2 0 1 6 5 2 2 0 6
split_gain=2.05439 2.40003 1.55623 1.12409 1.11103 0.951397 1.83068 1.25738 0.952287 1.36673 0.686822 0.557304 4.00568e-07
threshold=4.5000000000000009 2.5000000000000004 4.5000000000000009 1.5000000000000002 5.5000000000000009 1.5000000000000002 1.5000000000000002 1.0000000180025095e-35 1.5000000000000002 4.5000000000000009 3.5000000000000004 2.5000000000000004 1.0000000180025095e-35
decision_type=2 2 2 2 2 2 2 2 2 2 2 2 2
left_child=1 2 3 12 10 8 7 11 -5 -10 -3 -7 -1
right_child=-2 4 -4 5 -6 6 -8 -9 9 -11 -12 -13 -14
leaf_value=-0.055632313475443375 0.049022510459058699 0.0080156681621927697 0.022590141533453886 0.022643333759694812 -0.010486506468960061 0.022697514237277429 -0.064438341646663524 -0.041409612586043532 0.0060174381369573196 -0.045369645380561173 0.038842789027714812 -0.014868848172021608 -0.055585230758726623
leaf_weight=0.90784167498350743 1.9932951629161824 3.0204573124647158 2.6846661567687979 2.6659550070762652 2.7907347530126572 2.1150926351547223 2.2513010203838348 2.2836778089404106 3.353116050362587 2.1070309728384018 4.4968438744544983 1.8514860793948176 0.89917842298746109
leaf_count=10 9 14 14 13 13 11 14 15 18 11 20 11 10
internal_value=0 -0.00332302 -0.0129762 -0.0181558 0.0164547 -0.0140856 -0.0257786 -0.0118536 -0.0018523 -0.0138125 0.0264564 0.00516261 -0.0556089
internal_weight=0 31.4274 21.1193 18.4347 10.308 16.6277 8.50156 6.25026 8.1261 5.46015 7.5173 3.96658 1.80702
internal_count=183 174 127 113 47 93 51 37 42 29 34 22 20
shrinkage=0.05


Tree=24
num_leaves=14
num_cat=0
split_feature=4 2 7 5 0 7 0 1 5 6 2 2 6
split_gain=1.96509 1.71601 1.61964 0.90926 0.733558 1.04576 1.47889 1.24536 0.734825 0.683456 0.429842 0.280931 3.3585e-07
threshold=1.5000000000000002 1.5000000000000002 3.5000000000000004 2.5000000000000004 2.5000000000000004 3.5000000000000004 1.5000000000000002 1.5000000000000002 1.5000000000000002 1.0000000180025095e-35 3.5000000000000004 4.5000000000000009 1.0000000180025095e-35
decision_type=2 2 2 2 2 2 2 2 2 2 2 2 2
left_child=1 12 3 -2 5 6 8 -8 -3 -6 -10 -7 -1
right_child=2 4 -4 -5 9 11 7 -9 10 -11 -12 -13 -14
leaf_value=-0.055327679360004427 -0.01085390523280598 0.034010730813015477 0.056591165243562461 0.027987981084861304 -0.0076814395378431754 -0.018621127425719867 -0.006955877179208779 -0.06087882497889912 -0.013936107802745304 0.027788313911896741 0.01211338779482354 -0.045622370161797515 -0.055283593750480559
leaf_weight=0.86820010840893036 3.2341835945844633 2.3439125418663078 2.2919093370437622 2.8208435773849487 2.4159779474139205 1.9977340996265405 3.3554675281047812 1.5725649818778036 2.6934929490089417 3.101666197180748 3.843188688158989 1.8604401499032972 0.85987361520528793
leaf_count=10 16 11 10 12 14 11 19 11 14 17 18 10 10
internal_value=0 -0.00723969 0.0207918 0.00724129 -0.00365705 -0.0086274 -0.00219723 -0.024163 0.00999206 0.0122574 0.00137948 -0.0316413 -0.0553057
internal_weight=0 24.9125 8.34694 6.05503 23.1844 17.6668 13.8086 4.92803 8.88059 5.51764 6.53668 3.85817 1.72807
internal_count=183 145 38 28 125 94 73 30 43 31 32 21 20
shrinkage=0.05


Tree=25
num_leaves=14
num_cat=0
split_feature=4 2 2 5 0 7 0 7 2 5 6 2 6
split_gain=1.78519 1.63751 1.63313 2.57152 0.663064 0.961075 1.35061 0.713337 0.881297 0.611765 0.607438 0.263951 2.81943e-07
threshold=1.5000000000000002 1.5000000000000002 5.5000000000000009 2.5000000000000004 2.5000000000000004 3.5000000000000004 1.5000000000000002 2.5000000000000004 4.5000000000000009 2.5000000000000004 1.0000000180025095e-35 4.5000000000000009 1.0000000180025095e-35
decision_type=2 2 2 2 2 2 2 2 2 2 2 2 2
left_child=1 12 3 -2 5 6 7 8 -3 -8 -6 -7 -1
right_child=2 4 -4 -5 10 11 9 -9 -10 -11 -12 -13 -14
leaf_value=-0.055041050619540691 0.0079695927249548663 -0.01997127776080369 -0.013732625980710927 0.076402252210798646 -0.0073245720266892885 -0.017853492233124834 -0.0079108671240291327 0.027381370302989313 0.020278459126046755 -0.043764188214838101 0.026055866724300158 -0.044215286739049814 -0.054999739472634729
leaf_weight=0.83004930615425354 3.5413771420717222 2.9978103786706978 2.5200926214456558 2.2418061643838882 2.4072342514991751 1.979912102222442 2.7681716009974471 3.4203678667545319 2.4892862290143967 2.0866219699382782 3.1414383128285408 1.8245857805013654 0.82205160707235336
leaf_count=10 17 15 11 10 14 11 19 17 11 11 17 10 10
internal_value=0 -0.0069307 0.019859 0.034497 -0.00349363 -0.00825296 -0.00210393 0.00945984 -0.00171151 -0.0233209 0.0115741 -0.0304963 -0.0550205
internal_weight=0 24.7675 8.30328 5.78318 23.1154 17.5668 13.7623 8.90746 5.4871 4.85479 5.54867 3.8045 1.6521
internal_count=183 145 38 27 125 94 73 43 26 30 31 21 20
shrinkage=0.05


Tree=26
num_leaves=14
num_cat=0
split_feature=4 2 5 2 6 2 7 6 7 2 0 1 1
split_gain=1.62285 1.4886 2.42427 0.641694 1.30674 1.73311 2.41075 1.2871 1.11493 0.957766 0.490237 0.237952 0.0928902
threshold=1.5000000000000002 5.5000000000000009 2.5000000000000004 3.5000000000000004 1.0000000180025095e-35 4.5000000000000009 2.5000000000000004 1.0000000180025095e-35 2.5000000000000004 4.5000000000000009 1.5000000000000002 1.0000000180025095e-35 1.0000000180025095e-35
decision_type=2 2 2 2 2 2 2 2 2 2 2 2 2
left_child=3 2 -2 7 5 -5 10 11 -9 -6 -7 -1 -11
right_child=1 -3 -4 4 9 6 -8 8 -10 12 -12 -13 -14
leaf_value=-0.011279171152382292 0.007550804008311901 -0.013038389157869538 0.074477708367340176 0.027073617489656272 -0.014142560498964826 0.013641197485974966 -0.067484090241637859 -0.0092145295542303343 -0.062069624412115602 0.036250184159043304 -0.020377085657077357 0.010080625507409711 0.022132777798719586
leaf_weight=2.61820797622204 3.5506570190191251 2.5215243101119995 2.186157763004303 2.0158339440822584 1.915371999144553 2.0792045891284943 2.2760499641299248 1.8154792413115499 2.2150794714689255 1.8809617608785627 2.1585297212004662 2.5973747968673706 3.0620394051074982
leaf_count=18 17 11 10 11 11 9 13 13 17 10 12 16 15
internal_value=0 0.0189813 0.033055 -0.00663066 -0.000375264 -0.0134406 -0.0259786 -0.0170413 -0.0382622 0.0158738 -0.00368633 -0.000641933 0.0275049
internal_weight=0 8.25834 5.73681 24.6341 15.388 8.52962 6.51378 9.24614 4.03056 6.85837 4.23773 5.21558 4.943
internal_count=183 38 27 145 81 45 34 64 30 36 21 34 25
shrinkage=0.05


Tree=27
num_leaves=15
num_cat=0
split_feature=3 5 7 0 3 1 2 7 0 0 0 2 6 6
split_gain=1.79421 1.94223 1.44517 0.992969 1.18115 1.67632 0.960416 0.894325 1.09683 0.612078 0.92951 0.482935 0.355556 7.06741e-06
threshold=4.5000000000000009 2.5000000000000004 4.5000000000000009 2.5000000000000004 1.0000000180025095e-35 1.5000000000000002 1.5000000000000002 2.5000000000000004 2.5000000000000004 1.5000000000000002 2.5000000000000004 3.5000000000000004 1.0000000180025095e-35 1.0000000180025095e-35
decision_type=2 2 2 2 2 2 2 2 2 2 2 2 2 2
left_child=1 2 6 4 5 -3 13 9 12 11 -11 -8 -9 -1
right_child=-2 3 -4 -5 -6 -7 7 8 -10 10 -12 -13 -14 -15
leaf_value=-0.054762338755012546 0.046231591602854727 -0.043198637740922738 0.022421586671562306 0.041184103993643195 0.03424588871220053 0.015368579387182252 0.027256809288347013 -0.0015222589928771361 -0.064119186614661636 -0.033671597968661357 0.011225187137517589 -0.0045069827628386209 -0.02835347677397522 -0.054548850948815258
leaf_weight=0.79170829057694081 1.9562967866659153 2.0442517697811144 2.6621150374412528 2.6337371915578842 2.4202045053243637 3.0366335213184357 2.0165112465620059 2.2422554418444625 1.5782251954078672 3.0192554220557213 1.8648834824562071 2.9431977272033691 2.7478280365467072 0.75960732251405716
leaf_count=10 9 11 14 12 11 13 10 13 10 18 11 14 17 10
internal_value=0 -0.00315151 -0.0119585 0.0147718 0.00549812 -0.00819545 -0.0170535 -0.0134991 -0.0277877 -0.00396499 -0.0165289 0.00840749 -0.0162971 -0.0546578
internal_weight=0 30.7604 20.6256 10.1348 7.50109 5.08089 17.9635 16.4122 6.56831 9.84385 4.88414 4.95971 4.99008 1.55132
internal_count=183 174 127 47 35 24 113 93 40 53 29 24 30 20
shrinkage=0.05


Tree=28
num_leaves=14
num_cat=0
split_feature=4 2 5 0 5 7 0 1 5 2 7 6 8
split_gain=1.37095 1.42321 2.19858 0.602674 1.25881 0.783384 1.17357 1.1383 1.37915 0.914738 0.711258 0.657895 0.641989
threshold=1.5000000000000002 5.5000000000000009 2.5000000000000004 2.5000000000000004 2.5000000000000004 3.5000000000000004 1.5000000000000002 1.5000000000000002 2.5000000000000004 4.5000000000000009 2.5000000000000004 1.0000000180025095e-35 1.0000000180025095e-35
decision_type=2 2 2 2 2 2 2 2 2 2 2 2 2
left_child=3 2 -2 5 12 6 9 8 -8 10 -1 -7 -5
right_child=1 -3 -4 4 -6 11 7 -9 -10 -11 -12 -13 -14
leaf_value=-0.022945017944261348 0.0074469574884482876 -0.013777366383230936 0.072008943226997968 -0.022568459848378922 0.044071902485995199 -0.0064032851196994273 0.022678524634499299 -0.059338859169624225 -0.039247439333604139 0.021827337581769652 0.016678040029896906 -0.0480744654638081 0.018014357173041215
leaf_weight=3.3012599945068413 3.5426121205091459 2.5098965466022491 2.1005122065544128 2.5467566028237334 1.7015360593795774 1.6371266171336167 1.7741724848747245 1.6052292585372923 1.822868824005127 4.4229432493448257 1.7240777239203451 2.2474018856883049 1.5785118266940115
leaf_count=19 17 11 10 19 8 10 14 13 10 20 11 13 8
internal_value=0 0.0175466 0.0314785 -0.00614025 0.00788587 -0.0105496 -0.00525659 -0.0243278 -0.00870363 0.00524411 -0.00935126 -0.0305122 -0.00703966
internal_weight=0 8.15302 5.64312 24.3619 5.8268 18.5351 14.6506 5.20227 3.59704 9.44828 5.02534 3.88453 4.12527
internal_count=183 38 27 145 35 110 87 37 24 50 30 23 27
shrinkage=0.05


end of trees

feature_importances:
Column_2=81
Column_0=58
Column_6=58
Column_7=56
Column_5=43
Column_1=29
Column_4=22
Column_3=19
Column_8=13

parameters:
[boosting: gbdt]
[objective: binary]
[metric: binary_logloss]
[tree_learner: serial]
[device_type: cpu]
[data: ]
[valid: ]
[num_iterations: 10000]
[learning_rate: 0.05]
[num_leaves: 63]
[num_threads: 0]
[force_col_wise: 0]
[force_row_wise: 0]
[histogram_pool_size: -1]
[max_depth: -1]
[min_data_in_leaf: 10]
[min_sum_hessian_in_leaf: 0.001]
[bagging_fraction: 0.9]
[pos_bagging_fraction: 1]
[neg_bagging_fraction: 1]
[bagging_freq: 0]
[bagging_seed: 29216]
[feature_fraction: 0.9]
[feature_fraction_bynode: 1]
[feature_fraction_seed: 17795]
[extra_trees: 0]
[extra_seed: 19650]
[early_stopping_round: 50]
[first_metric_only: 0]
[max_delta_step: 0]
[lambda_l1: 0]
[lambda_l2: 0]
[min_gain_to_split: 0]
[drop_rate: 0.1]
[max_drop: 50]
[skip_drop: 0.5]
[xgboost_dart_mode: 0]
[uniform_drop: 0]
[drop_seed: 24198]
[top_rate: 0.2]
[other_rate: 0.1]
[min_data_per_group: 100]
[max_cat_threshold: 32]
[cat_l2: 10]
[cat_smooth: 10]
[max_cat_to_onehot: 4]
[top_k: 20]
[monotone_constraints: ]
[monotone_constraints_method: basic]
[monotone_penalty: 0]
[feature_contri: ]
[forcedsplits_filename: ]
[refit_decay_rate: 0.9]
[cegb_tradeoff: 1]
[cegb_penalty_split: 0]
[cegb_penalty_feature_lazy: ]
[cegb_penalty_feature_coupled: ]
[path_smooth: 0]
[interaction_constraints: ]
[verbosity: -1]
[saved_feature_importance_type: 0]
[max_bin: 255]
[max_bin_by_feature: ]
[min_data_in_bin: 3]
[bin_construct_sample_cnt: 200000]
[data_random_seed: 45]
[is_enable_sparse: 1]
[enable_bundle: 1]
[use_missing: 1]
[zero_as_missing: 0]
[feature_pre_filter: 1]
[pre_partition: 0]
[two_round: 0]
[header: 0]
[label_column: ]
[weight_column: ]
[group_column: ]
[ignore_column: ]
[categorical_feature: ]
[forcedbins_filename: ]
[objective_seed: 29484]
[num_class: 1]
[is_unbalance: 0]
[scale_pos_weight: 1]
[sigmoid: 1]
[boost_from_average: 1]
[reg_sqrt: 0]
[alpha: 0.9]
[fair_c: 1]
[poisson_max_delta_step: 0.7]
[tweedie_variance_power: 1.5]
[lambdarank_truncation_level: 20]
[lambdarank_norm: 1]
[label_gain: ]
[eval_at: ]
[multi_error_top_k: 1]
[auc_mu_weights: ]
[num_machines: 1]
[local_listen_port: 12400]
[time_out: 120]
[machine_list_filename: ]
[machines: ]
[gpu_platform_id: -1]
[gpu_device_id: -1]
[gpu_use_dp: 0]

end of parameters

pandas_categorical:null
