tree
version=v3
num_class=1
num_tree_per_iteration=1
label_index=0
max_feature_idx=8
objective=binary sigmoid:1
feature_names=Column_0 Column_1 Column_2 Column_3 Column_4 Column_5 Column_6 Column_7 Column_8
feature_infos=[0:4] [0:2] [0:10] [0:5] [0:2] [1:3] [0:1] [0:5] [0:1]
tree_sizes=1445 1572 1568 1674 1364 1570 1473 1365 1574 1266 1695 1268 1470 1580

Tree=0
num_leaves=13
num_cat=0
split_feature=3 5 2 1 5 0 6 2 2 7 0 7
split_gain=14.6687 6.57902 5.94035 5.56818 2.85486 3.8804 1.88462 1.03083 2.60464 1.08599 2.205 0.326667
threshold=1.0000000180025095e-35 2.5000000000000004 1.5000000000000002 1.5000000000000002 2.5000000000000004 1.5000000000000002 1.0000000180025095e-35 2.5000000000000004 3.5000000000000004 2.5000000000000004 1.5000000000000002 3.5000000000000004
decision_type=2 2 2 2 2 2 2 2 2 2 2 2
left_child=2 6 -1 -3 7 -6 -2 -4 -9 10 -10 -11
right_child=1 3 4 -5 5 -7 -8 8 9 11 -12 -13
leaf_value=-0.98629073260431188 -0.86379073315192967 -0.87492709673850988 -0.9658740660289149 -0.76356346087270777 -0.85562406652177081 -0.93184628840325312 -0.92504073287812083 -0.89602757511308284 -0.88829073304240613 -0.96995739934399428 -0.96179073271383553 -0.94545739945351781
leaf_weight=4.6938777118921307 2.0408163964748365 2.2448980361223221 2.4489796757698086 2.2448980361223221 3.0612245947122565 3.6734695136547089 3.2653062343597412 3.8775511533021918 2.0408163964748365 3.0612245947122574 2.0408163964748383 2.4489796757698059
leaf_count=23 10 11 12 11 15 18 16 19 10 15 10 12
internal_value=-0.916291 -0.863791 -0.935097 -0.819245 -0.924489 -0.8972 -0.901483 -0.936034 -0.930609 -0.944589 -0.925041 -0.959069
internal_weight=0 9.79592 27.3469 4.4898 22.6531 6.73469 5.30612 15.9184 13.4694 9.59184 4.08163 5.5102
internal_count=182 48 134 22 111 33 26 78 66 47 20 27
shrinkage=1


Tree=1
num_leaves=14
num_cat=0
split_feature=3 5 1 0 5 0 6 7 0 1 6 0 7
split_gain=13.0446 5.53802 4.45785 4.36977 2.35731 1.78498 1.65813 0.511051 1.46633 1.12839 0.414643 0.309519 0.187405
threshold=1.0000000180025095e-35 2.5000000000000004 1.5000000000000002 1.0000000180025095e-35 2.5000000000000004 1.5000000000000002 1.0000000180025095e-35 2.5000000000000004 1.5000000000000002 1.5000000000000002 1.0000000180025095e-35 2.5000000000000004 3.5000000000000004
decision_type=2 2 2 2 2 2 2 2 2 2 2 2 2
left_child=3 6 -3 -1 7 -6 -2 8 -5 11 -10 -9 -11
right_child=1 2 -4 4 5 -7 -8 9 10 12 -12 -13 -14
leaf_value=0.052289416757146434 0.048764371779727395 0.038600672712280529 0.13633223252031343 0.0015343274744346093 0.038104134745958945 -0.017645491563497234 -0.0083446818581155019 -0.012510582986400252 -0.052470092405323646 -0.068980654203302502 -0.023917523829210217 -0.035998563769165194 -0.048799949409136213
leaf_weight=2.0423800945282009 2.0860727131366712 2.2842462807893753 2.3851277083158493 3.4838986396789604 2.2908412963151923 3.8467353135347366 3.2530333995819092 2.6278061866760236 3.001046746969223 2.193211168050766 2.2063313573598862 3.0083057582378387 2.4194901883602142
leaf_count=10 10 11 11 17 11 19 16 13 15 11 11 15 12
internal_value=0 0.048751 0.0885222 -0.0180388 -0.0237664 0.00316297 0.0139687 -0.032493 -0.0235742 -0.0400564 -0.0403726 -0.0250474 -0.0583953
internal_weight=0 10.0085 4.66937 27.12 25.0777 6.13758 5.33911 18.9401 8.69128 10.2488 5.20738 5.63611 4.6127
internal_count=182 48 22 134 124 30 26 94 43 51 26 28 23
shrinkage=0.05


Tree=2
num_leaves=14
num_cat=0
split_feature=3 2 5 1 5 1 6 2 2 7 0 7 7
split_gain=11.64 5.54813 4.73038 3.68285 2.35505 3.15109 1.46324 1.00817 2.38593 0.99243 1.91496 0.321876 0.000108765
threshold=1.0000000180025095e-35 1.5000000000000002 2.5000000000000004 1.5000000000000002 2.5000000000000004 1.5000000000000002 1.0000000180025095e-35 2.5000000000000004 3.5000000000000004 2.5000000000000004 1.5000000000000002 3.5000000000000004 2.5000000000000004
decision_type=2 2 2 2 2 2 2 2 2 2 2 2 2
left_child=1 12 6 -4 7 -6 -2 -3 -9 10 -10 -11 -1
right_child=2 4 3 -5 5 -7 -8 8 9 11 -12 -13 -14
leaf_value=-0.068309195739368875 0.045415185851434475 -0.047799497365142121 0.036088955717395788 0.12359146566107514 -0.014441718534619868 0.053711962262886916 -0.0079569564511884055 0.020564841106505683 0.026185182031031484 -0.051354046022534794 -0.042794171435335052 -0.026614936906490545 -0.067816019161770449
leaf_weight=2.3527239412069347 2.126816660165785 2.3814471662044552 2.3201012164354324 2.4963192492723465 3.6320823132991782 3.1816341876983643 3.2412781715393066 3.8687094300985327 2.0664428174495679 2.9429629445075989 1.9609091877937315 2.3765498697757721 2.1301403641700745
leaf_count=12 10 12 11 11 18 15 16 19 10 15 10 12 11
internal_value=0 -0.0172976 0.0454664 0.0814409 -0.00714052 0.0173823 0.0131889 -0.0178536 -0.0124573 -0.0261253 -0.00740072 -0.0403016 -0.0680749
internal_weight=0 26.8936 10.1845 4.81642 22.4107 6.81372 5.36809 15.597 13.2156 9.34686 4.02735 5.31951 4.48286
internal_count=182 134 48 22 111 33 26 78 66 47 20 27 23
shrinkage=0.05


Tree=3
num_leaves=15
num_cat=0
split_feature=3 2 5 0 1 5 1 6 2 2 8 2 2 5
split_gain=10.4205 5.24049 4.08869 3.76127 3.11901 1.34569 1.73521 1.2946 0.529101 3.91138 1.19687 0.493706 0.528232 8.28485e-06
threshold=1.0000000180025095e-35 1.5000000000000002 2.5000000000000004 1.0000000180025095e-35 1.5000000000000002 2.5000000000000004 1.5000000000000002 1.0000000180025095e-35 3.5000000000000004 2.5000000000000004 1.0000000180025095e-35 5.5000000000000009 4.5000000000000009 1.5000000000000002
decision_type=2 2 2 2 2 2 2 2 2 2 2 2 2 2
left_child=1 13 7 -3 -4 8 -7 -2 9 -5 11 12 -10 -1
right_child=2 3 4 5 -6 6 -8 -9 10 -11 -12 -13 -14 -15
leaf_value=-0.066825014824041282 0.042393336458419591 0.060682448929353684 0.033795516823251145 -0.067669314548771023 0.11337729311307709 -0.013809743068203456 0.0428735180169749 -0.0075861432135238271 -0.033990548349742848 0.019361551549563732 0.005062684363049786 -0.017697921331602511 -0.067695485770537356 -0.066964364179291413
leaf_weight=2.4476677179336574 2.1635094285011274 1.8886260688304926 2.352794274687767 1.929122239351275 2.5827294737100601 3.6089852005243293 2.1571600884199142 3.2300236225128174 2.9233874529600126 3.9027805477380753 2.0112314820289612 1.967017590999603 1.9298465549945829 1.890436068177223
leaf_count=13 10 9 11 10 11 18 10 16 15 19 10 10 10 10
internal_value=0 -0.0166011 0.0425549 -0.00682697 0.0754402 -0.0130679 0.00739591 0.0124621 -0.021115 -0.0094272 -0.0288331 -0.0388287 -0.047393 -0.0668857
internal_weight=0 26.6563 10.3291 22.3182 4.93552 20.4295 5.76615 5.39353 14.6634 5.8319 8.83148 6.82025 4.85323 4.3381
internal_count=182 134 48 111 22 102 28 26 74 29 45 35 25 23
shrinkage=0.05


Tree=4
num_leaves=12
num_cat=0
split_feature=3 2 0 7 1 7 7 2 0 1 7
split_gain=9.35275 4.95562 3.34204 2.10017 3.6318 0.906073 0.292251 0.829324 0.784348 0.424706 7.50206e-05
threshold=1.0000000180025095e-35 1.5000000000000002 1.0000000180025095e-35 3.5000000000000004 1.5000000000000002 4.5000000000000009 2.5000000000000004 4.5000000000000009 1.5000000000000002 1.5000000000000002 2.5000000000000004
decision_type=2 2 2 2 2 2 2 2 2 2 2
left_child=1 10 -3 4 -2 6 8 9 -4 -8 -1
right_child=3 2 5 -5 -6 -7 7 -9 -10 -11 -12
leaf_value=-0.065994799229794537 -0.0072242928095743383 0.056286997538832845 0.0097163289324477316 0.083374910062111104 0.059297145674836294 0.012726174891976905 -0.00040927235989086062 -0.041301773442087797 -0.02302222205752693 -0.027578015914598589 -0.065571291313170008
leaf_weight=2.20190501213074 3.8340614736080152 1.9330961406230951 3.1060118377208754 2.198279380798339 4.4139916896820068 3.0248786956071845 3.6186380386352539 3.6998703479766846 4.4514760226011276 2.3874631226062775 1.991370156407356
leaf_count=12 18 9 15 10 20 15 18 19 23 12 11
internal_value=0 -0.015939 -0.00653127 0.039949 0.028375 -0.0125167 -0.0169397 -0.0226802 -0.00956718 -0.011209 -0.0657937
internal_weight=0 26.4147 22.2214 10.4463 8.24805 20.2883 17.2635 9.70597 7.55749 6.0061 4.19328
internal_count=182 134 111 48 38 102 87 49 38 30 23
shrinkage=0.05


Tree=5
num_leaves=14
num_cat=0
split_feature=5 4 2 2 3 2 2 7 4 1 7 2 6
split_gain=9.01776 7.12683 4.15667 3.42373 1.64139 0.8706 2.06903 0.996705 0.773272 0.684464 0.359546 0.242682 0.000195987
threshold=2.5000000000000004 1.5000000000000002 1.5000000000000002 3.5000000000000004 2.5000000000000004 2.5000000000000004 3.5000000000000004 2.5000000000000004 1.5000000000000002 1.5000000000000002 3.5000000000000004 4.5000000000000009 1.0000000180025095e-35
decision_type=2 2 2 2 2 2 2 2 2 2 2 2 2
left_child=2 3 12 -2 5 -4 -7 11 -6 -5 -9 -8 -1
right_child=1 -3 4 9 8 6 7 10 -10 -11 -12 -13 -14
leaf_value=-0.064642577179273103 -0.048065354956911756 0.088071195866819899 -0.04535948860281664 0.012729847862849511 0.037396181206212985 0.018536489747845747 -0.018191993107284379 -0.050323954671228445 -0.0017446627296070641 0.046935104532468123 -0.024065203697357439 0.0065749735824966356 -0.065355512219284206
leaf_weight=1.751627430319789 2.0618811100721341 4.1574367731809607 2.2777281701564815 3.6357339918613434 2.2979947328567496 3.9257370233535758 1.9735978692769989 3.0056926757097244 2.7986331433057785 2.4467911571264267 2.302019327878952 1.9827411770820615 2.1437496691942215
leaf_count=10 10 18 12 18 11 19 10 16 13 11 12 10 12
internal_value=0 0.0348052 -0.0176763 0.00761476 -0.00870533 -0.016814 -0.0118846 -0.0247758 0.0159034 0.0264894 -0.0389352 -0.00577989 -0.0650349
internal_weight=0 12.3018 24.4595 8.14441 20.5641 15.4675 13.1898 9.26405 5.09663 6.08253 5.30771 3.95634 3.89538
internal_count=182 57 125 39 103 79 67 48 24 29 28 20 22
shrinkage=0.05


Tree=6
num_leaves=13
num_cat=0
split_feature=5 4 2 2 3 0 2 2 6 1 6 6
split_gain=8.11929 6.23448 3.95038 3.11106 1.48993 1.27835 0.815475 1.88547 0.741014 0.675665 0.417846 0.000163071
threshold=2.5000000000000004 1.5000000000000002 1.5000000000000002 3.5000000000000004 2.5000000000000004 1.5000000000000002 2.5000000000000004 3.5000000000000004 1.0000000180025095e-35 1.5000000000000002 1.0000000180025095e-35 1.0000000180025095e-35
decision_type=2 2 2 2 2 2 2 2 2 2 2 2
left_child=2 3 11 -2 6 -5 -4 -8 -6 -9 -11 -1
right_child=1 -3 4 5 8 -7 7 9 -10 10 -12 -13
leaf_value=-0.063726117114114009 -0.04657791050828182 0.081924993289207701 -0.044096598878786149 0.054696480489610261 0.036661450290693766 0.0074390265616166538 0.017472045153861006 -0.040140142779975685 -0.0016728741058728578 0.00033644061209855486 -0.027566811517215101 -0.064388181774387529
leaf_weight=1.6895503699779539 2.0223549604415876 4.2434984296560279 2.2271114438772228 2.2715954035520554 2.2316517978906623 3.8672998398542404 3.9558576345443717 3.7512881308794004 2.8972950130701065 2.9127965718507767 2.4873991906642914 2.069051668047905
leaf_count=10 10 18 12 10 10 19 19 20 14 15 13 12
internal_value=0 0.0327672 -0.0169755 0.00720725 -0.00832165 0.0249259 -0.0161243 -0.0113715 0.0150067 -0.0238395 -0.0125162 -0.0640906
internal_weight=0 12.4047 24.222 8.16125 20.4634 6.1389 15.3345 13.1073 5.12895 9.15148 5.4002 3.7586
internal_count=182 57 125 39 103 29 79 67 24 48 28 22
shrinkage=0.05


Tree=7
num_leaves=12
num_cat=0
split_feature=5 4 2 2 0 2 8 7 0 1 6
split_gain=7.32287 5.49086 3.75745 2.82989 1.12535 0.779467 2.5012 0.372402 0.600423 0.179427 0.000136023
threshold=2.5000000000000004 1.5000000000000002 1.5000000000000002 3.5000000000000004 1.5000000000000002 5.5000000000000009 1.0000000180025095e-35 2.5000000000000004 1.5000000000000002 1.5000000000000002 1.0000000180025095e-35
decision_type=2 2 2 2 2 2 2 2 2 2 2
left_child=2 3 10 -2 -5 6 7 8 -4 -9 -1
right_child=1 -3 5 4 -6 -7 -8 9 -10 -11 -12
leaf_value=-0.062878807998474825 -0.045149181896999881 0.076572492256149205 -0.0039899164204530747 0.051142533337654852 0.0070441462047026605 -0.0286106980471399 0.031773261589073502 0.0014657419744446079 -0.037540377708182013 -0.014299769541433964 -0.063494674421377614
leaf_weight=1.62825480103493 1.9830438494682292 4.3112502992153159 2.2563846409320885 2.3070197999477386 3.8795647770166397 3.7305955439805976 3.8894027769565573 3.5430178940296173 3.2604367882013321 3.6784229576587677 1.995132640004158
leaf_count=10 10 18 11 10 19 19 19 18 17 19 12
internal_value=0 0.0309197 -0.0163053 0.006828 0.0234887 -0.0079557 -0.00332153 -0.0140371 -0.0238182 -0.00656482 -0.0632179
internal_weight=0 12.4809 23.9816 8.16963 6.18658 20.3583 16.6277 12.7383 5.51682 7.22144 3.62339
internal_count=182 57 125 39 29 103 84 65 28 37 22
shrinkage=0.05


Tree=8
num_leaves=14
num_cat=0
split_feature=5 2 1 3 3 3 2 2 7 0 6 7 6
split_gain=6.61068 3.57867 3.32527 2.23003 1.29566 1.24784 0.776589 1.71745 0.948462 1.58382 0.656364 0.343393 0.000113719
threshold=2.5000000000000004 1.5000000000000002 1.5000000000000002 1.0000000180025095e-35 2.5000000000000004 2.5000000000000004 2.5000000000000004 3.5000000000000004 2.5000000000000004 1.5000000000000002 1.0000000180025095e-35 3.5000000000000004 1.0000000180025095e-35
decision_type=2 2 2 2 2 2 2 2 2 2 2 2 2
left_child=1 12 5 -4 6 -2 -3 -8 9 -9 -6 -10 -1
right_child=2 4 3 -5 10 -7 7 8 11 -11 -12 -13 -14
leaf_value=-0.062094042409801611 -0.015278577431651747 -0.042670633925592921 0.029112479596954028 0.08842136663966807 0.034248697167235685 0.031614995339687972 0.017061120161525941 0.026115562464900124 -0.048051164929796643 -0.037946390832522978 -0.0017041550428992945 -0.02192412553634596 -0.06266781984061362
leaf_weight=1.567920088768008 3.7463396042585355 2.1684037595987347 3.774114266037941 2.7323919534683228 2.2591882050037375 2.2832422256469727 3.9668841511011115 2.0667204111814486 2.8675028383731842 1.8096061050891874 2.8976965099573135 2.2400703281164169 1.9222311973571777
leaf_count=10 19 12 17 11 10 10 19 10 16 10 14 12 12
internal_value=0 -0.0156451 0.0292293 0.0540191 -0.00759538 0.00247877 -0.014977 -0.0103402 -0.0224394 -0.00379082 0.0140465 -0.0365924 -0.0624101
internal_weight=0 23.7662 12.5361 6.50651 20.2761 6.02958 15.1192 12.9508 8.9839 3.87633 5.15688 5.10757 3.49015
internal_count=182 125 57 28 103 29 79 67 48 20 24 28 22
shrinkage=0.05


Tree=9
num_leaves=11
num_cat=0
split_feature=5 4 2 0 2 8 7 2 1 6
split_gain=5.98015 4.4897 3.40786 0.743128 0.709049 2.18137 0.352684 0.55979 0.155072 9.52718e-05
threshold=2.5000000000000004 1.5000000000000002 1.5000000000000002 1.5000000000000002 5.5000000000000009 1.0000000180025095e-35 2.5000000000000004 3.5000000000000004 1.5000000000000002 1.0000000180025095e-35
decision_type=2 2 2 2 2 2 2 2 2 2
left_child=2 3 9 -2 5 6 7 -4 -8 -1
right_child=1 -3 4 -5 -6 -7 8 -9 -10 -11
leaf_value=-0.061366004405766332 0.023692080435404307 0.068531380960928354 -0.010054285336458647 -0.0068697388043459512 -0.027189692225514261 0.029626367034089291 0.0017304625367429304 -0.043138873861920161 -0.013000890610366836 -0.061901334980275495
leaf_weight=1.5086957067251232 3.4026222527027112 4.3819639682769767 3.3616767376661354 4.787846714258194 3.656265214085578 3.9364640563726416 3.528092697262764 2.0632470846176147 3.6188352108001709 1.8505472987890244
leaf_count=10 15 18 17 24 19 19 18 11 19 12
internal_value=0 0.0276817 -0.0150346 0.00582677 -0.00726709 -0.00285463 -0.013025 -0.0226373 -0.00572873 -0.0616609
internal_weight=0 12.5724 23.5238 8.19047 20.1646 16.5083 12.5719 5.42492 7.14693 3.35924
internal_count=182 57 125 39 103 84 65 28 37 22
shrinkage=0.05


Tree=10
num_leaves=15
num_cat=0
split_feature=3 2 7 1 1 0 6 6 0 2 7 2 7 6
split_gain=5.26707 3.66664 1.67803 2.82363 1.00944 2.20589 1.92665 1.43441 2.31063 0.108344 0.0248494 0.0242083 0.000220787 3.92843e-05
threshold=1.0000000180025095e-35 1.5000000000000002 3.5000000000000004 1.5000000000000002 1.0000000180025095e-35 1.0000000180025095e-35 1.0000000180025095e-35 1.0000000180025095e-35 2.5000000000000004 4.5000000000000009 2.5000000000000004 4.5000000000000009 2.5000000000000004 1.0000000180025095e-35
decision_type=2 2 2 2 2 2 2 2 2 2 2 2 2 2
left_child=1 12 3 -2 7 -6 10 9 -9 -3 -7 -8 -1 -5
right_child=2 4 -4 13 5 6 11 8 -10 -11 -12 -13 -14 -15
leaf_value=-0.061433605287881332 -0.012187330609569013 -0.029410466667299608 0.066754926870602763 0.045422190361300817 0.053355805930760183 0.012981621635227073 -0.031664021888268189 -0.030329210036235506 0.037278712237170782 -0.044372398178601911 0.019973515381152645 -0.024368116281885711 -0.060625463625637123 0.045716268573479255
leaf_weight=1.8047536760568648 3.9523516297340375 2.6383171528577805 2.3140361458063117 2.1691854745149612 1.9470014721155173 3.0121923536062223 2.5751025974750519 2.6660628169775009 2.4027826637029648 2.2349016517400742 2.1980893462896347 2.0358254462480545 1.5895286649465559 2.3833781480789185
leaf_count=12 18 14 10 9 9 15 13 14 13 12 11 10 11 11
internal_value=0 -0.0127285 0.029004 0.0187327 -0.00517293 0.00473676 -0.0049017 -0.0169028 0.00171894 -0.0362721 0.0159313 -0.0284427 -0.0610552 0.0455761
internal_weight=0 25.1046 10.819 8.50492 21.7103 11.7682 9.82121 9.94206 5.06885 4.87322 5.21028 4.61093 3.39428 4.55256
internal_count=182 134 48 38 111 58 49 53 27 26 26 23 23 20
shrinkage=0.05


Tree=11
num_leaves=11
num_cat=0
split_feature=5 4 2 2 8 0 7 0 1 6
split_gain=5.28623 3.81923 3.06119 0.647454 1.92347 0.576409 0.318579 0.524849 0.151709 0.000135182
threshold=2.5000000000000004 1.5000000000000002 1.5000000000000002 5.5000000000000009 1.0000000180025095e-35 1.5000000000000002 2.5000000000000004 1.5000000000000002 1.5000000000000002 1.0000000180025095e-35
decision_type=2 2 2 2 2 2 2 2 2 2
left_child=2 5 9 4 6 -2 7 -4 -8 -1
right_child=1 -3 3 -5 -6 -7 8 -9 -10 -11
leaf_value=-0.060055991841128524 0.021304923591419896 0.063492420723735746 -0.0033492516371599248 -0.026327650570521024 0.027271572228780301 -0.0056134854514832471 0.0016930377655883179 -0.035056255625884554 -0.012892508045145457 -0.060718379102874413
leaf_weight=1.3936558663845089 3.432557284831999 4.4023639112710944 2.2417435199022346 3.6129792332649222 3.9891488552093497 4.7279168367385864 3.5260364562273026 3.1239511072635651 3.6060991585254669 1.7219657599925995
leaf_count=10 15 18 11 19 19 24 18 17 19 12
internal_value=0 0.0259581 -0.0143062 -0.00715798 -0.00295711 0.00570926 -0.0126057 -0.0218093 -0.0056816 -0.0604221
internal_weight=0 12.5628 23.2156 20.1 16.487 8.16047 12.4978 5.36569 7.13214 3.11562
internal_count=182 57 125 103 84 39 65 28 37 22
shrinkage=0.05


Tree=12
num_leaves=13
num_cat=0
split_feature=5 4 2 3 2 2 7 7 0 7 2 6
split_gain=4.78388 3.43151 2.92335 0.937136 0.775551 1.54482 0.945631 0.659676 0.517375 0.331953 0.221003 0.000114243
threshold=2.5000000000000004 1.5000000000000002 1.5000000000000002 2.5000000000000004 2.5000000000000004 3.5000000000000004 2.5000000000000004 2.5000000000000004 1.5000000000000002 3.5000000000000004 4.5000000000000009 1.0000000180025095e-35
decision_type=2 2 2 2 2 2 2 2 2 2 2 2
left_child=2 8 11 4 -4 -6 10 -5 -2 -8 -7 -1
right_child=1 -3 3 7 5 6 9 -9 -10 -11 -12 -13
leaf_value=-0.059469910355723334 0.020130953309666886 0.060128617024809761 -0.041351098985371953 -0.009198732773363659 0.01730092793506317 -0.013764624039207824 -0.046312578497817947 0.026676120827539659 -0.0053467148778574185 -0.020220958589812325 0.010435992809065027 -0.060091200586635266
leaf_weight=1.3384191542863872 3.4506154805421811 4.4158229529857627 2.1084311902523067 2.23786936700344 3.9584557414054862 1.8646513074636444 2.7533270716667175 2.9982126653194427 4.7159367054700851 2.1875780671834946 1.9093883633613584 1.6546456664800644
leaf_count=10 15 18 12 10 19 10 16 14 24 12 10 12
internal_value=0 0.0246191 -0.0137247 -0.0068336 -0.0132723 -0.00860097 -0.020366 0.0113434 0.00541837 -0.0347606 -0.00152088 -0.0598134
internal_weight=0 12.5824 23.011 20.0179 14.7818 12.6734 8.71494 5.23608 8.16655 4.94091 3.77404 2.99306
internal_count=182 57 125 103 79 67 48 24 39 28 20 22
shrinkage=0.05


Tree=13
num_leaves=14
num_cat=0
split_feature=5 4 2 3 2 2 7 4 6 2 7 2 6
split_gain=4.33325 3.09245 2.79152 0.851084 0.724735 1.40469 0.881323 0.650718 0.324984 1.32196 0.318134 0.199969 9.66783e-05
threshold=2.5000000000000004 1.5000000000000002 1.5000000000000002 2.5000000000000004 2.5000000000000004 3.5000000000000004 2.5000000000000004 1.5000000000000002 1.0000000180025095e-35 4.5000000000000009 3.5000000000000004 4.5000000000000009 1.0000000180025095e-35
decision_type=2 2 2 2 2 2 2 2 2 2 2 2 2
left_child=2 8 12 4 -4 -6 11 -5 9 -2 -8 -7 -1
right_child=1 -3 3 7 5 6 10 -9 -10 -11 -12 -13 -14
leaf_value=-0.058923215329965375 0.024360708525517676 0.05705541627987764 -0.040204196527864805 0.029927947144850822 0.016318669981570669 -0.013167423669029036 -0.045184722059794027 -0.0053847743061775505 0.019822606001087931 -0.024370473717729834 -0.01941879624496862 0.0098643938510502675 -0.059506519740584157
leaf_weight=1.284656003117564 2.6093696057796461 4.4208257049322119 2.0613589435815838 2.3991594016551963 3.9861528277397147 1.8520884811878189 2.6827578991651535 2.8594490140676498 2.5799419432878494 2.9823056161403656 2.1646432429552078 1.9187792539596555 1.5890195220708847
leaf_count=10 13 18 12 11 19 10 16 13 12 14 12 10 12
internal_value=0 0.0233679 -0.0131761 -0.0065315 -0.0127194 -0.00822452 -0.0195763 0.0107261 0.00514305 -0.00162994 -0.0336788 -0.00144785 -0.0592458
internal_weight=0 12.5924 22.7981 19.9244 14.6658 12.6044 8.61827 5.25861 8.17162 5.59168 4.8474 3.77087 2.87368
internal_count=182 57 125 103 79 67 48 24 39 27 28 20 22
shrinkage=0.05


end of trees

feature_importances:
Column_2=45
Column_7=26
Column_0=20
Column_6=20
Column_1=17
Column_5=17
Column_3=13
Column_4=9
Column_8=4

parameters:
[boosting: gbdt]
[objective: binary]
[metric: binary_logloss]
[tree_learner: serial]
[device_type: cpu]
[data: ]
[valid: ]
[num_iterations: 10000]
[learning_rate: 0.05]
[num_leaves: 63]
[num_threads: 0]
[force_col_wise: 0]
[force_row_wise: 0]
[histogram_pool_size: -1]
[max_depth: -1]
[min_data_in_leaf: 10]
[min_sum_hessian_in_leaf: 0.001]
[bagging_fraction: 0.9]
[pos_bagging_fraction: 1]
[neg_bagging_fraction: 1]
[bagging_freq: 0]
[bagging_seed: 29216]
[feature_fraction: 0.9]
[feature_fraction_bynode: 1]
[feature_fraction_seed: 17795]
[extra_trees: 0]
[extra_seed: 19650]
[early_stopping_round: 50]
[first_metric_only: 0]
[max_delta_step: 0]
[lambda_l1: 0]
[lambda_l2: 0]
[min_gain_to_split: 0]
[drop_rate: 0.1]
[max_drop: 50]
[skip_drop: 0.5]
[xgboost_dart_mode: 0]
[uniform_drop: 0]
[drop_seed: 24198]
[top_rate: 0.2]
[other_rate: 0.1]
[min_data_per_group: 100]
[max_cat_threshold: 32]
[cat_l2: 10]
[cat_smooth: 10]
[max_cat_to_onehot: 4]
[top_k: 20]
[monotone_constraints: ]
[monotone_constraints_method: basic]
[monotone_penalty: 0]
[feature_contri: ]
[forcedsplits_filename: ]
[refit_decay_rate: 0.9]
[cegb_tradeoff: 1]
[cegb_penalty_split: 0]
[cegb_penalty_feature_lazy: ]
[cegb_penalty_feature_coupled: ]
[path_smooth: 0]
[interaction_constraints: ]
[verbosity: -1]
[saved_feature_importance_type: 0]
[max_bin: 255]
[max_bin_by_feature: ]
[min_data_in_bin: 3]
[bin_construct_sample_cnt: 200000]
[data_random_seed: 45]
[is_enable_sparse: 1]
[enable_bundle: 1]
[use_missing: 1]
[zero_as_missing: 0]
[feature_pre_filter: 1]
[pre_partition: 0]
[two_round: 0]
[header: 0]
[label_column: ]
[weight_column: ]
[group_column: ]
[ignore_column: ]
[categorical_feature: ]
[forcedbins_filename: ]
[objective_seed: 29484]
[num_class: 1]
[is_unbalance: 0]
[scale_pos_weight: 1]
[sigmoid: 1]
[boost_from_average: 1]
[reg_sqrt: 0]
[alpha: 0.9]
[fair_c: 1]
[poisson_max_delta_step: 0.7]
[tweedie_variance_power: 1.5]
[lambdarank_truncation_level: 20]
[lambdarank_norm: 1]
[label_gain: ]
[eval_at: ]
[multi_error_top_k: 1]
[auc_mu_weights: ]
[num_machines: 1]
[local_listen_port: 12400]
[time_out: 120]
[machine_list_filename: ]
[machines: ]
[gpu_platform_id: -1]
[gpu_device_id: -1]
[gpu_use_dp: 0]

end of parameters

pandas_categorical:null
