tree
version=v3
num_class=1
num_tree_per_iteration=1
label_index=0
max_feature_idx=8
objective=binary sigmoid:1
feature_names=Column_0 Column_1 Column_2 Column_3 Column_4 Column_5 Column_6 Column_7 Column_8
feature_infos=[0:4] [0:2] [0:10] [0:5] [0:2] [1:3] [0:1] [0:4] [0:1]
tree_sizes=1440 1474 1571 1466 1559 1365 1676 1467 1570 1471 1569 1470 1566 1459 1674 1466 1467 1591 1483 1570 1483 1469 1574 1580 1686 1467 1473 1585 1576 1579 1486 1688 1483 1487 1687 1376 1472 1368 1373 1694 1580 1469 1368

Tree=0
num_leaves=13
num_cat=0
split_feature=5 4 2 2 3 2 2 2 7 7 0 5
split_gain=16.5579 7.8107 5.32319 2.90796 1.21777 0.769163 2.00957 1.70168 1.22182 0.52461 0.373333 1.77636e-15
threshold=2.5000000000000004 1.5000000000000002 1.5000000000000002 3.5000000000000004 2.5000000000000004 3.5000000000000004 2.5000000000000004 5.5000000000000009 1.5000000000000002 1.5000000000000002 1.5000000000000002 1.5000000000000002
decision_type=2 2 2 2 2 2 2 2 2 2 2 2
left_child=2 3 11 -2 5 6 -4 9 -9 -7 -6 -1
right_child=1 -3 4 -5 10 7 -8 8 -10 -11 -12 -13
leaf_value=-0.98629073260431188 -0.94174527825799115 -0.8057644176218538 -0.95129073276077403 -0.87023810154416026 -0.91629073291723639 -0.97097823267276417 -0.89602757511308284 -0.88829073304240613 -0.94174527825799115 -0.94305543867994168 -0.88829073304240613 -0.98629073260431199
leaf_weight=2.0408163964748409 2.2448980361223203 3.8775511533021927 2.8571429550647798 3.8775511533021927 2.8571429550647727 3.2653062343597394 3.8775511533021927 2.0408163964748383 2.2448980361223221 3.469387874007225 2.0408163964748383 2.4489796757698059
leaf_count=10 11 19 14 19 14 16 19 10 11 17 10 12
internal_value=-0.916291 -0.861291 -0.936554 -0.896457 -0.926696 -0.932785 -0.919473 -0.94092 -0.916291 -0.956594 -0.904624 -0.986291
internal_weight=0 10 27.1429 6.12245 22.6531 17.7551 6.73469 11.0204 4.28571 6.73469 4.89796 4.4898
internal_count=182 49 133 30 111 87 33 54 21 33 24 22
shrinkage=1


Tree=1
num_leaves=13
num_cat=0
split_feature=5 4 3 0 7 0 1 0 6 5 8 7
split_gain=14.7181 6.51949 1.89709 1.0385 0.550598 1.03321 1.29473 1.4017 0.537925 0.233673 0.200662 0.00187912
threshold=2.5000000000000004 1.5000000000000002 2.5000000000000004 1.5000000000000002 3.5000000000000004 1.5000000000000002 1.5000000000000002 2.5000000000000004 1.0000000180025095e-35 1.5000000000000002 1.0000000180025095e-35 1.5000000000000002
decision_type=2 2 2 2 2 2 2 2 2 2 2 2
left_child=2 3 4 -2 5 8 7 9 -1 -7 -4 -9
right_child=1 -3 10 -5 -6 6 -8 11 -10 -11 -12 -13
leaf_value=-0.026421562958615287 0.042180229413421387 0.10027359532305852 -0.0032510210552442321 0.00078158280487057119 -0.002325375381551933 -0.019637425406326191 -0.069277403907992738 -0.048833265106391341 -0.00073372346555399394 0.0044261218509752155 0.016696396767557593 -0.046817612886809773
leaf_weight=4.6410438716411679 2.6674570888280851 4.0553636997938156 2.2459621727466574 3.5059108436107635 2.2277913987636557 2.0109009593725187 2.6100949943065634 2.4200092852115631 3.6336427330970764 2.0245740562677383 2.8741567581892014 2.2142525017261505
leaf_count=23 13 19 11 17 11 10 13 12 18 10 14 11
internal_value=0 0.0510229 -0.0194397 0.0186696 -0.025877 -0.0285602 -0.0384041 -0.0291094 -0.0151413 -0.00756489 0.00794638 -0.0478702
internal_weight=0 10.2287 26.9024 6.17337 21.7823 19.5545 11.2798 8.66974 8.27469 4.03548 5.12012 4.63426
internal_count=182 49 133 30 108 97 56 43 41 20 25 23
shrinkage=0.05


Tree=2
num_leaves=14
num_cat=0
split_feature=5 3 2 0 2 1 0 7 2 5 2 6 6
split_gain=13.1215 5.68036 5.037 2.34276 1.22784 1.201 1.66654 3.73093 0.759497 1.75385 0.568809 5.20595 4.52647e-05
threshold=2.5000000000000004 1.0000000180025095e-35 1.5000000000000002 1.5000000000000002 3.5000000000000004 1.5000000000000002 1.5000000000000002 2.5000000000000004 3.5000000000000004 1.5000000000000002 4.5000000000000009 1.0000000180025095e-35 1.0000000180025095e-35
decision_type=2 2 2 2 2 2 2 2 2 2 2 2 2
left_child=2 4 12 -3 -2 8 7 10 -4 -10 11 -7 -1
right_child=1 3 5 -5 -6 6 -8 -9 9 -11 -12 -13 -14
leaf_value=-0.068040870900597739 -0.020842610687232293 0.11691383607307314 0.021552177622055715 0.051197944837253484 0.029601850728939529 0.055986564618080381 -0.051906497400341881 -0.069713190903831379 -0.044663156237255558 0.013538018487488163 0.022355601083106171 -0.050946196216477661 -0.068366477017119107
leaf_weight=2.3376974910497692 2.037240192294119 2.6204702705144882 3.8400316089391708 2.8110456764698029 2.9575125873088837 1.9986708164215068 2.9693150222301492 2.0274298787117004 2.0154234617948532 3.6181517541408539 3.2535497695207596 2.6437705904245377 1.9642079472541807
leaf_count=12 10 12 19 13 14 10 15 10 10 18 16 13 10
internal_value=0 0.0475122 -0.0186416 0.082903 0.00902676 -0.0091116 -0.0190434 -0.00921002 0.00440471 -0.00728358 0.0063252 -0.00490934 -0.0681895
internal_weight=0 10.4263 26.6682 5.43152 4.99475 22.3663 12.8927 9.92342 9.47361 5.63358 7.89599 4.64244 4.30191
internal_count=182 49 133 25 24 111 64 49 47 28 39 23 22
shrinkage=0.05


Tree=3
num_leaves=13
num_cat=0
split_feature=5 4 2 2 1 0 8 2 5 6 2 6
split_gain=11.7307 4.92431 4.7655 2.35577 1.0977 1.5615 1.07395 1.85151 0.356903 1.50292 2.25204 3.68637e-05
threshold=2.5000000000000004 1.5000000000000002 1.5000000000000002 3.5000000000000004 1.5000000000000002 1.5000000000000002 1.0000000180025095e-35 3.5000000000000004 1.5000000000000002 1.0000000180025095e-35 4.5000000000000009 1.0000000180025095e-35
decision_type=2 2 2 2 2 2 2 2 2 2 2 2
left_child=2 3 11 -2 6 8 7 -4 -6 -10 -11 -1
right_child=1 -3 4 -5 5 -7 -8 -9 9 10 -12 -13
leaf_value=-0.066854334302749757 -0.025080792821849652 0.08551461582198161 0.021888035150187359 0.038878605107173281 0.007020799925030974 -0.05054806175576157 0.03278938738623325 -0.029484671592955328 0.012255685760471639 -0.068963359123876591 0.0041376717859562913 -0.067153016612688618
leaf_weight=2.2621433883905437 2.2341923713684064 4.3131842613220215 3.2642212212085724 4.0483747869729996 2.6166913062334043 2.8984699398279199 2.4363792389631271 3.790577620267868 3.0453997999429703 2.1922195106744766 2.0284682065248489 1.9013109654188154
leaf_count=12 11 19 16 19 13 15 12 19 15 11 10 10
internal_value=0 0.0443763 -0.0178904 0.0161335 -0.00871195 -0.0182773 0.00416922 -0.00571477 -0.0088128 -0.0145149 -0.0338309 -0.0669907
internal_weight=0 10.5958 26.4359 6.28257 22.2724 12.7812 9.49118 7.0548 9.88278 7.26609 4.22069 4.16345
internal_count=182 49 133 30 111 64 47 35 49 36 21 22
shrinkage=0.05


Tree=4
num_leaves=14
num_cat=0
split_feature=3 2 6 2 2 0 2 1 2 7 7 2 2
split_gain=10.1175 5.36045 3.88234 4.97557 4.97122 1.05033 1.03584 2.26647 2.10719 1.9356 1.50085 0.277577 0.00449156
threshold=1.0000000180025095e-35 2.5000000000000004 1.0000000180025095e-35 4.5000000000000009 4.5000000000000009 1.5000000000000002 3.5000000000000004 1.5000000000000002 5.5000000000000009 1.5000000000000002 1.5000000000000002 4.5000000000000009 1.5000000000000002
decision_type=2 2 2 2 2 2 2 2 2 2 2 2 2
left_child=1 5 4 -4 -2 -1 7 -3 9 -8 -10 -11 -7
right_child=2 6 3 -5 -6 12 8 -9 10 11 -12 -13 -14
leaf_value=-0.027281210763049613 0.12776128159262087 0.043502867362396044 -0.035454469163655196 0.060194962680604626 0.03090209192725446 -0.065972377091469678 -0.05422685002083269 -0.0230985811951641 0.040356840986787129 -0.019138099371068244 -0.012763788294861446 0.0055899524734742637 -0.069054901775282077
leaf_weight=2.4845862537622478 2.2123505622148496 3.0758434087038067 2.8451068252325058 2.6040460616350174 3.3017028421163559 2.5651368796825409 3.5221735835075361 2.184672087430954 2.6962834149599066 1.9910751432180402 2.6234776973724365 2.6390559375286102 2.1912423372268677
leaf_count=13 10 15 14 12 15 14 18 11 13 10 13 13 11
internal_value=0 -0.0170944 0.0401854 0.0102546 0.069764 -0.0536291 -0.00297217 0.0158435 -0.0103192 -0.0262931 0.01416 -0.00504374 -0.0673925
internal_weight=0 25.9735 10.9632 5.44915 5.51405 7.24097 18.7326 5.26052 13.4721 8.1523 5.31976 4.63013 4.75638
internal_count=182 131 51 26 25 38 93 26 67 41 26 23 25
shrinkage=0.05


Tree=5
num_leaves=12
num_cat=0
split_feature=5 2 4 2 1 7 8 2 2 6 1
split_gain=9.80517 4.31948 3.90391 2.02719 0.994302 0.978596 0.955016 1.65301 0.727671 2.03099 0.000123015
threshold=2.5000000000000004 1.5000000000000002 1.5000000000000002 3.5000000000000004 1.5000000000000002 2.5000000000000004 1.0000000180025095e-35 3.5000000000000004 4.5000000000000009 1.0000000180025095e-35 1.5000000000000002
decision_type=2 2 2 2 2 2 2 2 2 2 2
left_child=1 10 3 -2 6 8 7 -3 9 -6 -1
right_child=2 4 -4 -5 5 -7 -8 -9 -10 -11 -12
leaf_value=-0.064836059132693899 -0.024016176666254132 0.020469129873999237 0.075671778217824948 0.035337961087970111 0.0057461600701435057 -0.046590235625965433 0.030838075896657831 -0.028149311152145931 0.0062756226736759334 -0.050714899191443522 -0.065396343023755035
leaf_weight=1.9406501054763821 2.2072965055704099 3.2941018342971802 4.4734811782836914 4.1306912302970886 3.346836715936659 2.333349436521531 2.4656444936990738 3.7255906909704208 3.9051529318094254 3.0390201210975647 1.9784103184938431
leaf_count=11 11 16 19 19 17 12 12 19 19 16 11
internal_value=0 -0.0167396 0.0399091 0.014667 -0.0081641 -0.017355 0.00406842 -0.00533434 -0.0107263 -0.0211236 -0.0651189
internal_weight=0 26.0288 10.8115 6.33799 22.1097 12.6244 9.48534 7.01969 10.291 6.38586 3.91906
internal_count=182 133 49 30 111 64 47 35 52 33 22
shrinkage=0.05


Tree=6
num_leaves=15
num_cat=0
split_feature=5 2 3 0 3 2 2 2 2 0 5 0 1 1
split_gain=8.8139 4.10139 3.52849 1.90257 0.908487 0.846255 0.606833 1.74956 1.35291 0.277714 0.148586 0.213649 0.0246863 0.000101213
threshold=2.5000000000000004 1.5000000000000002 1.0000000180025095e-35 1.5000000000000002 2.5000000000000004 4.5000000000000009 3.5000000000000004 2.5000000000000004 5.5000000000000009 1.5000000000000002 1.5000000000000002 1.5000000000000002 1.5000000000000002 1.5000000000000002
decision_type=2 2 2 2 2 2 2 2 2 2 2 2 2 2
left_child=1 13 5 -4 6 -2 7 -3 10 -6 -8 -12 -10 -1
right_child=2 4 3 -5 9 -7 8 -9 12 -11 11 -13 -14 -15
leaf_value=-0.063904791930250143 -0.012740598761777076 -0.031916381083864971 0.09329336221073703 0.036291128738578753 0.00096591209845714422 0.028211031897824552 -0.045591654052558266 0.020306626285345714 0.0051496973385177867 0.02505777290285495 -0.041615596681838882 -0.018443129424828446 -0.0024945877922567051 -0.064422144389057634
leaf_weight=1.8722185343503979 2.6273310184478742 2.7409795671701493 2.8422977179288864 3.0183906108140945 2.8187664002180091 2.4267616719007492 2.2891998589038831 3.8655649125576019 2.0110241025686264 2.0780104398727417 1.9194745719432833 2.0646569728851318 2.2242818772792816 1.9096544235944748
leaf_count=11 13 14 12 13 14 11 12 19 10 10 10 11 11 11
internal_value=0 -0.0160651 0.0375359 0.0639359 -0.00780086 0.00692264 -0.0132342 -0.0013601 -0.0206991 0.0111896 -0.0354401 -0.0296072 0.0011351 -0.064166
internal_weight=0 25.7938 10.9148 5.86069 22.012 5.05409 17.1152 6.60654 10.5086 4.89678 6.27333 3.98413 4.23531 3.78187
internal_count=182 133 49 25 111 24 87 33 54 24 33 21 21 22
shrinkage=0.05


Tree=7
num_leaves=13
num_cat=0
split_feature=5 2 4 2 1 0 7 8 2 2 6 1
split_gain=7.93181 3.89861 3.11944 1.69301 0.878551 1.46895 3.47308 0.826224 1.4624 0.300033 4.25685 8.35171e-05
threshold=2.5000000000000004 1.5000000000000002 1.5000000000000002 3.5000000000000004 1.5000000000000002 1.5000000000000002 2.5000000000000004 1.0000000180025095e-35 3.5000000000000004 4.5000000000000009 1.0000000180025095e-35 1.5000000000000002
decision_type=2 2 2 2 2 2 2 2 2 2 2 2
left_child=1 11 3 -2 7 6 9 8 -3 10 -6 -1
right_child=2 4 -4 -5 5 -7 -8 -9 -10 -11 -12 -13
leaf_value=-0.063044115402041995 -0.022987711063411666 0.019195638686671838 0.066778019233610458 0.031269011624687128 0.05258640670807864 -0.048320035349504686 -0.067382282483932063 0.028689541031407653 -0.02665039976949124 0.019210343875056896 -0.045616638483978143 -0.063522735115959572
leaf_weight=1.804602503776553 2.1798429340124112 3.3211546987295151 4.5986051112413406 4.2235078066587448 2.035734221339224 2.7655593752861032 1.9114047586917875 2.4994921535253525 3.6522167474031448 3.3251668661832809 2.4098046571016312 1.8415834009647369
leaf_count=11 11 16 19 19 10 15 10 12 19 16 13 11
internal_value=0 -0.0154126 0.0353611 0.0127988 -0.00744947 -0.0161817 -0.00700183 0.00402496 -0.00481565 0.0078503 -0.00064677 -0.0632859
internal_weight=0 25.5667 11.002 6.40335 21.9205 12.4477 9.68211 9.47286 6.97337 7.77071 4.44554 3.64619
internal_count=182 133 49 30 111 64 49 47 35 39 23 22
shrinkage=0.05


Tree=8
num_leaves=14
num_cat=0
split_feature=5 2 3 0 3 6 2 2 2 2 7 7 1
split_gain=7.15239 3.70615 2.83998 1.65824 0.822733 2.51694 0.661701 0.522594 1.66368 1.24077 0.929059 0.515431 6.90972e-05
threshold=2.5000000000000004 1.5000000000000002 1.0000000180025095e-35 1.5000000000000002 2.5000000000000004 1.0000000180025095e-35 4.5000000000000009 3.5000000000000004 2.5000000000000004 5.5000000000000009 1.5000000000000002 1.5000000000000002 1.5000000000000002
decision_type=2 2 2 2 2 2 2 2 2 2 2 2 2
left_child=1 12 6 -4 7 -6 -2 8 -3 11 -11 -9 -1
right_child=2 4 3 -5 5 -7 -8 9 -10 10 -12 -13 -14
leaf_value=-0.062247245239463005 -0.011765259863473758 -0.031362094716170422 0.083729516590756586 0.031107578060009047 0.055093432998427595 -0.018173500352060001 0.02434671883469941 -0.048952255966490395 0.019669792426851972 0.025306882662568132 -0.021633959417126768 -0.019871332018736237 -0.062690802708486745
leaf_weight=1.7380064278841045 2.5991687923669797 2.7162526398897233 2.912869468331337 3.0802410840988159 1.9442026168107975 2.9519798308610916 2.477835401892662 2.9210481345653516 3.8761548548936844 2.0767038613557816 2.1406627893447876 3.1850952953100204 1.7744225412607193
leaf_count=11 13 14 12 13 9 15 11 16 19 10 11 17 11
internal_value=0 -0.0148056 0.0333745 0.0566838 -0.00712996 0.0109197 0.00585922 -0.0123543 -0.00135674 -0.0193771 0.00148052 -0.033783 -0.0624713
internal_weight=0 25.3245 11.0701 5.99311 21.8121 4.89618 5.077 16.9159 6.59241 10.3235 4.21737 6.10614 3.51243
internal_count=182 133 49 25 111 24 24 87 33 54 21 33 22
shrinkage=0.05


Tree=9
num_leaves=13
num_cat=0
split_feature=5 2 4 2 1 0 7 8 2 5 6 1
split_gain=6.45412 3.52694 2.54312 1.42493 0.795837 1.36956 3.26681 0.735753 1.29158 0.297649 1.21531 5.73094e-05
threshold=2.5000000000000004 1.5000000000000002 1.5000000000000002 3.5000000000000004 1.5000000000000002 1.5000000000000002 2.5000000000000004 1.0000000180025095e-35 3.5000000000000004 1.5000000000000002 1.0000000180025095e-35 1.5000000000000002
decision_type=2 2 2 2 2 2 2 2 2 2 2 2
left_child=1 11 3 -2 7 6 9 8 -3 -6 -11 -1
right_child=2 4 -4 -5 5 -7 -8 -9 -10 10 -12 -13
leaf_value=-0.061508217144187451 -0.022012152333404967 0.018012257253920395 0.059625868619294031 0.027822619098971598 0.023583132320963332 -0.046849976025115994 -0.066198565469269166 0.027231273865344508 -0.025201905282706074 0.027501347827113155 -0.019379916774558734 -0.061919951667625289
leaf_weight=1.6726010590791729 2.1528080254793149 3.3452626615762711 4.6738938838243484 4.2983705848455429 2.1644396185874921 2.675167605280877 1.8443596363067625 2.5194633901119232 3.5788420140743256 2.5158608704805374 3.0683248490095139 1.7083605527877808
leaf_count=11 11 16 19 19 11 15 10 12 19 12 16 11
internal_value=0 -0.0142131 0.0315404 0.0111924 -0.00681592 -0.0152146 -0.00639259 0.00409488 -0.00432372 0.00784268 0.00174165 -0.0617163
internal_weight=0 25.0927 11.1251 6.45118 21.7117 12.2682 9.59298 9.44357 6.9241 7.74863 5.58419 3.38096
internal_count=182 133 49 30 111 64 49 47 35 39 28 22
shrinkage=0.05


Tree=10
num_leaves=14
num_cat=0
split_feature=3 2 6 2 8 0 2 1 2 7 7 2 2
split_gain=5.86715 4.14307 2.2611 3.98389 3.87068 1.17496 0.876447 1.65827 1.58767 1.78876 1.17152 0.212165 0.0156194
threshold=1.0000000180025095e-35 2.5000000000000004 1.0000000180025095e-35 4.5000000000000009 1.0000000180025095e-35 1.5000000000000002 3.5000000000000004 1.5000000000000002 5.5000000000000009 1.5000000000000002 1.5000000000000002 4.5000000000000009 1.5000000000000002
decision_type=2 2 2 2 2 2 2 2 2 2 2 2 2
left_child=1 5 3 -2 -4 -1 7 -3 9 -8 -10 -11 -7
right_child=2 6 4 -5 -6 12 8 -9 10 11 -12 -13 -14
leaf_value=-0.019033303262708627 0.10095925287071483 0.038255138746045581 0.047942164399359832 0.017140547532273384 -0.036364013500645574 -0.06120439367935069 -0.05125749211787544 -0.019198321515013116 0.034711378413804971 -0.015354522461825396 -0.012089592453753534 0.0066915413550345006 -0.067335030912725122
leaf_weight=2.1924123018980053 2.3844784647226316 3.1677834242582348 2.7640958577394485 3.4962709546089172 2.6829946488142014 2.0757618248462677 3.2740918099880201 2.0809575617313385 2.7832241803407669 1.8893349170684812 2.5735791027545929 2.5837469547986984 2.0800375193357468
leaf_count=13 10 15 13 15 13 14 18 11 13 10 13 13 11
internal_value=0 -0.0138313 0.0296275 0.0511267 0.00641669 -0.048649 -0.00178792 0.0154767 -0.00870318 -0.0231752 0.0122267 -0.00262025 -0.0642729
internal_weight=0 24.7009 11.3278 5.88075 5.44709 6.34821 18.3527 5.24874 13.104 7.74717 5.3568 4.47308 4.1558
internal_count=182 131 51 25 26 38 93 26 67 41 26 23 25
shrinkage=0.05


Tree=11
num_leaves=13
num_cat=0
split_feature=5 2 4 2 1 0 8 2 5 6 2 1
split_gain=5.454 3.25272 2.08082 1.25486 0.724184 1.25207 0.689676 1.16468 0.363111 1.04511 1.95474 0.000214232
threshold=2.5000000000000004 1.5000000000000002 1.5000000000000002 3.5000000000000004 1.5000000000000002 1.5000000000000002 1.0000000180025095e-35 3.5000000000000004 1.5000000000000002 1.0000000180025095e-35 4.5000000000000009 1.5000000000000002
decision_type=2 2 2 2 2 2 2 2 2 2 2 2
left_child=1 11 3 -2 6 8 7 -3 -6 -10 -11 -1
right_child=2 4 -4 -5 5 -7 -8 -9 9 10 -12 -13
leaf_value=-0.060179365534662604 -0.02106128805602733 0.016931622013558533 0.054084677673916629 0.025815210300725852 0.010141682933775747 -0.045338989630720111 0.026412589499721629 -0.024205938710163927 0.0099129382945137637 -0.064848198108187802 0.0057772976355343654 -0.061001963884056966
leaf_weight=1.5455074608325985 2.1277631819248182 3.3606581687927246 4.7091211825609207 4.3390026390552521 2.5377010256051999 2.5774878561496744 2.5264955759048462 3.5255288630723953 3.0686377137899399 1.9328268319368365 1.9868260025978086 1.6223345100879669
leaf_count=11 11 16 19 19 13 15 12 19 15 11 10 11
internal_value=0 -0.0132979 0.0288022 0.0103914 -0.00633351 -0.0144229 0.00406834 -0.00412962 -0.00605775 -0.0119404 -0.029049 -0.0606006
internal_weight=0 24.684 11.1759 6.46677 21.5162 12.1035 9.41268 6.88619 9.52599 6.98829 3.91965 3.16784
internal_count=182 133 49 30 111 64 47 35 49 36 21 22
shrinkage=0.05


Tree=12
num_leaves=14
num_cat=0
split_feature=3 2 5 6 0 0 2 2 7 1 7 2 2
split_gain=4.99138 3.75762 1.93531 2.36297 1.55799 1.17793 0.807453 1.42328 1.65458 1.40859 1.04518 0.179381 0.0161489
threshold=1.0000000180025095e-35 2.5000000000000004 2.5000000000000004 1.0000000180025095e-35 1.5000000000000002 1.5000000000000002 3.5000000000000004 5.5000000000000009 1.5000000000000002 1.5000000000000002 1.5000000000000002 4.5000000000000009 1.5000000000000002
decision_type=2 2 2 2 2 2 2 2 2 2 2 2 2
left_child=1 5 3 -2 -4 -1 9 8 -8 -3 -9 -10 -7
right_child=2 6 4 -5 -6 12 7 10 11 -11 -12 -13 -14
leaf_value=-0.017072983761025156 0.047425658688089491 0.035510283664575294 0.072493350491705202 -0.021609358944015389 0.021953646114415006 -0.059987676942643946 -0.049881287857792965 0.03237578462644506 -0.014428576712743191 -0.017608755965000677 -0.011770222921227492 0.005907204877367526 -0.066394672291746254
leaf_weight=2.1250167936086681 2.0125222504138929 3.2168706357479122 2.9451633840799332 3.2272220104932785 3.1620976030826569 1.9213496595621111 3.1625829041004163 2.8187309354543686 1.8635917305946348 2.0391418635845184 2.5570303946733475 2.5936246514320374 2.0148804485797882
leaf_count=13 9 15 12 17 13 14 18 13 10 11 13 13 11
internal_value=0 -0.0129623 0.0271994 0.00490615 0.0463259 -0.047072 -0.00163463 -0.00832283 -0.0222213 0.014902 0.0113773 -0.00259532 -0.0632673
internal_weight=0 24.3128 11.347 5.23974 6.10726 6.06125 18.2516 12.9956 7.6198 5.25601 5.37576 4.45722 3.93623
internal_count=182 131 51 26 25 38 93 67 41 26 26 23 25
shrinkage=0.05


Tree=13
num_leaves=13
num_cat=0
split_feature=3 2 5 6 1 1 2 2 7 1 7 2
split_gain=4.51796 3.51893 1.73902 2.1146 1.43635 0.734519 0.728763 1.29881 1.55627 1.2562 0.932558 0.162804
threshold=1.0000000180025095e-35 2.5000000000000004 2.5000000000000004 1.0000000180025095e-35 1.5000000000000002 1.5000000000000002 3.5000000000000004 5.5000000000000009 1.5000000000000002 1.5000000000000002 1.5000000000000002 4.5000000000000009
decision_type=2 2 2 2 2 2 2 2 2 2 2 2
left_child=1 5 3 -2 -4 -1 9 8 -8 -3 -9 -10
right_child=2 6 4 -5 -6 -7 7 10 11 -11 -12 -13
leaf_value=-0.062872129169928848 0.04440716986763743 0.033295265444848288 0.020495429844449353 -0.020747470983052397 0.068964242288253957 -0.027539409482338708 -0.048706115131541855 0.030404450609042552 -0.013804911869029702 -0.01688188619261068 -0.011240483507908065 0.0055977038922312133
leaf_weight=3.0825507044792202 2.0410836040973646 3.2582261264324215 3.1645663380622864 3.1940843313932419 2.9566441625356674 2.8134100288152695 3.079080715775488 2.8505629748106003 1.8507298827171323 2.0210635811090469 2.5440017431974411 2.6000085771083832
leaf_count=20 9 15 13 17 12 18 18 13 10 11 13 13
internal_value=0 -0.0124406 0.0258121 0.00465497 0.0439067 -0.0460122 -0.0015671 -0.00796101 -0.021377 0.014086 0.0107653 -0.0024704
internal_weight=0 24.0996 11.3564 5.23517 6.12121 5.89596 18.2037 12.9244 7.52982 5.27929 5.39456 4.45074
internal_count=182 131 51 26 25 38 93 67 41 26 26 23
shrinkage=0.05


Tree=14
num_leaves=15
num_cat=0
split_feature=5 2 1 6 0 1 0 8 2 7 5 6 2 1
split_gain=4.1323 2.91814 1.78894 1.85774 1.78853 0.619832 1.1647 0.650767 1.08657 2.8217 0.350379 0.889729 1.81983 0.000538346
threshold=2.5000000000000004 1.5000000000000002 1.5000000000000002 1.0000000180025095e-35 2.5000000000000004 1.5000000000000002 1.5000000000000002 1.0000000180025095e-35 4.5000000000000009 1.5000000000000002 1.5000000000000002 1.0000000180025095e-35 4.5000000000000009 1.5000000000000002
decision_type=2 2 2 2 2 2 2 2 2 2 2 2 2 2
left_child=1 13 4 -4 -2 7 10 8 9 -3 -7 -12 -13 -1
right_child=2 5 3 -5 -6 6 -8 -9 -10 -11 11 12 -14 -15
leaf_value=-0.058476881511513194 -0.019534967557942318 -0.025619213293287757 0.07069885145935613 0.012208855228526064 0.036996972852259565 0.010944155008591659 -0.043681973077561498 0.02587597463629969 -0.02913178907305208 0.056716511806300919 0.0091283164646528189 -0.06329305360712538 0.0060550017932435377 -0.059848280019870886
leaf_weight=1.3630328103899982 3.1975776404142362 2.2826815843582153 3.1095657348632812 2.4095095992088318 2.4875061064958572 2.5128079205751401 2.4604470580816278 2.5200978964567184 2.618936225771904 1.9123207926750181 3.0703975558280945 1.8116736412048342 1.9798901230096815 1.5065741837024689
leaf_count=11 14 12 14 10 11 13 15 12 14 9 15 11 10 11
internal_value=0 -0.0118809 0.0248859 0.0451634 0.00520056 -0.00546698 -0.013065 0.00416704 -0.00386188 0.0119141 -0.00502946 -0.0108789 -0.0270807 -0.0591969
internal_weight=0 24.0389 11.2042 5.51908 5.68508 21.1693 11.8352 9.33404 6.81394 4.195 9.37477 6.86196 3.79156 2.86961
internal_count=182 133 49 24 25 111 64 47 35 21 49 36 21 22
shrinkage=0.05


Tree=15
num_leaves=13
num_cat=0
split_feature=3 2 2 6 2 0 8 2 2 7 0 2
split_gain=3.98791 3.16965 1.54239 1.49414 2.30109 1.16171 0.659453 1.32261 1.70128 1.58762 1.52125 0.0121096
threshold=1.0000000180025095e-35 2.5000000000000004 5.5000000000000009 1.0000000180025095e-35 4.5000000000000009 1.5000000000000002 1.0000000180025095e-35 5.5000000000000009 3.5000000000000004 1.5000000000000002 1.5000000000000002 1.5000000000000002
decision_type=2 2 2 2 2 2 2 2 2 2 2 2
left_child=1 5 3 4 -2 -1 7 8 10 -10 -3 -7
right_child=2 6 -4 -5 -6 11 -8 -9 9 -11 -12 -13
leaf_value=-0.01441679373633436 0.08734569943542736 -0.02432647284433518 -0.010039041863746684 0.011579864828019468 0.01795196172985206 -0.058629838293099437 0.018589466319471674 0.019102885821588672 -0.064146853462916001 -0.011403062260109648 0.030534392205375772 -0.064437690448719873
leaf_weight=2.0376817584037807 2.4167653918266279 2.2777929157018679 2.5426755100488654 3.9836855530738831 2.3623719811439514 1.7163880094885826 3.2939938008785239 3.8438501656055442 2.4420409053564072 3.4316172152757645 2.8380305618047714 1.8812108933925629
leaf_count=13 10 12 11 20 10 14 16 19 15 18 13 11
internal_value=0 -0.0118295 0.0242455 0.0341938 0.0530437 -0.0445815 -0.00164785 -0.00614189 -0.0149719 -0.0333319 0.00610789 -0.0616668
internal_weight=0 23.7626 11.3055 8.76282 4.77914 5.63528 18.1273 14.8333 10.9895 5.87366 5.11582 3.5976
internal_count=182 131 51 40 20 38 93 77 58 33 25 25
shrinkage=0.05


Tree=16
num_leaves=13
num_cat=0
split_feature=3 2 5 0 0 2 2 7 2 0 0 1
split_gain=3.60808 3.01265 1.44263 1.26593 1.07278 1.09328 0.66872 1.7028 1.65548 0.462893 0.131318 0.00224581
threshold=1.0000000180025095e-35 1.5000000000000002 2.5000000000000004 1.5000000000000002 1.0000000180025095e-35 2.5000000000000004 3.5000000000000004 3.5000000000000004 5.5000000000000009 1.5000000000000002 1.5000000000000002 1.5000000000000002
decision_type=2 2 2 2 2 2 2 2 2 2 2 2
left_child=1 11 10 -4 -3 -6 -7 8 9 -8 -2 -1
right_child=2 4 3 -5 5 6 7 -9 -10 -11 -12 -13
leaf_value=-0.057540185249891129 -0.0033140442889761645 0.025451475252769768 0.063202485808267914 0.017627669474918867 -0.041902804271605198 0.011316143137636112 -0.020015931877358843 0.031264558866705587 0.0050522666069995198 -0.050059587102642217 0.012661216300333287 -0.060351582288685937
leaf_weight=1.2522010132670429 2.9317240417003614 2.5870766192674663 2.9284059256315231 3.1764639616012573 2.2120724916458157 4.7522680312395087 2.1321956217288935 1.9550788551568992 3.8089392930269241 3.2156088799238205 2.292102038860321 1.6415562108159065
leaf_count=11 15 13 12 13 13 23 12 10 18 19 11 12
internal_value=0 -0.0113543 0.0229842 0.0394892 -0.00466293 -0.00897293 -0.00438122 -0.0110946 -0.0201388 -0.038081 0.00369555 -0.059135
internal_weight=0 23.557 11.3287 6.10487 20.6632 18.0762 15.8641 11.1118 9.15674 5.3478 5.22383 2.89376
internal_count=182 131 51 25 108 95 82 59 49 31 26 23
shrinkage=0.05


Tree=17
num_leaves=14
num_cat=0
split_feature=5 2 0 6 3 7 2 2 6 6 0 2 6
split_gain=3.28642 2.56795 1.44159 2.42006 0.993567 0.50709 0.968979 2.14875 2.01759 0.727117 0.317431 0.000191362 9.53484e-05
threshold=2.5000000000000004 1.5000000000000002 1.5000000000000002 1.0000000180025095e-35 1.0000000180025095e-35 3.5000000000000004 3.5000000000000004 4.5000000000000009 1.0000000180025095e-35 1.0000000180025095e-35 1.5000000000000002 5.5000000000000009 1.0000000180025095e-35
decision_type=2 2 2 2 2 2 2 2 2 2 2 2 2
left_child=1 12 4 -4 -2 6 9 10 11 -3 -8 -9 -1
right_child=2 5 3 -5 -6 -7 7 8 -10 -11 -12 -13 -14
leaf_value=-0.057664278201600652 0.017896364516807296 0.019445442715669441 -0.024240393374567425 0.041773125598313032 0.060298073376246465 0.016601702414975564 -0.033458284094979078 -0.023888466645769071 0.029379053868851448 -0.011323424534686093 -0.063515930431496948 -0.024561803918973123 -0.058274171913810506
leaf_weight=1.3728494718670872 2.6252524405717832 4.2771564126014772 3.2081281691789627 2.4475675821304321 2.9162812381982803 2.3984688967466345 1.6436892300844177 2.1327995955944061 3.0057306438684464 3.4842096120119095 1.8865074664354322 2.0884324014186859 1.2018411606550217
leaf_count=12 12 21 14 11 12 13 10 11 15 19 12 10 10
internal_value=0 -0.0108303 0.0220863 0.00432772 0.0402106 -0.00503041 -0.00783214 -0.0175472 -0.00192881 0.00563277 -0.0495208 -0.0242216 -0.057949
internal_weight=0 23.4917 11.1972 5.6557 5.54153 20.917 18.5185 10.7572 7.22696 7.76137 3.5302 4.22123 2.57469
internal_count=182 133 49 25 24 111 98 58 36 40 22 21 22
shrinkage=0.05


Tree=18
num_leaves=13
num_cat=0
split_feature=3 6 8 0 0 7 0 1 6 0 0 6
split_gain=3.11086 1.31371 3.34405 2.46529 0.981846 0.900675 0.448147 1.44789 0.671147 3.20778 2.46516 0.198177
threshold=1.0000000180025095e-35 1.0000000180025095e-35 1.0000000180025095e-35 1.5000000000000002 1.0000000180025095e-35 3.5000000000000004 1.5000000000000002 1.5000000000000002 1.0000000180025095e-35 2.5000000000000004 2.5000000000000004 1.0000000180025095e-35
decision_type=2 2 2 2 2 2 2 2 2 2 2 2
left_child=4 3 -3 -2 -1 6 11 8 9 -8 -10 -6
right_child=1 2 -4 -5 5 -7 7 -9 10 -11 -12 -13
leaf_value=0.016764577445926486 0.076666567324524301 0.041805901509131979 -0.03736148833908879 0.011043248000095851 -0.00015963209546303076 0.014678028988274368 0.013932172847184203 -0.061423284343312769 -0.043900946995112516 -0.066382339453743153 0.031761206844784902 -0.017697113625710255
leaf_weight=2.8594942465424564 2.3969742357730848 2.7439475655555725 2.5957251191139221 3.5519588589668274 3.6684351414442125 2.3375931680202475 2.363384045660494 2.1337177380919448 1.9199678823351858 2.6231307536363602 2.4505850449204445 2.872014544904232
leaf_count=15 10 13 13 15 20 12 13 15 11 16 13 16
internal_value=0 0.0213247 0.003321 0.0374845 -0.0106714 -0.0145231 -0.0183087 -0.0242557 -0.0157803 -0.0283169 -0.0014769 -0.00786062
internal_weight=0 11.2886 5.33967 5.94893 23.2283 20.3688 18.0312 11.4908 9.35707 4.98651 4.37055 6.54045
internal_count=182 51 26 25 131 116 104 68 53 29 24 36
shrinkage=0.05


Tree=19
num_leaves=14
num_cat=0
split_feature=2 5 1 1 2 5 3 7 2 6 2 1 3
split_gain=2.97068 2.11497 2.68694 1.6588 1.83061 1.51997 0.672542 0.585363 0.593191 2.63848 0.457575 0.267884 0.190114
threshold=2.5000000000000004 2.5000000000000004 1.5000000000000002 1.5000000000000002 3.5000000000000004 1.5000000000000002 1.0000000180025095e-35 2.5000000000000004 4.5000000000000009 1.0000000180025095e-35 1.5000000000000002 1.5000000000000002 1.0000000180025095e-35
decision_type=2 2 2 2 2 2 2 2 2 2 2 2 2
left_child=10 3 12 4 -2 -6 -4 8 9 -5 11 -1 -3
right_child=1 2 6 7 5 -7 -8 -9 -10 -11 -12 -13 -14
leaf_value=-0.02947641064688766 0.051300413524181403 -0.010445997245757489 0.03137422168356626 0.013868484815690647 -0.039089827791794068 0.017464687109096474 0.068530903663208562 -0.040322801517769992 0.0034936137136074418 -0.062465876716258688 -0.018274667851806099 -0.059380138573644929 0.0086157436665932757
leaf_weight=1.3716084882616988 2.3099160790443429 2.367539510130884 2.2526282519102097 2.343381889164446 1.8171731829643247 3.4317105114459991 2.6510495692491531 2.068889096379281 3.9533684104681015 2.1898876279592514 3.0162437036633492 1.6496733352541924 2.9230586886405945
leaf_count=12 10 11 10 13 10 18 11 12 19 14 17 13 12
internal_value=0 0.00658106 0.0247988 -0.00367143 0.0142087 -0.00211459 0.051462 -0.0164753 -0.0106618 -0.0230064 -0.032051 -0.0458044 8.56261e-05
internal_weight=0 28.3086 10.1943 18.1143 7.5588 5.24888 4.90368 10.5555 8.48664 4.53327 6.03753 3.02128 5.2906
internal_count=182 140 44 96 38 28 21 58 46 27 42 25 23
shrinkage=0.05


Tree=20
num_leaves=13
num_cat=0
split_feature=3 6 8 8 0 7 0 1 6 0 0 6
split_gain=2.6891 1.10447 2.98219 2.25328 0.880076 0.854179 0.454271 1.37611 0.63057 3.01378 2.27311 0.17854
threshold=1.0000000180025095e-35 1.0000000180025095e-35 1.0000000180025095e-35 1.0000000180025095e-35 1.0000000180025095e-35 3.5000000000000004 1.5000000000000002 1.5000000000000002 1.0000000180025095e-35 2.5000000000000004 2.5000000000000004 1.0000000180025095e-35
decision_type=2 2 2 2 2 2 2 2 2 2 2 2
left_child=4 3 -3 -2 -1 6 11 8 9 -8 -10 -6
right_child=1 2 -4 -5 5 -7 7 -9 10 -11 -12 -13
leaf_value=0.015878608276762001 0.00012984548949672068 0.039328983190618783 -0.035981786784689558 0.062201631464549101 0.00043666901257314304 0.01475415878272293 0.01282950913369249 -0.060749145811841168 -0.042999803063470614 -0.065639894451482259 0.029961264549724309 -0.016347124944815737
leaf_weight=2.8701684102416065 2.6259317249059659 2.741673469543457 2.5252313911914825 3.298714742064476 3.6390624120831552 2.3277087807655326 2.3733039423823339 2.0336956530809394 1.8757679834961889 2.5259905308485031 2.477510929107666 2.8065276220440865
leaf_count=15 11 13 13 14 20 12 13 15 11 16 13 16
internal_value=0 0.0198803 0.00322104 0.0346901 -0.0100177 -0.013723 -0.0174613 -0.0235092 -0.0153239 -0.0276279 -0.00147666 -0.0068713
internal_weight=0 11.1916 5.2669 5.92465 22.9297 20.0596 17.7319 11.2863 9.25257 4.89929 4.35328 6.44559
internal_count=182 51 26 25 131 116 104 68 53 29 24 36
shrinkage=0.05


Tree=21
num_leaves=13
num_cat=0
split_feature=2 0 2 7 2 2 1 3 2 0 0 1
split_gain=2.6826 1.6215 1.26107 0.884721 0.446488 0.427994 1.15972 0.965147 1.41469 0.412157 0.412034 0.263071
threshold=2.5000000000000004 1.0000000180025095e-35 4.5000000000000009 3.5000000000000004 1.5000000000000002 3.5000000000000004 1.5000000000000002 1.0000000180025095e-35 5.5000000000000009 1.5000000000000002 1.5000000000000002 1.5000000000000002
decision_type=2 2 2 2 2 2 2 2 2 2 2 2
left_child=4 2 -2 5 11 6 -3 8 10 -9 -7 -1
right_child=1 3 -4 -5 -6 7 -8 9 -10 -11 -12 -13
leaf_value=-0.028522017010191716 0.0080059267005538025 0.027865161376107762 0.063521873760155168 0.026783421521946273 -0.017360978190853672 -0.017890762005548223 -0.020172835089143113 0.02241754143290061 0.0055232307815621046 -0.0025221833583974809 -0.047076535854163389 -0.058791249320373808
leaf_weight=1.3218950554728499 2.0810232609510448 3.347538694739348 2.0118334591388702 2.971591278910636 2.9706149324774742 2.0598049759864789 2.0112311094999313 2.7608016133308402 3.7817278206348419 4.1419779509305954 2.9286982119083405 1.5707584097981453
leaf_count=12 11 15 9 15 17 12 11 12 18 18 19 13
internal_value=0 0.00620579 0.0352947 0.0012458 -0.0309764 -0.00236243 0.00983574 -0.00653311 -0.0175408 0.00745259 -0.0350254 -0.0449587
internal_weight=0 28.0962 4.09286 24.0034 5.86327 21.0318 5.35877 15.673 8.77023 6.90278 4.9885 2.89265
internal_count=182 140 20 120 42 105 26 79 49 30 31 25
shrinkage=0.05


Tree=22
num_leaves=14
num_cat=0
split_feature=2 0 2 7 2 2 1 0 8 8 2 1 2
split_gain=2.46322 1.44897 1.11343 0.790771 0.432731 0.38723 1.0418 0.891168 1.06433 0.925251 1.86802 0.2631 0.22325
threshold=2.5000000000000004 1.0000000180025095e-35 4.5000000000000009 3.5000000000000004 1.5000000000000002 3.5000000000000004 1.5000000000000002 1.5000000000000002 1.0000000180025095e-35 1.0000000180025095e-35 5.5000000000000009 1.5000000000000002 4.5000000000000009
decision_type=2 2 2 2 2 2 2 2 2 2 2 2 2
left_child=4 2 -2 5 11 6 -3 8 -7 10 12 -1 -9
right_child=1 3 -4 -5 -6 7 -8 9 -10 -11 -12 -13 -14
leaf_value=-0.02759022404631202 0.0075874530429344226 0.026243083573170248 0.05955262451887653 0.025179576904168211 -0.016640489105671438 0.025887433709557796 -0.019348805535515611 -0.066972584236685465 -0.015340340034034505 0.0076441925300341669 0.00035008171982783403 -0.058299378172086302 -0.040540611600593718
leaf_weight=1.2988097146153441 2.0858803987503078 3.3759679496288362 2.0379194170236588 3.0020158886909476 2.9449422657489777 3.6297679394483557 1.9925284981727598 1.598056532442568 2.7525798827409744 2.8195056915283203 3.1847925782203674 1.5064378529787064 1.5973897725343704
leaf_count=12 11 15 9 15 17 18 11 11 13 13 15 13 9
internal_value=0 0.00589266 0.0332679 0.00117961 -0.0300276 -0.00225935 0.00932156 -0.00624932 0.00810671 -0.0162089 -0.0267498 -0.0440813 -0.0537594
internal_weight=0 28.0764 4.1238 23.9526 5.75019 20.9506 5.3685 15.5821 6.38235 9.19974 6.38024 2.80525 3.19545
internal_count=182 140 20 120 42 105 26 79 31 48 35 25 20
shrinkage=0.05


Tree=23
num_leaves=14
num_cat=0
split_feature=3 2 2 6 2 0 2 0 6 2 0 0 1
split_gain=2.32176 2.3568 1.36131 1.04459 2.1499 0.605061 0.939318 0.731926 1.78429 1.24748 0.481908 0.116477 0.000804449
threshold=1.0000000180025095e-35 1.5000000000000002 5.5000000000000009 1.0000000180025095e-35 4.5000000000000009 1.0000000180025095e-35 2.5000000000000004 2.5000000000000004 1.0000000180025095e-35 4.5000000000000009 1.5000000000000002 1.5000000000000002 1.5000000000000002
decision_type=2 2 2 2 2 2 2 2 2 2 2 2 2
left_child=1 12 3 4 -2 -3 -7 8 9 11 -10 -8 -1
right_child=2 5 -4 -5 -6 6 7 -9 10 -11 -12 -13 -14
leaf_value=-0.05586533527670038 0.077364798034551041 0.018109600734080935 -0.014004981457333868 0.008739810212366271 0.0099972759337756401 -0.038980895994985061 0.018998428276508793 0.015180006108620107 -0.017713025434133483 -0.021012738664674593 -0.04735019350260318 0.037087826694599695 -0.057732264845749372
leaf_weight=1.0278043523430851 2.3648388683795911 2.6956191360950497 2.5082385390996924 3.9217229783535004 2.3723122179508209 2.0681853145360973 1.7108442783355695 4.0426883623003951 3.6431489884853363 1.989429324865341 2.1998226717114449 1.8544734939932823 1.3155691027641296
leaf_count=11 10 13 11 20 10 13 9 21 19 10 12 11 12
internal_value=0 -0.00944755 0.0184308 0.0278266 0.0436279 -0.00394224 -0.00733734 -0.0030988 -0.00958217 0.0107077 -0.0288711 0.0284075 -0.0569134
internal_weight=0 22.5476 11.1671 8.65887 4.73715 20.2042 17.5086 15.4404 11.3977 5.55475 5.84297 3.56532 2.34337
internal_count=182 131 51 40 20 108 95 82 61 30 31 20 23
shrinkage=0.05


Tree=24
num_leaves=15
num_cat=0
split_feature=5 2 1 0 6 1 7 0 8 2 7 5 8 1
split_gain=2.13384 2.03346 1.28751 1.92695 1.73544 0.581167 0.800773 3.03642 0.496872 0.904564 1.95362 0.285841 0.796242 0.000210622
threshold=2.5000000000000004 1.5000000000000002 1.5000000000000002 2.5000000000000004 1.0000000180025095e-35 1.5000000000000002 2.5000000000000004 1.5000000000000002 1.0000000180025095e-35 4.5000000000000009 1.5000000000000002 1.5000000000000002 1.0000000180025095e-35 1.5000000000000002
decision_type=2 2 2 2 2 2 2 2 2 2 2 2 2 2
left_child=1 13 3 -2 -4 8 7 11 9 10 -3 -7 -13 -1
right_child=2 5 4 -5 -6 6 -8 -9 -10 -11 -12 12 -14 -15
leaf_value=-0.055547055447455397 -0.024385549267838796 -0.021143136953283945 0.061031323483805258 0.03427076369402083 0.0037587221349792751 0.024033070041664561 -0.040076584333458037 -0.063083776390235657 0.024154187886580521 -0.02590531452033807 0.048178886024746903 -0.012257908831042885 0.027707444265112364 -0.056553791168742255
leaf_weight=0.98313786834478656 3.2050499469041807 2.0970096066594124 2.9559278935194016 2.4863821119070053 2.3938485085964203 2.1375645995140058 2.0472585558891305 1.8413028642535207 2.5054200440645218 2.4694968089461327 1.9721729010343549 3.3955128490924835 1.9689798057079313 1.1017380431294441
leaf_count=11 14 12 14 11 10 11 12 13 12 14 9 18 10 11
internal_value=0 -0.00904069 0.0177929 0.00123929 0.0354037 -0.00424154 -0.0117551 -0.00554946 0.00522142 -0.00203303 0.0124545 0.00857175 0.00241095 -0.0560791
internal_weight=0 22.5196 11.0412 5.69143 5.34978 20.4347 11.3906 9.34336 9.0441 6.53868 4.06918 7.50206 5.36449 2.08488
internal_count=182 133 49 25 24 111 64 52 47 35 21 39 28 22
shrinkage=0.05


Tree=25
num_leaves=13
num_cat=0
split_feature=2 5 1 1 2 8 7 2 6 2 1 7
split_gain=2.00194 1.5516 2.1091 1.4648 1.39174 1.03991 0.527477 0.429431 2.4897 0.39353 0.261354 0.0122333
threshold=2.5000000000000004 2.5000000000000004 1.5000000000000002 1.5000000000000002 3.5000000000000004 1.0000000180025095e-35 2.5000000000000004 4.5000000000000009 1.0000000180025095e-35 1.5000000000000002 1.5000000000000002 1.5000000000000002
decision_type=2 2 2 2 2 2 2 2 2 2 2 2
left_child=9 3 11 4 -2 -6 7 8 -5 10 -1 -3
right_child=1 2 -4 6 5 -7 -8 -9 -10 -11 -12 -13
leaf_value=-0.025253160090899125 0.044867685940915614 0.0012441952698780982 0.044700187297690659 0.014561743839324163 -0.018917958695725011 0.027418427881133189 -0.038958366751818491 0.0014535667135395544 -0.061330280994055734 -0.015370894475902445 -0.057397955317495752 -0.0035770708896642636
leaf_weight=1.1864749565720549 2.3632701337337503 2.8161391466856021 4.8298656046390533 2.2888590320944768 3.2150632217526436 1.9423940926790235 2.0018862187862405 3.9941997975111008 2.047287330031395 2.8726819306612015 1.3538987189531326 2.4694525599479675
leaf_count=12 10 12 21 13 19 9 12 19 14 17 13 11
internal_value=0 0.00517085 0.0208163 -0.00369384 0.0130931 -0.00146682 -0.0159129 -0.0103747 -0.0212703 -0.0280487 -0.0423848 -0.00100832
internal_weight=0 27.9684 10.1155 17.853 7.52073 5.15746 10.3322 8.33035 4.33615 5.41306 2.54037 5.28559
internal_count=182 140 44 96 38 28 58 46 27 42 25 23
shrinkage=0.05


Tree=26
num_leaves=13
num_cat=0
split_feature=2 5 1 1 2 8 7 2 6 5 7 7
split_gain=1.83746 1.40256 1.90688 1.33182 1.24 0.937949 0.493593 0.396952 2.35042 0.391002 0.957832 0.0110495
threshold=2.5000000000000004 2.5000000000000004 1.5000000000000002 1.5000000000000002 3.5000000000000004 1.0000000180025095e-35 2.5000000000000004 4.5000000000000009 1.0000000180025095e-35 1.5000000000000002 1.5000000000000002 1.5000000000000002
decision_type=2 2 2 2 2 2 2 2 2 2 2 2
left_child=9 3 11 4 -2 -6 7 8 -5 -1 -11 -3
right_child=1 2 -4 6 5 -7 -8 -9 -10 10 -12 -13
leaf_value=-0.0079054816983097024 0.042210974200734892 0.0011817369561098337 0.042521474466709487 0.013747703938904185 -0.018160370481635602 0.025807091356045388 -0.037867111793038165 0.0013801351543889346 -0.060663612248639809 -0.060031402488940414 -0.007805344140342084 -0.0034011250390368038
leaf_weight=1.7627589553594578 2.3858033567667016 2.8167155981063861 4.8236187249422073 2.3028000965714437 3.1825711950659752 1.9600189477205274 1.9577334374189383 3.9963208585977554 1.9682972580194471 1.966028653085232 1.5862533152103422 2.4673956781625748
leaf_count=15 10 12 21 13 19 9 12 19 14 16 11 11
internal_value=0 0.00492342 0.0197912 -0.00354134 0.0124187 -0.00140285 -0.0152921 -0.00994631 -0.0205441 -0.0271569 -0.0367101 -0.000958213
internal_weight=0 27.8613 10.1077 17.7535 7.52839 5.14259 10.2252 8.26742 4.2711 5.31504 3.55228 5.28411
internal_count=182 140 44 96 38 28 58 46 27 42 27 23
shrinkage=0.05


Tree=27
num_leaves=14
num_cat=0
split_feature=3 2 2 6 2 0 2 0 6 2 0 0 1
split_gain=1.92876 2.01016 1.32611 0.804204 1.98638 0.444648 0.765732 0.591135 1.58645 1.09835 0.457496 0.0886023 0.000534466
threshold=1.0000000180025095e-35 1.5000000000000002 5.5000000000000009 1.0000000180025095e-35 4.5000000000000009 1.0000000180025095e-35 2.5000000000000004 2.5000000000000004 1.0000000180025095e-35 4.5000000000000009 1.5000000000000002 1.5000000000000002 1.5000000000000002
decision_type=2 2 2 2 2 2 2 2 2 2 2 2 2
left_child=1 12 3 4 -2 -3 -7 8 9 11 -10 -8 -1
right_child=2 5 -4 -5 -6 6 7 -9 10 -11 -12 -13 -14
leaf_value=-0.054989453977968041 0.073086897783320365 0.014843633514893477 -0.015285761913674995 0.0093189734714587674 0.007850166081449712 -0.036397759416756735 0.018211780146403074 0.013200623927814374 -0.016711940068285715 -0.020094005921289786 -0.046132174240511567 0.033961319618917643 -0.05661572216118585
leaf_weight=0.90134810656309405 2.3154104053974134 2.7266655117273357 2.4796404391527167 3.8400129079818726 2.3523181527853012 1.9493240192532564 1.7104648202657682 4.0692662373185149 3.5339023619890213 1.9646323919296262 2.1106016635894775 1.8684943616390228 1.1495479717850685
leaf_count=11 10 13 11 20 10 13 9 21 19 10 12 11 12
internal_value=0 -0.0087655 0.0168897 0.0262675 0.0402106 -0.00391584 -0.00688856 -0.00311839 -0.00905384 0.00994478 -0.0277128 0.0264343 -0.055901
internal_weight=0 21.9842 10.9874 8.50774 4.66773 19.9334 17.2067 15.2574 11.1881 5.54359 5.6445 3.57896 2.0509
internal_count=182 131 51 40 20 108 95 82 61 30 31 20 23
shrinkage=0.05


Tree=28
num_leaves=14
num_cat=0
split_feature=2 0 7 2 0 1 6 8 6 5 0 5 1
split_gain=1.6349 1.56843 1.07262 0.712636 0.642318 1.52288 1.50793 1.74279 0.293782 1.34836 2.40311 1.23525 0.256548
threshold=1.5000000000000002 1.0000000180025095e-35 3.5000000000000004 4.5000000000000009 1.5000000000000002 1.5000000000000002 1.0000000180025095e-35 1.0000000180025095e-35 1.0000000180025095e-35 2.5000000000000004 2.5000000000000004 2.5000000000000004 1.5000000000000002
decision_type=2 2 2 2 2 2 2 2 2 2 2 2 2
left_child=12 3 4 -2 6 8 -3 -8 9 10 -6 -10 -1
right_child=1 2 -4 -5 5 -7 7 -9 11 -11 -12 -13 -14
leaf_value=-0.023185863893294079 0.011839053851662285 0.025560792333919488 0.026666900457003276 0.05182495783868879 0.044078912264989861 -0.049494942691266641 0.010100458196330563 -0.052679941472654403 -0.017827662847137361 -0.042399235593950625 -0.030145246787268001 0.032200615600226114 -0.056434996745968295
leaf_weight=1.1065209284424773 2.4314668178558376 4.4757922142744118 2.9276659339666358 2.0569041967391968 2.0523678511381132 2.2869484722614279 2.7410648614168167 1.8525633811950681 2.7917833402752876 2.3359939008951187 2.3268146961927414 2.2110545933246613 1.219614289700985
leaf_count=12 13 22 15 9 10 16 15 9 15 10 13 10 13
internal_value=0 0.00286871 -0.00184282 0.0301636 -0.00546011 -0.0121733 0.00490636 -0.0152182 -0.00488942 -0.0117228 0.00464099 0.00428284 -0.0406187
internal_weight=0 30.4904 26.002 4.48837 23.0744 14.005 9.06942 4.59363 11.718 6.71518 4.37918 5.00284 2.32614
internal_count=182 157 135 22 120 74 46 24 58 33 23 25 25
shrinkage=0.05


Tree=29
num_leaves=14
num_cat=0
split_feature=5 1 0 6 2 1 2 2 8 7 2 6 1
split_gain=1.52741 0.927446 1.75147 1.54644 0.626826 1.25595 1.11441 1.06292 0.848005 0.471253 0.3855 2.10903 5.86532e-05
threshold=2.5000000000000004 1.5000000000000002 2.5000000000000004 1.0000000180025095e-35 2.5000000000000004 1.5000000000000002 3.5000000000000004 1.5000000000000002 1.0000000180025095e-35 2.5000000000000004 4.5000000000000009 1.0000000180025095e-35 1.5000000000000002
decision_type=2 2 2 2 2 2 2 2 2 2 2 2 2
left_child=4 2 -2 -3 7 6 -6 12 -8 10 11 -7 -1
right_child=1 3 -4 -5 5 9 8 -9 -10 -11 -12 -13 -14
leaf_value=-0.054614732166772199 -0.023636920715106365 0.054782298009209411 0.032283173887021455 0.000304808118494174 0.039857587620043905 0.011228539911207036 -0.017542624978772441 -0.0036249245885332441 0.024256485476844253 -0.037443467458790493 0.0011176244103535897 -0.060010005129699895 -0.055193253968556122
leaf_weight=0.84505417943001038 3.1755632162094098 2.8821443319320679 2.5046881586313248 2.3770776689052582 2.3966852724552163 2.3268125951290113 3.1512423306703568 2.380241796374321 1.9731868505477903 1.9359024539589889 3.9900114238262177 1.8770751655101774 0.90981171280145645
leaf_count=11 14 14 11 10 10 13 19 15 9 12 19 14 11
internal_value=0 0.0150294 0.00102086 0.0301594 -0.00786893 -0.00376391 0.0117147 -0.0253914 -0.00144767 -0.0152564 -0.0100144 -0.0205801 -0.0549147
internal_weight=0 10.9395 5.68025 5.25922 21.786 17.6509 7.52111 4.13511 5.12443 10.1298 8.1939 4.20389 1.75487
internal_count=182 49 25 24 133 96 38 37 28 58 46 27 22
shrinkage=0.05


Tree=30
num_leaves=13
num_cat=0
split_feature=3 2 2 6 2 2 8 2 7 7 1 1
split_gain=1.78641 1.75056 1.21944 0.695077 1.83884 0.377701 0.893771 1.01872 1.35953 0.710825 0.166754 0.000443451
threshold=1.0000000180025095e-35 1.5000000000000002 5.5000000000000009 1.0000000180025095e-35 4.5000000000000009 5.5000000000000009 1.0000000180025095e-35 3.5000000000000004 1.5000000000000002 1.5000000000000002 1.0000000180025095e-35 1.5000000000000002
decision_type=2 2 2 2 2 2 2 2 2 2 2 2
left_child=1 11 3 4 -2 6 7 10 -9 -7 -3 -1
right_child=2 5 -4 -5 -6 9 -8 8 -10 -11 -12 -13
leaf_value=-0.054369754343391911 0.070384049276264127 -0.0084248913271996618 -0.014664351726034927 0.0095476081806792953 0.00722835964168911 0.024126284945732525 0.020857430367149894 -0.061906514280949426 -0.0099189780199346114 -0.012254553572959001 0.0070924493229688051 -0.055935907726093761
leaf_weight=0.8073706924915337 2.2778538763523084 3.6749502867460269 2.4564352035522452 3.8003862351179123 2.3329893201589584 2.8689570724964133 2.2097375243902198 2.0651020705699921 3.2159467712044716 2.5236807316541672 3.2735671550035477 1.0267907530069351
leaf_count=11 10 18 11 20 10 13 12 15 18 13 19 12
internal_value=0 -0.00851268 0.0163283 0.0253795 0.0384286 -0.00419049 -0.00840734 -0.0136951 -0.0302482 0.00710055 -0.0011144 -0.0552465
internal_weight=0 21.6661 10.8677 8.41123 4.61084 19.8319 14.4393 12.2296 5.28105 5.39264 6.94852 1.83416
internal_count=182 131 51 40 20 108 82 70 33 26 37 23
shrinkage=0.05


Tree=31
num_leaves=15
num_cat=0
split_feature=3 2 2 6 2 6 0 0 0 1 2 7 2 1
split_gain=1.61981 1.67337 1.10237 0.636871 1.69164 0.365963 3.33081 3.12381 1.3933 0.592694 0.932385 1.7811 0.0974346 0.000380484
threshold=1.0000000180025095e-35 1.5000000000000002 5.5000000000000009 1.0000000180025095e-35 4.5000000000000009 1.0000000180025095e-35 2.5000000000000004 2.5000000000000004 1.5000000000000002 1.0000000180025095e-35 4.5000000000000009 1.5000000000000002 4.5000000000000009 1.5000000000000002
decision_type=2 2 2 2 2 2 2 2 2 2 2 2 2 2
left_child=1 13 3 4 -2 7 8 9 12 -3 11 -11 -7 -1
right_child=2 5 -4 -5 -6 6 -8 -9 -10 10 -12 -13 -14 -15
leaf_value=-0.054138780227850881 0.067593979193165107 -0.021368046398481513 -0.013956289827320468 0.0090432146979385012 0.0068634663402142651 -0.0078195832838257179 0.048410133573467573 -0.067055273076318977 -0.046783730827114227 -0.0050648633053253138 -0.015713336574050413 0.06013987124532575 0.0078625879832342326 -0.0556226955491851
leaf_weight=0.77118837088346726 2.2538881599903089 1.9586624503135661 2.4521200805902472 3.8114462718367577 2.3341405391693115 1.712115943431854 2.8342545703053474 1.9749666005373008 2.4022781476378441 2.3602020591497421 2.2912056446075439 1.8827231675386427 2.3499015122652054 0.98207424581050873
leaf_count=11 10 10 11 20 10 11 14 12 15 14 11 10 11 12
internal_value=0 -0.00815462 0.0155382 0.0241488 0.0366976 -0.00400212 0.00321635 -0.0104143 -0.0165988 0.00275732 0.00998911 0.0238686 0.00125265 -0.05497
internal_weight=0 21.5196 10.8516 8.39947 4.58803 19.7663 9.29855 10.4678 6.4643 8.49279 6.53413 4.24293 4.06202 1.75326
internal_count=182 131 51 40 20 108 51 57 37 45 35 24 22 23
shrinkage=0.05


Tree=32
num_leaves=13
num_cat=0
split_feature=3 2 2 2 0 2 8 2 7 7 6 1
split_gain=1.47019 1.59887 0.997037 0.614615 1.53714 0.355757 0.768815 0.967383 1.27241 0.67008 0.154588 0.000326551
threshold=1.0000000180025095e-35 1.5000000000000002 5.5000000000000009 3.5000000000000004 1.5000000000000002 5.5000000000000009 1.0000000180025095e-35 3.5000000000000004 1.5000000000000002 1.5000000000000002 1.0000000180025095e-35 1.5000000000000002
decision_type=2 2 2 2 2 2 2 2 2 2 2 2
left_child=1 11 3 -2 -5 6 7 10 -9 -7 -3 -1
right_child=2 5 -4 4 -6 9 -8 8 -10 -11 -12 -13
leaf_value=-0.05392090867385399 0.00078782052819639922 -0.0076286844177588355 -0.013282275763909005 0.056980704254938931 0.0068124567104748297 0.023609076179626022 0.019001706808205288 -0.061027831457140518 -0.0098862583025731351 -0.011784646655842708 0.0073538625088901861 -0.055327281442764047
leaf_weight=0.73646619170904404 2.2724747359752637 3.7314420342445391 2.447837993502616 2.9762381464242935 3.1352719217538834 2.8735739439725867 2.2338975220918647 1.96087060123682 3.2027926445007324 2.5012412220239639 3.1964644566178322 0.93903963640332222
leaf_count=11 12 19 11 14 14 13 12 15 18 13 18 12
internal_value=0 -0.00781924 0.014792 0.0229888 0.0312438 -0.00383126 -0.0079469 -0.0129256 -0.029307 0.00713814 -0.000715892 -0.0547091
internal_weight=0 21.3758 10.8318 8.38398 6.11151 19.7003 14.3255 12.0916 5.16366 5.37482 6.92791 1.67551
internal_count=182 131 51 40 28 108 82 70 33 26 37 23
shrinkage=0.05


Tree=33
num_leaves=13
num_cat=0
split_feature=3 2 2 6 2 2 8 2 7 7 6 1
split_gain=1.33292 1.52808 0.901231 0.60082 1.6065 0.322562 0.695596 0.897558 1.23095 0.601793 0.139536 0.000280336
threshold=1.0000000180025095e-35 1.5000000000000002 5.5000000000000009 1.0000000180025095e-35 4.5000000000000009 5.5000000000000009 1.0000000180025095e-35 3.5000000000000004 1.5000000000000002 1.5000000000000002 1.0000000180025095e-35 1.5000000000000002
decision_type=2 2 2 2 2 2 2 2 2 2 2 2
left_child=1 11 3 4 -2 6 7 10 -9 -7 -3 -1
right_child=2 5 -4 -5 -6 9 -8 8 -10 -11 -12 -13
leaf_value=-0.053715305846962692 0.064712198587480174 -0.0072685109939054906 -0.012640592539645482 0.0072924001332349102 0.0052083365844146903 0.022285367991644083 0.017898341803199221 -0.060406055665238781 -0.0094322647851317193 -0.011252110622734164 0.0069628908891181387 -0.055048515473864135
leaf_weight=0.70316195115447289 2.2104446440935117 3.7208061218261737 2.4436047971248618 3.8319501876831055 2.3299192190170288 2.8915669471025458 2.2525329589843741 1.8839494884014127 3.1894518807530403 2.4889599084854126 3.2068763896822929 0.89765105023980141
leaf_count=11 10 19 11 20 10 13 12 15 18 13 18 12
internal_value=0 -0.00748935 0.0140749 0.0218723 0.0341774 -0.0036595 -0.007597 -0.0123823 -0.0283608 0.00677138 -0.000680688 -0.0544629
internal_weight=0 21.235 10.8159 8.37231 4.54036 19.6341 14.2536 12.0011 5.0734 5.38053 6.92768 1.60081
internal_count=182 131 51 40 20 108 82 70 33 26 37 23
shrinkage=0.05


Tree=34
num_leaves=15
num_cat=0
split_feature=0 2 6 7 2 1 0 6 2 2 6 5 2 3
split_gain=1.26437 1.33422 1.03104 0.906401 0.796706 0.278207 1.57215 1.09539 0.682738 0.730547 1.81423 0.735821 0.237232 0.0477394
threshold=1.0000000180025095e-35 2.5000000000000004 1.0000000180025095e-35 3.5000000000000004 4.5000000000000009 1.5000000000000002 1.5000000000000002 1.0000000180025095e-35 3.5000000000000004 4.5000000000000009 1.0000000180025095e-35 2.5000000000000004 1.5000000000000002 2.5000000000000004
decision_type=2 2 2 2 2 2 2 2 2 2 2 2 2 2
left_child=4 2 12 5 -1 8 7 -7 -3 -10 11 -11 -2 -9
right_child=1 3 -4 -5 -6 6 -8 13 9 10 -12 -13 -14 -15
leaf_value=0.005177718419465239 -0.026526834042276043 0.020466612342164806 -0.060664248748467479 0.02641851467548036 0.047197020636909802 0.023319499311750654 -0.049643683496988333 -0.02183902194396628 -0.033929959404727143 0.0044135028016071996 0.039922119198752382 -0.038156036817359365 0.0047313164846558902 -0.010660764762699955
leaf_weight=2.4939541593194035 1.1312677040696171 3.4265990406274831 1.678318031132221 2.9217250645160666 2.0597687065601349 3.0902537256479263 1.9516773298382757 2.0644366890192036 1.8320798575878141 1.978722959756851 2.0877540409564972 2.0844779461622238 1.3097795695066452 1.7775575220584867
leaf_count=15 14 15 16 15 9 15 14 12 10 11 10 9 8 9
internal_value=0 -0.00427242 -0.0304964 0.000380813 0.0241842 -0.00336791 -0.0100024 0.00115803 0.00179793 -0.00621532 0.00203956 -0.0174253 -0.00975482 -0.0166672
internal_weight=0 27.3346 4.11937 23.2153 4.55372 20.2936 8.88393 6.93225 11.4096 7.98303 6.15095 4.0632 2.44105 3.84199
internal_count=182 158 38 120 24 105 50 36 55 40 30 20 22 21
shrinkage=0.05


Tree=35
num_leaves=12
num_cat=0
split_feature=3 5 6 0 6 0 0 0 1 5 0
split_gain=1.27797 0.757949 0.905349 0.608977 0.374132 3.08396 2.71235 1.25192 0.518863 1.01912 0.687277
threshold=1.0000000180025095e-35 2.5000000000000004 1.0000000180025095e-35 1.5000000000000002 1.0000000180025095e-35 2.5000000000000004 2.5000000000000004 1.5000000000000002 1.0000000180025095e-35 2.5000000000000004 1.5000000000000002
decision_type=2 2 2 2 2 2 2 2 2 2 2
left_child=4 2 -2 -3 6 7 8 -6 -1 10 -10
right_child=1 3 -4 -5 5 -7 -8 -9 9 -11 -12
leaf_value=-0.023460708096866734 0.024825010924996373 0.044508514806643251 -0.017948513732548303 0.011564450940055589 -0.0021872012428016995 0.042643862468497135 -0.064799913053775346 -0.046417044787278865 -0.017260355430454122 0.039970331191380382 0.021501539112405446
leaf_weight=2.126210033893587 2.1154200136661512 2.5499930828809738 2.9795565903186798 3.1180119812488556 4.3128275461494923 2.9364184960722923 2.1029116436839113 2.5433334335684776 3.7918952330946922 1.587720453739166 1.6373669803142545
leaf_count=13 9 12 17 13 26 15 16 19 22 8 12
internal_value=0 0.0138058 -0.000189066 0.0263857 -0.00737687 -0.000231483 -0.0135987 -0.0185945 -0.00182258 0.00473397 -0.00557047
internal_weight=0 10.763 5.09498 5.66801 21.0387 9.79258 11.2461 6.85616 9.14319 7.01698 5.42926
internal_count=182 51 26 25 131 60 71 45 55 42 34
shrinkage=0.05


Tree=36
num_leaves=13
num_cat=0
split_feature=3 2 0 2 2 0 0 6 0 2 0 0
split_gain=1.16108 1.16273 1.65084 0.851472 0.58346 1.30594 0.408523 0.819094 0.58828 0.482109 0.426367 0.000915357
threshold=1.0000000180025095e-35 2.5000000000000004 1.5000000000000002 5.5000000000000009 3.5000000000000004 1.5000000000000002 2.5000000000000004 1.0000000180025095e-35 1.5000000000000002 4.5000000000000009 1.5000000000000002 2.5000000000000004
decision_type=2 2 2 2 2 2 2 2 2 2 2 2
left_child=1 2 -1 4 -2 -6 7 9 -9 10 -3 -4
right_child=3 6 11 -5 5 -7 -8 8 -10 -11 -12 -13
leaf_value=0.010673209420300955 -0.0009189552143221741 0.002805436202644979 -0.057323172989080164 -0.012856953031701158 0.05301184985928608 0.0064621365314657953 0.012443719333756138 -0.0086043123119750268 -0.042337670518463023 -0.010835651858287275 0.034085222752259441 -0.059323148485216332
leaf_weight=1.3903734311461513 2.2502482384443265 2.7136837318539637 1.3093035109341147 2.4285435527563086 2.9103633761405945 3.1240175515413284 3.9869831353425971 3.8713850826025009 1.9401122778654096 2.8661476820707321 1.8201145604252813 1.0161119475960729
leaf_count=13 12 14 15 11 14 14 21 21 12 14 11 10
internal_value=0 -0.00706384 -0.0324272 0.0131782 0.0208101 0.0289129 -0.00158398 -0.0058173 -0.0198659 0.00521565 0.0153629 -0.0581971
internal_weight=0 20.9142 3.71579 10.7132 8.28463 6.03438 17.1984 13.2114 5.8115 7.39995 4.5338 2.32542
internal_count=182 131 38 51 40 28 93 72 33 39 25 25
shrinkage=0.05


Tree=37
num_leaves=12
num_cat=0
split_feature=0 7 3 0 6 1 6 0 5 7 7
split_gain=1.06004 1.1435 0.804951 0.81639 1.60128 1.13377 0.652903 1.28434 1.1393 0.107638 0.0276953
threshold=1.0000000180025095e-35 3.5000000000000004 3.5000000000000004 1.5000000000000002 1.0000000180025095e-35 1.5000000000000002 1.0000000180025095e-35 2.5000000000000004 2.5000000000000004 1.5000000000000002 1.5000000000000002
decision_type=2 2 2 2 2 2 2 2 2 2 2
left_child=9 2 3 4 10 6 7 -5 -8 -1 -2
right_child=1 -3 -4 5 -6 -7 8 -9 -10 -11 -12
leaf_value=0.015269177885432831 0.024675452364228481 0.025545019432891777 0.016958186998513317 -3.8509642551346542e-05 -0.022285023840169192 -0.050107743991291288 -0.01975650969049382 -0.050003339815309369 0.027567761838706184 0.030769269440234882 0.01664803198492576
leaf_weight=2.5197331905365017 2.7093101367354482 2.9263695627450934 2.9388083815574637 2.6362453512847406 3.9062188640236855 2.3762851618230334 2.9381059035658836 2.5113637521862984 2.2424198687076569 2.0163218751549721 1.7806465402245519
leaf_count=13 15 15 13 15 23 20 19 18 10 11 10
internal_value=0 -0.0039657 -0.0075581 -0.0109726 0.00112522 -0.0189679 -0.0118033 -0.0244148 0.000728069 0.0221591 0.0214919
internal_weight=0 26.9658 24.0394 21.1006 8.39618 12.7044 10.3281 5.14761 5.18053 4.53606 4.48996
internal_count=182 158 143 130 48 82 62 33 29 24 25
shrinkage=0.05


Tree=38
num_leaves=12
num_cat=0
split_feature=3 5 6 1 6 0 0 0 1 5 0
split_gain=1.02401 0.646739 0.841093 0.532263 0.377909 2.64583 2.42766 1.10628 0.462517 0.93746 0.66984
threshold=1.0000000180025095e-35 2.5000000000000004 1.0000000180025095e-35 1.5000000000000002 1.0000000180025095e-35 2.5000000000000004 2.5000000000000004 1.5000000000000002 1.0000000180025095e-35 2.5000000000000004 1.5000000000000002
decision_type=2 2 2 2 2 2 2 2 2 2 2
left_child=4 2 -2 -3 6 7 8 -6 -1 10 -10
right_child=1 3 -4 -5 5 -7 -8 -9 9 -11 -12
leaf_value=-0.022740004111581336 0.023566100999717635 0.01031073753195326 -0.017724559887703658 0.041354089608462853 -0.0016623099477915142 0.039881986282348347 -0.063530991252748067 -0.044052666375756264 -0.017391220759989771 0.037707650833195133 0.020911385294669318
leaf_weight=2.099077772349121 2.1129256486892682 3.1048902422189713 2.9626703932881355 2.4866465330123901 4.2912008240818977 2.9637704491615295 1.9557342901825912 2.3998771905899048 3.8010156229138374 1.5951448753476141 1.6313332729041574
leaf_count=13 9 13 17 12 26 15 16 19 22 8 12
internal_value=0 0.0123865 -0.000535624 0.0241162 -0.00667776 0.00055379 -0.0129778 -0.0168664 -0.00214481 0.00400688 -0.00588896
internal_weight=0 10.6671 5.0756 5.59154 20.7372 9.65485 11.0823 6.69108 9.12657 7.02749 5.43235
internal_count=182 51 26 25 131 60 71 45 55 42 34
shrinkage=0.05


Tree=39
num_leaves=15
num_cat=0
split_feature=2 2 3 2 8 2 1 6 2 1 7 6 2 1
split_gain=0.944272 0.620647 1.04708 0.694177 0.577831 0.884422 1.12783 0.4769 3.23531 0.290092 0.256863 0.170706 0.0288252 0.0181585
threshold=1.5000000000000002 6.5000000000000009 1.0000000180025095e-35 5.5000000000000009 1.0000000180025095e-35 3.5000000000000004 1.5000000000000002 1.0000000180025095e-35 4.5000000000000009 1.5000000000000002 1.5000000000000002 1.0000000180025095e-35 4.5000000000000009 1.5000000000000002
decision_type=2 2 2 2 2 2 2 2 2 2 2 2 2 2
left_child=9 2 3 4 5 11 -7 13 -9 -1 -3 -2 -8 -4
right_child=1 10 7 -5 -6 6 12 8 -10 -11 -12 -13 -14 -15
leaf_value=-0.013997207844372981 -0.0066588418538934381 -0.0046074875110494887 0.032024857677861569 0.026370410305903244 0.016721788928093111 -0.062080168690435616 -0.0060738481538260914 -0.034252817295741235 0.053200759254145025 -0.055017920227776435 -0.028318330254862724 0.0092482182166310784 -0.015415976118506794 0.025903232217323043
leaf_weight=0.80131704732775932 3.6760282739996928 2.6449099183082572 2.6202908754348737 1.8078305870294578 2.2356591820716867 1.5752241909503935 1.6796986609697342 2.2816541716456413 1.9712092429399488 0.93259232863783836 2.0104295611381531 3.1164106726646423 1.6240251809358597 2.2529778480529785
leaf_count=12 19 12 11 9 12 12 13 13 9 13 10 18 8 11
internal_value=0 0.00190683 0.00504661 -0.00277621 -0.00656509 -0.0110257 -0.0272658 0.0185172 0.00628206 -0.0360604 -0.0148471 0.00063941 -0.0106662 0.0291947
internal_weight=0 29.4963 24.841 15.7149 13.907 11.6714 4.87895 9.12613 4.25286 1.73391 4.65534 6.79244 3.30372 4.87327
internal_count=182 157 135 91 82 70 33 44 22 25 22 37 21 22
shrinkage=0.05


Tree=40
num_leaves=14
num_cat=0
split_feature=0 2 6 7 2 7 5 2 8 6 2 2 2
split_gain=0.9098 1.06348 1.04833 0.768207 0.678694 0.315508 1.02034 1.09188 0.586512 1.08965 1.70138 0.582812 0.215288
threshold=1.0000000180025095e-35 2.5000000000000004 1.0000000180025095e-35 3.5000000000000004 4.5000000000000009 1.5000000000000002 1.5000000000000002 4.5000000000000009 1.0000000180025095e-35 1.0000000180025095e-35 4.5000000000000009 5.5000000000000009 1.5000000000000002
decision_type=2 2 2 2 2 2 2 2 2 2 2 2 2
left_child=4 2 12 5 -1 6 -3 -8 9 -7 -11 -9 -2
right_child=1 3 -4 -5 -6 8 7 11 -10 10 -12 -13 -14
leaf_value=0.0029058435218303909 -0.023636064755727104 -0.026529578041828858 -0.060285656623511256 0.024260362682201865 0.04192446538808154 -0.024566970352371795 0.035757449878386423 -0.022184425310951456 -0.028264228172348062 -0.014580613137846933 0.051370206705037974 0.012683367797271063 0.0071982757874029593
leaf_weight=2.4575027674436596 1.0335718691349056 2.2558773458004033 1.5242446810007098 2.9323193728923789 2.0392910540103912 2.9440656900405884 2.9305942058563232 2.1669819876551628 2.930634118616581 2.1338992714881901 1.8051931113004682 2.6813981235027313 1.2516192570328712
leaf_count=15 14 13 16 15 9 16 18 11 14 12 9 12 8
internal_value=0 -0.0037168 -0.0281696 0.00037219 0.0206007 -0.00315691 0.00307718 0.011663 -0.00953141 -0.00155556 0.0156431 -0.00290078 -0.00674783
internal_weight=0 26.5904 3.80944 22.781 4.49679 19.8486 10.0349 7.77897 9.81379 6.88316 3.93909 4.84838 2.28519
internal_count=182 158 38 120 24 105 54 41 51 37 21 23 22
shrinkage=0.05


Tree=41
num_leaves=13
num_cat=0
split_feature=3 2 0 2 2 0 0 7 5 1 5 0
split_gain=0.825882 0.982626 1.5957 0.823576 0.47587 1.06704 0.446192 1.21977 0.679358 2.3863 0.284107 0.000728614
threshold=1.0000000180025095e-35 2.5000000000000004 1.5000000000000002 5.5000000000000009 3.5000000000000004 1.5000000000000002 2.5000000000000004 2.5000000000000004 2.5000000000000004 1.5000000000000002 1.5000000000000002 2.5000000000000004
decision_type=2 2 2 2 2 2 2 2 2 2 2 2
left_child=1 2 -1 4 -2 -6 7 8 9 -3 -11 -4
right_child=3 6 11 -5 5 -7 -8 -9 -10 10 -12 -13
leaf_value=0.011830706066464441 -0.0010709056414944316 0.053935647330730432 -0.056776431046519575 -0.014462147876933916 0.048248210898091545 0.0058251203941032063 0.01376495595782826 -0.034149966071896388 -0.017198922049932654 0.0061126486675007145 -0.018314200754728234 -0.058650337132801461
leaf_weight=1.3634155914187496 2.2052277028560621 2.2300106510519999 1.1793104074895384 2.4189144968986502 2.8426489531993866 3.0971628054976463 3.8884919434785834 2.8979283794760695 3.039706751704216 2.0052889212965965 2.9292490035295486 0.92607109621167172
leaf_count=13 12 11 15 11 14 14 21 17 14 12 18 10
internal_value=0 -0.00605941 -0.0303106 0.0111558 0.0187639 0.0261278 -0.00110832 -0.00552244 0.00260756 0.0110109 -0.00838766 -0.0576007
internal_weight=0 20.4595 3.4688 10.564 8.14504 5.93981 16.9907 13.1022 10.2043 7.16455 4.93454 2.10538
internal_count=182 131 38 51 40 28 93 72 55 41 30 25
shrinkage=0.05


Tree=42
num_leaves=12
num_cat=0
split_feature=0 7 3 0 6 1 6 0 5 7 7
split_gain=0.81635 1.00718 0.594829 0.717276 1.48887 1.13557 0.545595 1.1256 0.942712 0.0908914 0.0148913
threshold=1.0000000180025095e-35 3.5000000000000004 3.5000000000000004 1.5000000000000002 1.0000000180025095e-35 1.5000000000000002 1.0000000180025095e-35 2.5000000000000004 2.5000000000000004 1.5000000000000002 1.5000000000000002
decision_type=2 2 2 2 2 2 2 2 2 2 2
left_child=9 2 3 4 10 6 7 -5 -8 -1 -2
right_child=1 -3 -4 5 -6 -7 8 -9 -10 -11 -12
leaf_value=0.013124804756085635 0.02349158516912336 0.024092625941060333 0.014106187844627017 0.00027595109332960378 -0.021362139185085248 -0.049778637392777353 -0.018118739094653429 -0.047564371110604242 0.025211371670110633 0.027433177277241108 0.017549776853970828
leaf_weight=2.4868399575352695 2.6896698251366704 2.9299350827932349 2.9228197261691085 2.6035639569163305 3.8492903113365173 2.2491974644362918 2.8424376845359802 2.3297217488288879 2.2480681240558624 2.004534550011158 1.7344644255936144
leaf_count=13 15 15 13 15 23 20 19 18 10 11 10
internal_value=0 -0.00354803 -0.00699873 -0.010001 0.0013773 -0.0176713 -0.0104669 -0.0223164 0.0010167 0.0195107 0.0211621
internal_weight=0 26.3992 23.4692 20.5464 8.27342 12.273 10.0238 4.93329 5.09051 4.49137 4.42413
internal_count=182 158 143 130 48 82 62 33 29 24 25
shrinkage=0.05


end of trees

feature_importances:
Column_2=161
Column_0=88
Column_1=64
Column_6=61
Column_7=54
Column_5=43
Column_3=33
Column_8=25
Column_4=7

parameters:
[boosting: gbdt]
[objective: binary]
[metric: binary_logloss]
[tree_learner: serial]
[device_type: cpu]
[data: ]
[valid: ]
[num_iterations: 10000]
[learning_rate: 0.05]
[num_leaves: 63]
[num_threads: 0]
[force_col_wise: 0]
[force_row_wise: 0]
[histogram_pool_size: -1]
[max_depth: -1]
[min_data_in_leaf: 10]
[min_sum_hessian_in_leaf: 0.001]
[bagging_fraction: 0.9]
[pos_bagging_fraction: 1]
[neg_bagging_fraction: 1]
[bagging_freq: 0]
[bagging_seed: 29216]
[feature_fraction: 0.9]
[feature_fraction_bynode: 1]
[feature_fraction_seed: 17795]
[extra_trees: 0]
[extra_seed: 19650]
[early_stopping_round: 50]
[first_metric_only: 0]
[max_delta_step: 0]
[lambda_l1: 0]
[lambda_l2: 0]
[min_gain_to_split: 0]
[drop_rate: 0.1]
[max_drop: 50]
[skip_drop: 0.5]
[xgboost_dart_mode: 0]
[uniform_drop: 0]
[drop_seed: 24198]
[top_rate: 0.2]
[other_rate: 0.1]
[min_data_per_group: 100]
[max_cat_threshold: 32]
[cat_l2: 10]
[cat_smooth: 10]
[max_cat_to_onehot: 4]
[top_k: 20]
[monotone_constraints: ]
[monotone_constraints_method: basic]
[monotone_penalty: 0]
[feature_contri: ]
[forcedsplits_filename: ]
[refit_decay_rate: 0.9]
[cegb_tradeoff: 1]
[cegb_penalty_split: 0]
[cegb_penalty_feature_lazy: ]
[cegb_penalty_feature_coupled: ]
[path_smooth: 0]
[interaction_constraints: ]
[verbosity: -1]
[saved_feature_importance_type: 0]
[max_bin: 255]
[max_bin_by_feature: ]
[min_data_in_bin: 3]
[bin_construct_sample_cnt: 200000]
[data_random_seed: 45]
[is_enable_sparse: 1]
[enable_bundle: 1]
[use_missing: 1]
[zero_as_missing: 0]
[feature_pre_filter: 1]
[pre_partition: 0]
[two_round: 0]
[header: 0]
[label_column: ]
[weight_column: ]
[group_column: ]
[ignore_column: ]
[categorical_feature: ]
[forcedbins_filename: ]
[objective_seed: 29484]
[num_class: 1]
[is_unbalance: 0]
[scale_pos_weight: 1]
[sigmoid: 1]
[boost_from_average: 1]
[reg_sqrt: 0]
[alpha: 0.9]
[fair_c: 1]
[poisson_max_delta_step: 0.7]
[tweedie_variance_power: 1.5]
[lambdarank_truncation_level: 20]
[lambdarank_norm: 1]
[label_gain: ]
[eval_at: ]
[multi_error_top_k: 1]
[auc_mu_weights: ]
[num_machines: 1]
[local_listen_port: 12400]
[time_out: 120]
[machine_list_filename: ]
[machines: ]
[gpu_platform_id: -1]
[gpu_device_id: -1]
[gpu_use_dp: 0]

end of parameters

pandas_categorical:null
