tree
version=v3
num_class=1
num_tree_per_iteration=1
label_index=0
max_feature_idx=8
objective=binary sigmoid:1
feature_names=Column_0 Column_1 Column_2 Column_3 Column_4 Column_5 Column_6 Column_7 Column_8
feature_infos=[0:4] [0:2] [0:10] [0:5] [0:2] [1:3] [0:1] [0:4] [0:1]
tree_sizes=1324 1550 1560 1454 1559 1477 1664 1154 1476 1351 1565 1256 1566 1668 1372 1576 1569 1370 1562

Tree=0
num_leaves=12
num_cat=0
split_feature=5 2 2 0 1 0 7 2 5 2 5
split_gain=16.5579 5.32319 5.2723 5.76352 1.19202 1.7876 3.69231 0.7778 1.715 0.602258 1.77636e-15
threshold=2.5000000000000004 1.5000000000000002 3.5000000000000004 1.5000000000000002 1.5000000000000002 1.5000000000000002 2.5000000000000004 3.5000000000000004 1.5000000000000002 4.5000000000000009 1.5000000000000002
decision_type=2 2 2 2 2 2 2 2 2 2 2
left_child=1 10 -2 -4 7 6 9 -3 -9 -6 -1
right_child=2 4 3 -5 5 -7 -8 8 -10 -11 -12
leaf_value=-1.1962907347947822 -0.95129073589001789 -0.83523810482986627 -0.43406851597995927 -0.7836591576920211 -0.94063856202459339 -1.1309574017535118 -1.1962907347947824 -1.0982907352328766 -0.86962406958842964 -0.82879073643763557 -1.1962907347947827
leaf_weight=2.0408163964748409 2.4489796757698041 3.8775511533021927 3.6734695136547089 3.8775511533021927 4.6938777118921262 3.0612245947122583 2.0408163964748383 2.0408163964748383 3.6734695136547089 3.2653062343597412 2.4489796757698059
leaf_count=10 12 19 18 19 23 15 10 10 18 16 12
internal_value=-0.916291 -0.997343 -0.696291 -0.613588 -0.957912 -0.997228 -0.956291 -0.904376 -0.951291 -0.894752 -1.19629
internal_weight=0 27.1429 10 7.55102 22.6531 13.0612 10 9.59184 5.71429 7.95918 4.4898
internal_count=182 133 49 37 111 64 49 47 28 39 22
shrinkage=1


Tree=1
num_leaves=14
num_cat=0
split_feature=3 2 4 2 2 2 0 0 0 2 0 8 2
split_gain=11.1066 5.03805 1.40103 1.80117 1.28629 2.12925 1.31158 1.13898 0.288688 0.198098 0.112646 0.0236519 0.0124797
threshold=1.0000000180025095e-35 2.5000000000000004 1.5000000000000002 5.5000000000000009 3.5000000000000004 5.5000000000000009 1.5000000000000002 1.5000000000000002 1.5000000000000002 4.5000000000000009 1.5000000000000002 1.0000000180025095e-35 1.5000000000000002
decision_type=2 2 2 2 2 2 2 2 2 2 2 2 2
left_child=1 7 11 -4 6 9 -3 -1 -7 10 -6 -2 -9
right_child=2 4 3 -5 5 8 -8 12 -10 -11 -12 -13 -14
leaf_value=-0.10340303144222769 0.096165839441591017 -0.036965124550341802 0.30190979249673405 0.077688496499389276 -0.11235152678890602 0.096273039575144936 0.1635792362973563 -0.26180245480024739 0.0034863458381825378 -0.081285108956598962 -0.17649236032604995 0.066656357724605861 -0.28227946676195753
leaf_weight=2.4347383528947857 2.0843099951744062 2.5357321947813061 4.3212062567472458 2.144103080034256 2.2770999968051893 2.5530658066272727 2.6865168958902359 2.5182267874479294 2.8258586674928665 3.9081005752086639 2.1101744472980499 2.26927550137043 2.2579774111509323
leaf_count=13 10 13 20 10 11 12 13 14 14 19 11 11 11
internal_value=0 -0.0725074 0.168491 0.227551 -0.0182344 -0.050481 0.0662023 -0.214732 0.0475268 -0.114032 -0.143202 0.0807842 -0.271483
internal_weight=0 26.1075 10.8189 6.46531 18.8965 13.6743 5.22225 7.21094 5.37892 8.29538 4.38727 4.35359 4.7762
internal_count=182 131 51 30 93 67 26 38 26 41 22 21 25
shrinkage=0.2


Tree=2
num_leaves=14
num_cat=0
split_feature=5 3 7 0 0 3 0 0 5 8 7 5 7
split_gain=8.1293 3.73573 1.06101 0.87558 0.764235 0.788403 0.396538 0.391032 0.260703 0.38542 0.192914 0.0308776 0.00374034
threshold=2.5000000000000004 1.0000000180025095e-35 3.5000000000000004 1.5000000000000002 1.5000000000000002 2.5000000000000004 2.5000000000000004 1.5000000000000002 1.5000000000000002 1.0000000180025095e-35 1.5000000000000002 1.5000000000000002 1.5000000000000002
decision_type=2 2 2 2 2 2 2 2 2 2 2 2 2
left_child=2 7 4 -3 8 6 11 -2 -1 10 -10 -6 -8
right_child=1 3 -4 -5 5 -7 12 -9 9 -11 -12 -13 -14
leaf_value=0.014519396689533927 0.07007185897584059 0.32823130806401229 0.061354449058280851 0.17339620780800172 -0.11669028785846745 0.00081672459618538622 -0.1856751161426986 -0.040619983416761651 -0.12713986951525497 0.0043329543338377439 -0.050768416980344747 -0.087752233073513403 -0.17391426756384321
leaf_weight=2.7502842843532607 2.6439818590879423 2.9184086322784424 2.4288541078567496 2.9251533895730972 2.665461599826811 2.0813268423080435 2.2930017858743668 2.4682933986186981 2.6006536930799484 2.7207695543766022 2.6929898858070374 3.3020766973495483 2.0475490838289261
leaf_count=14 12 12 13 13 15 10 12 12 13 13 14 18 11
internal_value=0 0.141489 -0.0644012 0.250724 -0.0775929 -0.111462 -0.134132 0.016628 -0.0386118 -0.0568447 -0.0882881 -0.100678 -0.180127
internal_weight=0 10.9558 25.583 5.84356 23.1541 12.3894 10.3081 5.11228 10.7647 8.01441 5.29364 5.96754 4.34055
internal_count=182 49 133 25 120 66 56 24 54 40 27 33 23
shrinkage=0.2


Tree=3
num_leaves=13
num_cat=0
split_feature=5 2 4 2 1 2 6 2 2 2 6 1
split_gain=5.19503 3.57798 2.61346 1.44501 1.22164 0.696434 0.260525 3.19176 1.86441 0.448356 0.176526 0.00275228
threshold=2.5000000000000004 1.5000000000000002 1.5000000000000002 3.5000000000000004 1.5000000000000002 3.5000000000000004 1.0000000180025095e-35 4.5000000000000009 4.5000000000000009 3.5000000000000004 1.0000000180025095e-35 1.5000000000000002
decision_type=2 2 2 2 2 2 2 2 2 2 2 2
left_child=1 11 3 -2 5 -3 8 -8 9 -6 -7 -1
right_child=2 4 -4 -5 6 10 7 -9 -10 -11 -12 -13
leaf_value=-0.24053876628295626 -0.10166252533788622 0.098249677249638998 0.22584663511690739 0.09680192339581406 0.11097045066848299 -0.050637475538342913 -0.21733577037319995 0.065223337184321412 -0.18779293282630993 -0.026813001162495131 0.021789642239228885 -0.25207834607425234
leaf_weight=1.5399505048990276 2.2235545814037305 3.7264865338802338 4.6178901344537735 4.3155170679092407 2.0851366519927979 2.6769788712263107 3.6163228303194046 2.8666992336511612 2.0547607988119125 1.7272216230630877 2.707464262843132 1.7851196080446243
leaf_count=11 11 19 19 19 11 14 19 14 10 10 14 11
internal_value=0 -0.0536839 0.11066 0.0293158 -0.0237737 0.0317822 -0.0647583 -0.0923922 -0.0342234 0.0485465 -0.0142189 -0.246734
internal_weight=0 24.7861 11.157 6.53907 21.4611 9.11093 12.3501 6.48302 5.86712 3.81236 5.38444 3.32507
internal_count=182 133 49 30 111 47 64 33 31 21 28 22
shrinkage=0.2


Tree=4
num_leaves=14
num_cat=0
split_feature=2 0 4 2 1 2 8 0 2 2 0 2 2
split_gain=3.50407 1.55496 1.22909 2.58855 1.09303 1.7002 0.693672 1.17052 0.512294 0.261186 0.321101 0.0101762 0.00685516
threshold=2.5000000000000004 1.0000000180025095e-35 1.5000000000000002 5.5000000000000009 1.5000000000000002 3.5000000000000004 1.0000000180025095e-35 1.5000000000000002 3.5000000000000004 5.5000000000000009 2.5000000000000004 1.5000000000000002 4.5000000000000009
decision_type=2 2 2 2 2 2 2 2 2 2 2 2 2
left_child=6 -2 4 -4 5 -3 7 -1 -6 10 -7 -9 -10
right_child=1 2 3 -5 8 9 -8 11 12 -11 -12 -13 -14
leaf_value=-0.047818840410577414 0.13870892469531215 0.14549606619304595 0.18420610956878863 -0.082644122500944134 -0.16205885936337072 0.0012513774813540431 -0.014725913748971637 -0.23573815364364681 -0.037090617982520308 0.019210579266175892 -0.10830023333184208 -0.25870808391983824 -0.050719971927557818
leaf_weight=1.9299742132425297 4.2528228908777264 3.2045148462057149 3.8904907256364814 2.3218355476856232 1.9828186631202696 1.8975709229707716 1.4812792167067526 1.7550451159477234 2.5948241651058197 2.6391770094633102 2.4544859975576401 1.3766199350357056 3.4239432960748672
leaf_count=12 20 15 17 10 11 9 8 14 15 13 13 8 17
internal_value=0 0.0271061 0.0076619 0.0844718 -0.01856 0.0248631 -0.135104 -0.170333 -0.0738903 -0.0304305 -0.0605339 -0.245835 -0.0448441
internal_weight=0 28.6625 24.4097 6.21233 18.1973 10.1957 6.54292 5.06164 8.00159 6.99123 4.35206 3.13167 6.01877
internal_count=182 140 120 27 93 50 42 34 43 35 22 22 32
shrinkage=0.2


Tree=5
num_leaves=13
num_cat=0
split_feature=3 6 5 7 5 5 7 7 6 6 3 6
split_gain=2.9192 1.93707 1.99709 0.590018 0.501094 0.470745 0.534022 0.128178 0.221985 0.106117 0.0677836 0.00447962
threshold=1.0000000180025095e-35 1.0000000180025095e-35 2.5000000000000004 1.0000000180025095e-35 2.5000000000000004 1.5000000000000002 1.5000000000000002 1.5000000000000002 1.0000000180025095e-35 1.0000000180025095e-35 3.5000000000000004 1.0000000180025095e-35
decision_type=2 2 2 2 2 2 2 2 2 2 2 2
left_child=3 10 -3 -1 5 6 -5 9 -9 -7 -2 -6
right_child=1 2 -4 4 11 7 -8 8 -10 -11 -12 -13
leaf_value=-0.1538028524222172 0.14119370519939459 -0.10197910756164824 0.14525536708798378 -0.067412644632710142 0.02898047092133705 -0.073050201881644516 0.051031136967239391 -0.056329453958959455 -0.13461815322823795 -0.010030803044978361 0.18459739236940395 0.016712233925205079
leaf_weight=1.7954819053411508 3.2683762758970243 3.3384790569543839 2.1476026326417923 2.9594433754682585 2.3519643545150748 3.214177094399929 3.1362055242061615 2.8415527492761612 2.9555804580450058 1.6012593284249304 2.5716727524995804 2.4108446687459946
leaf_count=11 14 17 9 17 11 19 19 16 17 10 11 11
internal_value=0 0.0801416 -0.00519575 -0.043666 -0.0344559 -0.0507688 -0.00647343 -0.0762111 -0.0962438 -0.0520946 0.160307 0.0227705
internal_weight=0 11.3261 5.48608 23.2665 21.471 16.7082 6.09565 10.6126 5.79713 4.81544 5.84005 4.76281
internal_count=182 51 26 131 120 98 36 62 33 29 25 22
shrinkage=0.2


Tree=6
num_leaves=15
num_cat=0
split_feature=2 0 7 0 6 8 8 6 0 2 2 7 7 7
split_gain=2.54032 1.6647 1.25478 0.634291 2.13083 1.78715 0.68942 1.47341 3.96964 1.07236 0.755183 0.348652 0.219437 0.000802254
threshold=1.5000000000000002 1.0000000180025095e-35 3.5000000000000004 1.5000000000000002 1.0000000180025095e-35 1.0000000180025095e-35 1.0000000180025095e-35 1.0000000180025095e-35 2.5000000000000004 3.5000000000000004 5.5000000000000009 1.5000000000000002 1.5000000000000002 1.5000000000000002
decision_type=2 2 2 2 2 2 2 2 2 2 2 2 2 2
left_child=12 13 3 4 11 -6 7 9 -9 -5 -11 -3 -1 -2
right_child=1 2 -4 6 5 -7 -8 8 -10 10 -12 -13 -14 -15
leaf_value=-0.23333343754548175 0.12226350694918142 0.1732303840916315 0.11816273993499529 -0.021765664947504197 0.029934545233518135 -0.2205307684564668 0.030343695197821475 -0.14562632417924001 0.23285964246195379 -0.28014797466480912 -0.10861652171440184 0.058992816252688624 -0.12512263115793887 0.12754370295532244
leaf_weight=1.4823163449764245 2.5109022706747082 2.3911220580339485 2.9268476217985144 2.2048253864049894 2.7947716414928436 1.9240187555551527 3.4958981126546851 2.6092808470129967 1.9270673394203184 2.0604865849018097 2.0461834222078323 1.9321868717670438 1.5164640843868253 2.1251582652330399
leaf_count=13 12 12 15 11 15 9 17 14 10 12 10 10 12 10
internal_value=0 0.0141782 -0.00529197 -0.0207429 0.0207424 -0.0721891 -0.0468947 -0.071786 0.0151567 -0.134276 -0.194681 0.122175 -0.178612 0.124684
internal_weight=0 30.9487 26.3127 23.3858 9.0421 4.71879 14.3437 10.8478 4.53635 6.3115 4.10667 4.32331 2.99878 4.63606
internal_count=182 157 135 120 46 24 74 57 24 33 22 22 25 22
shrinkage=0.2


Tree=7
num_leaves=10
num_cat=0
split_feature=4 6 7 0 7 6 0 0 6
split_gain=1.43269 1.42327 0.896603 1.66282 1.66792 0.359185 1.17226 0.732155 0.0559792
threshold=1.5000000000000002 1.0000000180025095e-35 2.5000000000000004 1.5000000000000002 1.5000000000000002 1.0000000180025095e-35 2.5000000000000004 2.5000000000000004 1.0000000180025095e-35
decision_type=2 2 2 2 2 2 2 2 2
left_child=2 -2 3 4 8 7 -7 -5 -1
right_child=1 -3 -4 5 -6 6 -8 -9 -10
leaf_value=-0.0037740707937353938 0.14540161602560264 -0.026406856143848551 -0.11532646750101593 -0.04031313647843144 0.15041931392146732 -0.11718731031697315 0.066229404719202023 -0.17930439543287102 -0.045518581607645381
leaf_weight=3.9471886754036003 4.481678217649459 3.3856988251209259 3.8309225365519515 4.0548583716154081 3.9828507751226425 2.7154140174388885 2.8637880459427834 2.4211344569921494 1.9051527231931684
leaf_count=20 20 15 22 24 20 18 15 16 12
internal_value=0 0.0714644 -0.0260661 -0.0104451 0.0505817 -0.0602337 -0.02304 -0.0922768 -0.0173634
internal_weight=0 7.86738 25.7213 21.8904 9.83519 12.0552 5.5792 6.47599 5.85234
internal_count=182 35 147 125 52 73 33 40 32
shrinkage=0.2


Tree=8
num_leaves=13
num_cat=0
split_feature=3 0 6 8 8 6 0 6 0 0 0 0
split_gain=1.33926 1.03117 0.789368 1.26893 0.43317 0.58257 0.207602 0.0986067 2.39698 2.28713 0.369776 0.0146099
threshold=1.0000000180025095e-35 2.5000000000000004 1.0000000180025095e-35 1.0000000180025095e-35 1.0000000180025095e-35 1.0000000180025095e-35 1.0000000180025095e-35 1.0000000180025095e-35 2.5000000000000004 2.5000000000000004 1.5000000000000002 1.5000000000000002
decision_type=2 2 2 2 2 2 2 2 2 2 2 2
left_child=4 2 -2 -4 6 -6 -1 8 11 10 -9 -8
right_child=1 -3 3 -5 5 -7 7 9 -10 -11 -12 -13
leaf_value=0.008483745358106488 0.083337797812860409 0.17301883156513131 0.069040414174291784 -0.1442679788037014 -0.053640175453920427 0.10133303923146877 0.0096051130153542354 -0.083589949486293141 -0.2453580293145172 0.12087149341315542 -0.18524388442222597 0.029118885915542042
leaf_weight=2.5373885929584565 4.3304629623889905 2.2962062805891028 2.2541006281971931 2.2084818333387375 1.8211368471384042 2.0767253413796425 2.7654653564095479 2.9792244359850883 1.7364451736211775 1.8977496325969694 2.7550018653273582 3.4484226405620575
leaf_count=13 19 10 11 11 10 11 15 17 14 9 19 23
internal_value=0 0.0536726 0.0225067 -0.0365235 -0.0315561 0.0289273 -0.0445672 -0.0532059 -0.0376178 -0.0694442 -0.132429 0.0204344
internal_weight=0 11.0893 8.79305 4.46258 22.0176 3.89786 18.1197 15.5823 7.95033 7.63198 5.73423 6.21389
internal_count=182 51 41 22 131 21 110 97 52 45 36 38
shrinkage=0.2


Tree=9
num_leaves=12
num_cat=0
split_feature=2 7 3 2 6 6 2 7 7 2 7
split_gain=1.75259 0.602484 0.723458 0.595528 1.91346 1.4262 2.57065 0.61021 0.341896 0.201408 0.194471
threshold=1.5000000000000002 3.5000000000000004 3.5000000000000004 4.5000000000000009 1.0000000180025095e-35 1.0000000180025095e-35 3.5000000000000004 1.5000000000000002 1.5000000000000002 5.5000000000000009 1.5000000000000002
decision_type=2 2 2 2 2 2 2 2 2 2 2
left_child=10 2 3 5 9 8 7 -7 -2 -5 -1
right_child=1 -3 -4 4 -6 6 -8 -9 -10 -11 -12
leaf_value=-0.22546633031163849 -0.016917235756083355 0.093780002741690696 0.085234961156812394 -0.09406261124531734 0.12213367179161583 0.06952116925624123 -0.29234077162731226 -0.08968502287116753 0.069062836544753731 -0.016794555260266363 -0.11279257965275874
leaf_weight=1.1454842612147325 4.5706734061241239 3.1004651337862006 3.5214972347021094 2.6503207460045797 4.475260928273201 1.7836392745375635 2.0731107294559479 2.0929850488901138 3.1077961921691895 2.749047264456749 1.3174419850111005
leaf_count=13 25 16 16 15 21 11 12 11 16 14 12
internal_value=0 0.0102765 0.000696267 -0.0119704 0.0254303 -0.03907 -0.11257 -0.0164341 0.0178825 -0.0547222 -0.165196
internal_weight=0 30.1248 27.0243 23.5028 9.87463 13.6282 5.94974 3.87662 7.67847 5.39937 2.46293
internal_count=182 157 141 125 50 75 34 22 41 29 25
shrinkage=0.2


Tree=10
num_leaves=14
num_cat=0
split_feature=2 0 7 2 2 5 2 8 0 0 0 7 7
split_gain=1.29042 0.836057 0.912027 0.408834 0.709083 0.592973 1.36363 1.7855 0.49201 0.46827 0.233042 0.178237 0.000148713
threshold=1.5000000000000002 1.0000000180025095e-35 3.5000000000000004 2.5000000000000004 3.5000000000000004 2.5000000000000004 5.5000000000000009 1.0000000180025095e-35 1.5000000000000002 1.5000000000000002 1.5000000000000002 1.5000000000000002 1.5000000000000002
decision_type=2 2 2 2 2 2 2 2 2 2 2 2 2
left_child=10 12 3 -3 9 6 7 11 -7 -5 -1 -6 -2
right_child=1 2 -4 4 5 8 -8 -9 -10 -11 -12 -13 -14
leaf_value=-0.22769474489420954 0.084339603045879397 -0.098199337881884174 0.096956898655223805 -0.016718358911010627 -0.25831736822888218 0.089464836027717848 0.036205329916572597 0.03381335298092452 -0.027644981490587223 0.1051955098699706 -0.095493587969753629 -0.16863907646243281 0.086599188849145178
leaf_weight=0.92347470670938436 2.5352545082569149 2.4114329814910951 3.0036709457635871 2.2053808420896557 1.6924623176455482 2.2035113722085944 3.1710019186139107 1.7851833105087278 4.1143846064805984 2.9405770301818848 1.2625833526253698 1.861623555421829 2.1557106822729111
leaf_count=9 12 15 15 12 12 10 17 10 18 14 16 12 10
internal_value=0 0.00780666 -0.00652558 -0.0204107 -0.0110195 -0.0332185 -0.0676788 -0.129376 0.0131998 0.0529474 -0.15134 -0.211344 0.085378
internal_weight=0 30.0802 25.3892 22.3856 19.9741 14.8282 8.51027 5.33927 6.3179 5.14596 2.18606 3.55409 4.69097
internal_count=182 157 135 120 105 79 51 34 28 26 25 24 22
shrinkage=0.2


Tree=11
num_leaves=11
num_cat=0
split_feature=5 4 8 7 3 7 5 7 7 7
split_gain=0.8114 0.722887 0.234054 0.427773 0.559264 0.239199 0.209637 0.781794 0.04446 0.00159871
threshold=2.5000000000000004 1.5000000000000002 1.0000000180025095e-35 2.5000000000000004 2.5000000000000004 1.5000000000000002 1.5000000000000002 1.5000000000000002 1.5000000000000002 1.5000000000000002
decision_type=2 2 2 2 2 2 2 2 2 2
left_child=2 9 3 4 6 -4 7 -1 -8 -2
right_child=1 -3 5 -5 -6 -7 8 -9 -10 -11
leaf_value=-0.040790584696848167 -0.0037601133742115552 0.10635769720576074 0.050203965161592284 -0.11235337239164261 -0.11898081342572309 -0.030610573012495049 -0.013743436735162283 0.12810449437758589 -0.048108166623475612 0.0025978430583670979
leaf_weight=2.7127169258892554 2.8680561333894747 4.2243665605783463 2.8297700211405745 2.6103048101067534 2.0542530119419089 3.0376328602433205 3.3278375938534737 1.8397649750113485 2.7506740838289261 3.5278089344501495
leaf_count=19 14 19 15 17 10 16 27 12 17 16
internal_value=0 0.042153 -0.0255942 -0.038621 -0.0234488 0.0083652 -0.0049889 0.0274639 -0.0292943 -0.000253214
internal_weight=0 10.6202 21.163 15.2956 12.6852 5.8674 10.631 4.55248 6.07851 6.39587
internal_count=182 49 133 102 85 31 75 31 44 30
shrinkage=0.2


Tree=12
num_leaves=14
num_cat=0
split_feature=0 6 3 6 0 8 3 0 3 7 0 0 3
split_gain=0.731299 1.97542 2.59208 1.05394 1.50274 1.03147 1.57081 0.550358 2.28179 0.934828 0.308553 0.183853 0.168691
threshold=2.5000000000000004 1.0000000180025095e-35 2.5000000000000004 1.0000000180025095e-35 1.0000000180025095e-35 1.0000000180025095e-35 1.5000000000000002 1.5000000000000002 1.0000000180025095e-35 1.5000000000000002 1.5000000000000002 1.0000000180025095e-35 1.5000000000000002
decision_type=2 2 2 2 2 2 2 2 2 2 2 2 2
left_child=3 2 -2 7 -5 6 10 8 11 12 -6 -1 -9
right_child=1 -3 -4 4 5 -7 -8 9 -10 -11 -12 -13 -14
leaf_value=-0.05500925670233249 -0.23820767054621927 0.14990596921204244 0.12741859001268838 0.10279705965462393 -0.071269101753358668 -0.21489467209008284 0.093233289122601773 -0.04908992471544766 0.23800791320946721 0.080306514704885312 -0.16973648097064767 0.018671830346708832 -0.13566596626318631
leaf_weight=2.2591752856969869 1.629193261265754 3.8719240725040436 1.480305030941963 1.8033709749579436 2.7101095765829069 2.2413238435983658 1.956077881157398 1.9493203982710841 1.9952716082334516 2.0360543504357338 2.4003801085054874 3.3832387551665306 1.6727342605590818
leaf_count=11 16 19 6 9 17 12 10 15 10 11 19 20 7
internal_value=0 0.0545672 -0.064148 -0.018839 -0.0643019 -0.0966767 -0.0591811 0.0191541 0.0541769 -0.0281219 -0.117519 -0.0108295 -0.0890724
internal_weight=0 6.98142 3.1095 24.4071 11.1113 9.30789 7.06657 13.2958 7.63769 5.65811 5.11049 5.64241 3.62205
internal_count=182 41 22 141 67 58 46 74 41 33 36 31 22
shrinkage=0.2


Tree=13
num_leaves=15
num_cat=0
split_feature=2 0 7 0 6 2 2 2 6 7 0 2 2 7
split_gain=0.958842 0.419028 0.819719 0.311236 0.814258 0.50681 1.37068 0.358403 2.6658 0.343183 0.210229 0.192504 0.0734793 0.000652823
threshold=1.5000000000000002 1.0000000180025095e-35 3.5000000000000004 1.5000000000000002 1.0000000180025095e-35 2.5000000000000004 3.5000000000000004 4.5000000000000009 1.0000000180025095e-35 1.5000000000000002 1.5000000000000002 4.5000000000000009 5.5000000000000009 1.5000000000000002
decision_type=2 2 2 2 2 2 2 2 2 2 2 2 2 2
left_child=10 13 3 4 9 -5 -7 -8 12 -3 -1 -6 -9 -2
right_child=1 2 -4 5 11 6 7 8 -10 -11 -12 -13 -14 -15
leaf_value=-0.22207846955942326 0.06390642871562062 0.1248541493279634 0.095048120309028303 -0.1403637177259166 -0.097291605929637259 0.096018282779437275 -0.13055334319929876 -0.1609045754441373 0.1471239323223083 0.0095778755191125858 -0.085906457700603595 -0.011360743769623283 -0.10583651028398977 0.059135338183445185
leaf_weight=0.75940784811973827 2.4793319106102016 2.3631079196929985 2.9321392029523841 1.6635966934263695 1.8940936401486395 2.9084274768829337 2.307931035757063 2.0522259697318082 2.0460582226514816 1.8353014588356016 1.1257976274937389 2.320194736123085 1.8366326019167898 2.1349665969610214
leaf_count=9 12 12 15 12 13 14 16 12 10 10 16 11 10 10
internal_value=0 0.00647283 -0.00407488 -0.0177666 0.0121226 -0.0373883 -0.0220259 -0.0636769 -0.0376705 0.074462 -0.14076 -0.049982 -0.134897 0.0616989
internal_weight=0 28.774 24.1597 21.2276 8.4127 12.8149 11.1513 8.24285 5.93492 4.19841 1.88521 4.21429 3.88886 4.6143
internal_count=182 157 135 120 46 74 62 48 32 22 25 24 22 22
shrinkage=0.2


Tree=14
num_leaves=12
num_cat=0
split_feature=2 2 0 6 8 8 2 2 0 0 0
split_gain=0.697186 0.500554 0.617731 0.461426 1.40854 0.679173 0.2575 0.219024 0.126322 0.026476 0.019991
threshold=1.5000000000000002 6.5000000000000009 1.0000000180025095e-35 1.0000000180025095e-35 1.0000000180025095e-35 1.0000000180025095e-35 4.5000000000000009 4.5000000000000009 1.5000000000000002 1.5000000000000002 1.5000000000000002
decision_type=2 2 2 2 2 2 2 2 2 2 2
left_child=-1 2 -2 4 6 7 10 9 -3 -5 -4
right_child=1 8 3 5 -6 -7 -8 -9 -10 -11 -12
leaf_value=-0.12706297769486569 0.085827651048522566 -0.095427820187956064 0.02567614882974105 -0.049036019092079143 0.14101101582039327 -0.12146880547417427 -0.069737121795080487 0.043361194519580287 -0.027374216634881578 -0.016173975162737313 -0.0011704772007007983
leaf_weight=1.6975322682410503 4.2089518308639589 1.9238868504762638 1.8479730784893034 1.522105313837528 3.2037863358855247 2.429226778447628 2.5367253236472607 2.8956824019551277 2.5202753841876984 2.7569187469780445 2.7762607112526894
leaf_count=25 20 9 9 11 16 14 16 14 13 17 18
internal_value=0 0.00485584 0.0161954 0.00151844 0.0307836 -0.0300651 -0.0185317 0.000882535 -0.0568348 -0.0278634 0.00955818
internal_weight=0 28.6218 24.1776 19.9687 10.3647 9.60393 7.16096 7.17471 4.44416 4.27902 4.62423
internal_count=182 157 135 115 59 56 43 42 22 28 27
shrinkage=0.2


Tree=15
num_leaves=14
num_cat=0
split_feature=0 8 6 6 7 0 1 8 7 7 0 0 7
split_gain=0.682155 1.11594 2.91626 0.590428 0.837883 0.812228 0.52963 0.429764 0.773347 0.169698 0.773982 0.370252 0.00150249
threshold=2.5000000000000004 1.0000000180025095e-35 1.0000000180025095e-35 1.0000000180025095e-35 2.5000000000000004 1.0000000180025095e-35 1.0000000180025095e-35 1.0000000180025095e-35 1.5000000000000002 1.5000000000000002 1.5000000000000002 1.0000000180025095e-35 1.5000000000000002
decision_type=2 2 2 2 2 2 2 2 2 2 2 2 2
left_child=3 2 -2 6 5 -5 12 8 -7 10 11 -8 -1
right_child=1 -3 -4 4 -6 7 9 -9 -10 -11 -12 -13 -14
leaf_value=-0.048375287706783641 -0.20340009337702139 0.15948227137165316 0.13467813551830651 0.10316795551453944 -0.15442435059654586 -0.1351522176018862 0.0069193501076403683 -0.15026292715686082 0.032908182794420086 0.074779007579934637 -0.0899042258966051 0.12747587989046924 -0.056334030692386433
leaf_weight=2.1484800912439854 1.7774925138801325 2.509350910782814 2.3967398852109909 1.6463333219289777 2.5120725333690643 1.6857934705913065 2.0886679738759995 1.4473588690161703 3.1263500824570656 3.0854953415691853 1.8613459356129167 1.9897446557879446 1.6992324143648145
leaf_count=12 17 13 11 8 15 15 10 9 20 18 13 12 9
internal_value=0 0.0540793 -0.00928403 -0.018406 -0.0538032 -0.0218309 0.0102405 -0.0547073 -0.0259669 0.0367285 0.0169626 0.0657355 -0.05189
internal_weight=0 6.68358 4.17423 23.2909 10.4179 7.90584 12.873 6.2595 4.81214 9.02525 5.93976 4.07841 3.84771
internal_count=182 41 28 141 67 52 74 44 35 53 35 22 21
shrinkage=0.2


Tree=16
num_leaves=14
num_cat=0
split_feature=5 1 1 6 6 7 4 7 6 6 5 7 7
split_gain=0.498953 1.44472 1.14156 1.15538 0.932367 0.814616 0.575422 0.508395 0.831276 0.472886 0.233388 0.105721 0.00974381
threshold=2.5000000000000004 1.5000000000000002 1.5000000000000002 1.0000000180025095e-35 1.0000000180025095e-35 2.5000000000000004 1.5000000000000002 2.5000000000000004 1.0000000180025095e-35 1.0000000180025095e-35 1.5000000000000002 1.5000000000000002 1.5000000000000002
decision_type=2 2 2 2 2 2 2 2 2 2 2 2 2
left_child=1 5 4 -4 -2 9 7 8 -3 12 -10 -11 -1
right_child=2 6 3 -5 -6 -7 -8 -9 10 11 -12 -13 -14
leaf_value=0.07193407109064813 -0.094918600293362007 -0.084928480090573202 0.20279652624149447 -0.00054130309165533168 0.073328124643021325 0.1705304523306109 -0.16252582324693851 -0.14228526672132202 0.10964641994906227 -0.0036616448291883273 0.0054915275032063312 -0.07671389447928971 0.049335863041447721
leaf_weight=2.2283754479140043 3.2701407149434107 4.1012768745422346 2.4192880541086197 2.0776939541101456 2.206479474902153 1.6192047987133262 2.0480317175388345 1.7690995670855043 1.4264103733003142 1.4679844751954079 2.169300127774477 1.7218921482563019 1.1607557162642481
leaf_count=19 15 25 14 10 10 9 10 13 10 11 17 10 9
internal_value=0 -0.0207159 0.0341801 0.10885 -0.0271336 0.0434507 -0.0664034 -0.0456069 -0.023386 0.0121743 0.0468095 -0.0430952 0.0641943
internal_weight=0 19.7123 9.9736 4.49698 5.47662 8.19821 11.5141 9.46609 7.69699 6.57901 3.59571 3.18988 3.38913
internal_count=182 133 49 24 25 58 75 65 52 49 27 21 28
shrinkage=0.2


Tree=17
num_leaves=12
num_cat=0
split_feature=3 5 0 5 3 4 0 0 0 0 0
split_gain=0.655966 0.119819 0.432716 0.392273 0.391056 0.272504 1.18904 0.124881 0.0775681 0.00895467 0.0151251
threshold=3.5000000000000004 2.5000000000000004 1.0000000180025095e-35 1.5000000000000002 1.0000000180025095e-35 1.5000000000000002 2.5000000000000004 1.5000000000000002 1.5000000000000002 2.5000000000000004 1.5000000000000002
decision_type=2 2 2 2 2 2 2 2 2 2 2
left_child=1 2 -1 9 8 6 7 -5 -3 10 -4
right_child=-2 4 3 5 -6 -7 -8 -9 -10 -11 -12
leaf_value=-0.095927186132029094 0.07771072849381512 -0.0042024136326420112 -0.04536082764728578 0.053906468686381784 0.065021732849328107 -0.052593021897389951 -0.098016881394345806 0.11400946407059476 -0.054761664674816746 -0.040768907631279022 -0.07103295135129889
leaf_weight=2.7083620727062323 3.6151869893074027 2.661654904484748 1.6816155537962889 3.8154742904007417 2.9409239292144775 1.992995664477349 2.1399104837328196 2.1688506677746773 2.2313340082764626 1.4358193166553972 2.0215214565396309
leaf_count=14 18 12 10 27 15 10 17 19 12 10 18
internal_value=0 -0.0132561 -0.0222568 -0.00917842 0.00738418 0.013678 0.0299352 0.0756891 -0.0272588 -0.0541765 -0.0593751
internal_weight=0 25.7985 17.9645 15.2562 7.83391 10.1172 8.12424 5.98432 4.89299 5.13896 3.70314
internal_count=182 164 125 111 39 73 63 46 24 38 28
shrinkage=0.2


Tree=18
num_leaves=14
num_cat=0
split_feature=2 2 2 4 0 0 2 5 5 6 2 6 2
split_gain=0.559102 0.304261 0.469782 0.30057 0.640058 0.240742 0.182365 1.79017 0.869877 0.738697 2.62756 0.394624 0.00158117
threshold=1.5000000000000002 6.5000000000000009 5.5000000000000009 1.5000000000000002 1.5000000000000002 1.5000000000000002 3.5000000000000004 1.5000000000000002 2.5000000000000004 1.0000000180025095e-35 4.5000000000000009 1.0000000180025095e-35 7.5000000000000009
decision_type=2 2 2 2 2 2 2 2 2 2 2 2 2
left_child=5 2 3 6 -5 -1 8 -8 11 10 -9 -2 -3
right_child=1 12 -4 4 -6 -7 7 9 -10 -11 -12 -13 -14
leaf_value=-0.21795271118293968 0.099810135722553178 -0.048351749225232513 0.08907532299250398 0.12242825715261468 -0.028539681796807034 -0.056184076928872222 -0.19248621538550581 0.12848845394666908 -0.10702428848633679 0.10418575899040804 -0.21665628236932824 -0.0027165750726258191 -0.040641829435489156
leaf_weight=0.59937662631273514 3.0331883653998508 2.129781760275363 2.893680050969123 2.300837814807891 2.1950014382600784 0.95315813831984997 2.050324294716118 1.8493320681154728 1.8739761412143705 2.6042354516685009 1.687244389206171 2.9740060977637768 2.1261913850903511
leaf_count=9 17 11 15 13 10 16 14 11 9 15 11 20 11
internal_value=0 0.00469883 0.0136235 0.00300837 0.0487213 -0.118637 -0.0097787 -0.0306757 0.0119402 0.0233503 -0.0361746 0.0490518 -0.0445
internal_weight=0 27.7178 23.4618 20.5681 4.49584 1.55253 16.0723 8.19114 7.88117 6.14081 3.53658 6.00719 4.25597
internal_count=182 157 135 120 23 25 97 51 46 37 22 37 22
shrinkage=0.2


end of trees

feature_importances:
Column_0=53
Column_2=50
Column_7=37
Column_6=29
Column_5=19
Column_3=14
Column_8=14
Column_4=8
Column_1=7

parameters:
[boosting: gbdt]
[objective: binary]
[metric: binary_logloss]
[tree_learner: serial]
[device_type: cpu]
[data: ]
[valid: ]
[num_iterations: 10000]
[learning_rate: 0.2]
[num_leaves: 63]
[num_threads: 0]
[force_col_wise: 0]
[force_row_wise: 0]
[histogram_pool_size: -1]
[max_depth: -1]
[min_data_in_leaf: 10]
[min_sum_hessian_in_leaf: 0.001]
[bagging_fraction: 1]
[pos_bagging_fraction: 1]
[neg_bagging_fraction: 1]
[bagging_freq: 0]
[bagging_seed: 21709]
[feature_fraction: 0.5]
[feature_fraction_bynode: 1]
[feature_fraction_seed: 24116]
[extra_trees: 0]
[extra_seed: 15571]
[early_stopping_round: 50]
[first_metric_only: 0]
[max_delta_step: 0]
[lambda_l1: 0]
[lambda_l2: 0]
[min_gain_to_split: 0]
[drop_rate: 0.1]
[max_drop: 50]
[skip_drop: 0.5]
[xgboost_dart_mode: 0]
[uniform_drop: 0]
[drop_seed: 15722]
[top_rate: 0.2]
[other_rate: 0.1]
[min_data_per_group: 100]
[max_cat_threshold: 32]
[cat_l2: 10]
[cat_smooth: 10]
[max_cat_to_onehot: 4]
[top_k: 20]
[monotone_constraints: ]
[monotone_constraints_method: basic]
[monotone_penalty: 0]
[feature_contri: ]
[forcedsplits_filename: ]
[refit_decay_rate: 0.9]
[cegb_tradeoff: 1]
[cegb_penalty_split: 0]
[cegb_penalty_feature_lazy: ]
[cegb_penalty_feature_coupled: ]
[path_smooth: 0]
[interaction_constraints: ]
[verbosity: -1]
[saved_feature_importance_type: 0]
[max_bin: 255]
[max_bin_by_feature: ]
[min_data_in_bin: 3]
[bin_construct_sample_cnt: 200000]
[data_random_seed: 4074]
[is_enable_sparse: 1]
[enable_bundle: 1]
[use_missing: 1]
[zero_as_missing: 0]
[feature_pre_filter: 1]
[pre_partition: 0]
[two_round: 0]
[header: 0]
[label_column: ]
[weight_column: ]
[group_column: ]
[ignore_column: ]
[categorical_feature: ]
[forcedbins_filename: ]
[objective_seed: 10917]
[num_class: 1]
[is_unbalance: 0]
[scale_pos_weight: 1]
[sigmoid: 1]
[boost_from_average: 1]
[reg_sqrt: 0]
[alpha: 0.9]
[fair_c: 1]
[poisson_max_delta_step: 0.7]
[tweedie_variance_power: 1.5]
[lambdarank_truncation_level: 20]
[lambdarank_norm: 1]
[label_gain: ]
[eval_at: ]
[multi_error_top_k: 1]
[auc_mu_weights: ]
[num_machines: 1]
[local_listen_port: 12400]
[time_out: 120]
[machine_list_filename: ]
[machines: ]
[gpu_platform_id: -1]
[gpu_device_id: -1]
[gpu_use_dp: 0]

end of parameters

pandas_categorical:null
