tree
version=v3
num_class=1
num_tree_per_iteration=1
label_index=0
max_feature_idx=8
objective=binary sigmoid:1
feature_names=Column_0 Column_1 Column_2 Column_3 Column_4 Column_5 Column_6 Column_7 Column_8
feature_infos=[0:4] [0:2] [0:10] [0:4] [0:2] [1:3] [0:1] [0:5] [0:1]
tree_sizes=1532 1354 1355 1662 1550 1564 1562

Tree=0
num_leaves=14
num_cat=0
split_feature=5 2 0 0 2 7 2 2 1 0 0 2 0
split_gain=17.4345 5.57868 4.30431 0.98 0.709211 0.681325 1.21006 3.528 3.66369 1.05926 0.723692 0.103939 1.77636e-15
threshold=2.5000000000000004 2.5000000000000004 1.5000000000000002 2.5000000000000004 1.5000000000000002 4.5000000000000009 4.5000000000000009 3.5000000000000004 1.5000000000000002 1.5000000000000002 1.5000000000000002 4.5000000000000009 1.5000000000000002
decision_type=2 2 2 2 2 2 2 2 2 2 2 2 2
left_child=1 4 11 -4 12 6 7 8 -3 -8 -9 -2 -1
right_child=2 5 3 -5 -6 -7 9 10 -10 -11 -12 -13 -14
leaf_value=-1.1962907347947822 -0.51029073786144119 -0.7062907369852538 -0.86962406958842964 -0.70629073698525335 -1.0737907353424001 -0.83992710002421578 -0.8042907365471591 -1.0455215046995427 -1.0455215046995427 -0.96570250053147466 -1.1962907347947827 -0.57265437394629082 -1.1962907347947827
leaf_weight=2.0408163964748409 2.0408163964748365 2.4489796757698112 3.6734695136547089 2.4489796757698059 3.2653062343597412 2.2448980361223212 3.0612245947122565 2.6530613154172897 2.6530613154172897 3.469387874007225 2.4489796757698059 2.2448980361223221 2.4489796757698059
leaf_count=10 10 12 18 12 16 11 15 13 13 17 12 11 12
internal_value=-0.916291 -1.00179 -0.696683 -0.804291 -1.14471 -0.943388 -0.957266 -1.00029 -0.882691 -0.890041 -1.11789 -0.542957 -1.19629
internal_weight=0 26.7347 10.4082 6.12245 7.7551 18.9796 16.7347 10.2041 5.10204 6.53061 5.10204 4.28571 4.4898
internal_count=182 131 51 30 38 93 82 50 25 32 25 21 22
shrinkage=1


Tree=1
num_leaves=12
num_cat=0
split_feature=3 2 3 8 0 0 2 2 2 0 2
split_gain=20.312 3.66923 2.20001 1.25434 1.09176 0.825115 0.292984 0.436328 0.13523 0.0160852 0.00201189
threshold=1.0000000180025095e-35 2.5000000000000004 2.5000000000000004 1.0000000180025095e-35 1.5000000000000002 1.5000000000000002 5.5000000000000009 3.5000000000000004 4.5000000000000009 1.5000000000000002 1.5000000000000002
decision_type=2 2 2 2 2 2 2 2 2 2 2
left_child=1 5 4 6 -2 -1 7 -3 9 -9 -7
right_child=2 3 -4 -5 -6 10 -8 8 -10 -11 -12
leaf_value=-0.13015340365878428 0.24975885597974742 -0.033950672686498179 0.34455553334812805 0.096308842501004854 0.087742226945456581 -0.26270411373421915 -0.019109107898673747 -0.072814039707039799 -0.13777228464496349 -0.097482057244625345 -0.27102921426887816
leaf_weight=2.8207584768533733 2.9529222995042783 4.6708014756441179 4.0715472549200058 2.0872071385383597 3.8105426579713821 2.1688472926616669 3.7550349235534659 1.9663778841495494 3.8621337562799454 2.2872032970190048 2.4990762770175934
leaf_count=15 14 22 19 10 19 12 18 10 18 12 13
internal_value=0 -0.0973208 0.228402 -0.0497914 0.158479 -0.215554 -0.0682263 -0.0826506 -0.110679 -0.0860783 -0.267161
internal_weight=0 26.1174 10.835 18.6288 6.76346 7.48868 16.5416 12.7865 8.11571 4.25358 4.66792
internal_count=182 130 52 90 33 40 80 62 40 22 25
shrinkage=0.2


Tree=2
num_leaves=12
num_cat=0
split_feature=3 5 5 8 0 0 7 0 8 7 0
split_gain=12.4546 5.37911 1.3546 1.44951 0.96949 0.623763 0.842277 0.356594 0.260962 0.137393 0.119131
threshold=1.0000000180025095e-35 2.5000000000000004 2.5000000000000004 1.0000000180025095e-35 1.5000000000000002 2.5000000000000004 3.5000000000000004 1.5000000000000002 1.0000000180025095e-35 2.5000000000000004 1.5000000000000002
decision_type=2 2 2 2 2 2 2 2 2 2 2
left_child=2 8 3 5 -4 6 9 -3 -2 10 -1
right_child=1 7 4 -5 -6 -7 -8 -9 -10 -11 -12
leaf_value=-0.12992913434541084 0.0062724657433756064 0.37444389422754287 0.095067138821181341 0.030056409006464793 -0.066379099750958015 -0.20767631042082757 -0.20370977874001253 0.26958147763364282 0.086761191358871462 -0.051842231489232019 -0.074060944308735388
leaf_weight=2.9478499442339032 3.2795191556215268 2.4608217775821686 2.4878773242235175 2.5715482681989661 3.7012434899806976 3.4036331176757804 3.0132370740175238 2.7431386560201645 3.1674903631210327 3.6223131418228149 3.1668318212032318
leaf_count=16 15 10 11 13 18 19 16 12 15 19 18
internal_value=0 0.167911 -0.0825983 -0.109409 -0.0014816 -0.131611 -0.111305 0.319168 0.0458175 -0.0827092 -0.100995
internal_weight=0 11.651 24.9145 18.7254 6.18912 16.1539 12.7502 5.20396 6.44701 9.73699 6.11468
internal_count=182 52 130 101 29 88 69 22 30 53 34
shrinkage=0.2


Tree=3
num_leaves=15
num_cat=0
split_feature=4 5 2 2 2 2 1 2 2 5 2 6 6 5
split_gain=5.88322 4.93329 4.31099 0.842274 0.499887 0.494451 0.797159 2.94712 1.66621 1.37832 0.192656 0.60549 0.150143 0.00203925
threshold=1.5000000000000002 2.5000000000000004 1.5000000000000002 4.5000000000000009 4.5000000000000009 2.5000000000000004 1.5000000000000002 3.5000000000000004 3.5000000000000004 2.5000000000000004 4.5000000000000009 1.0000000180025095e-35 1.0000000180025095e-35 1.5000000000000002
decision_type=2 2 2 2 2 2 2 2 2 2 2 2 2 2
left_child=2 4 13 -3 -2 -4 8 -8 -7 12 -9 -12 -10 -1
right_child=1 3 5 -5 -6 6 7 10 9 -11 11 -13 -14 -15
leaf_value=-0.24607103773129069 -0.092309773622583149 0.35624197402069907 -0.1005458391720787 0.19005350654997191 0.043946364168227607 0.15221824696657085 -0.27161240062775549 -0.033054606902161714 -0.14871168007078994 0.073241538064289471 -0.041949211424254701 0.097180338637826436 -0.067892336341819584 -0.25546161116471561
leaf_weight=1.7953657656908064 2.0535631328821164 2.4249028861522675 2.5937270671129253 2.4547367990016937 2.2648069113492966 3.1688181310892105 1.9034952521324164 3.3359878510236722 1.75430728495121 3.1871557831764221 2.4540157467126846 2.5527449399232864 1.9321307986974716 1.9081040322780607
leaf_count=12 10 10 16 10 10 15 10 18 10 15 12 12 10 12
internal_value=0 0.13485 -0.0507207 0.27264 -0.0208491 -0.0183205 -0.00780874 -0.0470563 0.0322354 -0.0230783 0.00417882 0.0289873 -0.106353 -0.250909
internal_weight=0 9.19801 26.5859 4.87964 4.31837 22.8824 20.2887 10.2462 10.0424 6.87359 8.34275 5.00676 3.68644 3.70347
internal_count=182 40 142 20 20 118 102 52 50 35 42 24 20 24
shrinkage=0.2


Tree=4
num_leaves=14
num_cat=0
split_feature=4 2 0 8 2 2 1 2 0 2 1 2 0
split_gain=3.87194 3.4834 1.83148 0.671324 0.45459 0.354825 0.69322 0.972144 0.363109 0.0493003 0.0114029 0.0107782 0.00155
threshold=1.5000000000000002 1.5000000000000002 1.5000000000000002 1.0000000180025095e-35 4.5000000000000009 6.5000000000000009 1.5000000000000002 3.5000000000000004 2.5000000000000004 4.5000000000000009 1.5000000000000002 3.5000000000000004 1.5000000000000002
decision_type=2 2 2 2 2 2 2 2 2 2 2 2 2
left_child=1 12 -2 5 -4 6 8 -8 11 -9 -5 -3 -1
right_child=2 3 4 10 -6 -7 7 9 -10 -11 -12 -13 -14
leaf_value=-0.2444952052783616 0.20555646916287837 0.046367160730791224 -0.044336253420428018 0.043842651958383216 0.078313287157827954 -0.10529405870440733 -0.16960893954019418 0.0057490344233357997 -0.031169470606176371 -0.033145160650458812 0.064011125257644366 0.065667925707558 -0.23562653612044132
leaf_weight=1.5290139392018347 4.1988918930292112 2.3722334355115944 2.1110658496618271 2.3087425827980033 2.8281766325235367 2.3487330377101889 2.418470174074173 2.2462314963340759 3.2822295874357224 3.1063216030597687 2.1801990121603012 2.2598058581352234 1.6271069869399069
leaf_count=11 18 12 10 11 12 12 15 13 18 15 10 12 13
internal_value=0 -0.0431445 0.108446 -0.0155701 0.025892 -0.032797 -0.0219412 -0.0643725 0.019722 -0.016823 0.0536381 0.0557833 -0.239923
internal_weight=0 25.6791 9.13813 22.523 4.93924 18.034 15.6853 7.77102 7.91427 5.35255 4.48894 4.63204 3.15612
internal_count=182 142 40 118 22 97 85 43 42 28 21 24 24
shrinkage=0.2


Tree=5
num_leaves=14
num_cat=0
split_feature=3 6 7 7 4 7 5 5 7 6 5 5 5
split_gain=4.7621 3.64117 0.923532 1.40441 0.414078 0.150666 1.16905 0.298961 0.219168 0.0803808 0.558349 0.0454278 0.0143157
threshold=1.0000000180025095e-35 1.0000000180025095e-35 4.5000000000000009 3.5000000000000004 1.5000000000000002 2.5000000000000004 1.5000000000000002 2.5000000000000004 1.5000000000000002 1.0000000180025095e-35 1.5000000000000002 2.5000000000000004 2.5000000000000004
decision_type=2 2 2 2 2 2 2 2 2 2 2 2 2
left_child=2 12 3 5 -3 7 -7 8 -1 10 -10 -8 -2
right_child=1 4 -4 -5 -6 6 11 -9 9 -11 -12 -13 -14
leaf_value=-0.12498046976242638 0.21516998891152075 0.04318365441311018 0.046174264537928028 -0.24785715983915499 -0.06764882247474531 0.06397872561349939 -0.13620954485600953 0.032445358010649364 0.057037051813123955 -0.072869502097659772 -0.088373737791671722 -0.10168415518642478 0.19583039061661323
leaf_weight=1.5326245352625933 2.6718933135271055 2.3958478420972824 2.9786941409111014 1.6859908401966084 3.0840490162372589 1.8064888715744007 3.0933644324541092 1.8393639773130415 1.8697681427001951 2.0973553657531738 2.427734300494194 3.0055774748325348 3.5855731219053268
leaf_count=10 12 12 15 12 13 11 18 9 12 13 16 14 15
internal_value=0 0.0998439 -0.0574984 -0.0734507 -0.0191921 -0.0568117 -0.0773378 -0.0401977 -0.0570526 -0.0407726 -0.025108 -0.119195 0.204088
internal_weight=0 11.7374 22.337 19.3583 5.4799 17.6723 7.90543 9.76685 7.92748 6.39486 4.2975 6.09894 6.25747
internal_count=182 52 130 115 25 103 43 60 51 41 28 32 27
shrinkage=0.2


Tree=6
num_leaves=14
num_cat=0
split_feature=2 0 6 7 8 8 2 2 2 2 8 7 2
split_gain=2.48406 0.910129 1.5355 1.51751 1.49606 0.949042 0.448519 0.771181 0.426339 0.369994 0.239626 0.186975 0.132018
threshold=1.5000000000000002 1.5000000000000002 1.0000000180025095e-35 3.5000000000000004 1.0000000180025095e-35 1.0000000180025095e-35 2.5000000000000004 3.5000000000000004 5.5000000000000009 4.5000000000000009 1.0000000180025095e-35 2.5000000000000004 4.5000000000000009
decision_type=2 2 2 2 2 2 2 2 2 2 2 2 2
left_child=11 2 5 6 12 9 -3 -8 10 -2 -9 -1 -4
right_child=1 3 4 -5 -6 -7 7 8 -10 -11 -12 -13 -14
leaf_value=-0.23349081219535139 0.0066889275298377005 -0.13883644223886799 0.015211285434945238 0.11509713919104381 -0.15437158955429214 0.22463377066787285 0.049182645541167143 -0.12544368911219991 -0.0038309647686230394 0.12509825233863781 -0.03968723802524355 -0.1302830045560873 0.080285393923494597
leaf_weight=1.4390492588281625 2.1318343654274958 1.7635753378272081 2.5586260557174683 2.867690533399581 2.0973838418722153 2.3159532099962234 3.4548245370388022 3.6721277311444265 3.2072533667087555 2.0907992720603943 2.0204714983701706 1.3711127489805219 2.4326815009117126
leaf_count=13 13 12 15 15 9 11 16 20 16 10 9 12 11
internal_value=0 0.0133446 0.0518452 -0.0175432 -0.0126325 0.121747 -0.044485 -0.0310167 -0.0621492 0.0653182 -0.0950062 -0.183134 0.0469273
internal_weight=0 30.6132 13.6273 16.9859 7.08869 6.53859 14.1183 12.3547 8.89985 4.22263 5.6926 2.81016 4.99131
internal_count=182 157 69 88 35 34 73 61 45 23 29 25 26
shrinkage=0.2


end of trees

feature_importances:
Column_2=29
Column_0=16
Column_5=11
Column_7=9
Column_8=7
Column_6=5
Column_1=4
Column_3=4
Column_4=3

parameters:
[boosting: gbdt]
[objective: binary]
[metric: binary_logloss]
[tree_learner: serial]
[device_type: cpu]
[data: ]
[valid: ]
[num_iterations: 10000]
[learning_rate: 0.2]
[num_leaves: 63]
[num_threads: 0]
[force_col_wise: 0]
[force_row_wise: 0]
[histogram_pool_size: -1]
[max_depth: -1]
[min_data_in_leaf: 10]
[min_sum_hessian_in_leaf: 0.001]
[bagging_fraction: 1]
[pos_bagging_fraction: 1]
[neg_bagging_fraction: 1]
[bagging_freq: 0]
[bagging_seed: 21709]
[feature_fraction: 0.5]
[feature_fraction_bynode: 1]
[feature_fraction_seed: 24116]
[extra_trees: 0]
[extra_seed: 15571]
[early_stopping_round: 50]
[first_metric_only: 0]
[max_delta_step: 0]
[lambda_l1: 0]
[lambda_l2: 0]
[min_gain_to_split: 0]
[drop_rate: 0.1]
[max_drop: 50]
[skip_drop: 0.5]
[xgboost_dart_mode: 0]
[uniform_drop: 0]
[drop_seed: 15722]
[top_rate: 0.2]
[other_rate: 0.1]
[min_data_per_group: 100]
[max_cat_threshold: 32]
[cat_l2: 10]
[cat_smooth: 10]
[max_cat_to_onehot: 4]
[top_k: 20]
[monotone_constraints: ]
[monotone_constraints_method: basic]
[monotone_penalty: 0]
[feature_contri: ]
[forcedsplits_filename: ]
[refit_decay_rate: 0.9]
[cegb_tradeoff: 1]
[cegb_penalty_split: 0]
[cegb_penalty_feature_lazy: ]
[cegb_penalty_feature_coupled: ]
[path_smooth: 0]
[interaction_constraints: ]
[verbosity: -1]
[saved_feature_importance_type: 0]
[max_bin: 255]
[max_bin_by_feature: ]
[min_data_in_bin: 3]
[bin_construct_sample_cnt: 200000]
[data_random_seed: 4074]
[is_enable_sparse: 1]
[enable_bundle: 1]
[use_missing: 1]
[zero_as_missing: 0]
[feature_pre_filter: 1]
[pre_partition: 0]
[two_round: 0]
[header: 0]
[label_column: ]
[weight_column: ]
[group_column: ]
[ignore_column: ]
[categorical_feature: ]
[forcedbins_filename: ]
[objective_seed: 10917]
[num_class: 1]
[is_unbalance: 0]
[scale_pos_weight: 1]
[sigmoid: 1]
[boost_from_average: 1]
[reg_sqrt: 0]
[alpha: 0.9]
[fair_c: 1]
[poisson_max_delta_step: 0.7]
[tweedie_variance_power: 1.5]
[lambdarank_truncation_level: 20]
[lambdarank_norm: 1]
[label_gain: ]
[eval_at: ]
[multi_error_top_k: 1]
[auc_mu_weights: ]
[num_machines: 1]
[local_listen_port: 12400]
[time_out: 120]
[machine_list_filename: ]
[machines: ]
[gpu_platform_id: -1]
[gpu_device_id: -1]
[gpu_use_dp: 0]

end of parameters

pandas_categorical:null
