tree
version=v3
num_class=1
num_tree_per_iteration=1
label_index=0
max_feature_idx=8
objective=binary sigmoid:1
feature_names=Column_0 Column_1 Column_2 Column_3 Column_4 Column_5 Column_6 Column_7 Column_8
feature_infos=[0:4] [0:2] [0:10] [0:5] [0:2] [1:3] [0:1] [0:5] [0:1]
tree_sizes=1331 1465 1344 1557 1348

Tree=0
num_leaves=12
num_cat=0
split_feature=5 2 2 0 7 2 2 2 0 1 2
split_gain=19.5595 4.28719 3.62009 2.88428 1.10076 1.56116 1.47979 1.17497 0.511991 0.446685 0.102105
threshold=2.5000000000000004 3.5000000000000004 1.5000000000000002 1.5000000000000002 3.5000000000000004 3.5000000000000004 4.5000000000000009 4.5000000000000009 2.5000000000000004 1.5000000000000002 5.5000000000000009
decision_type=2 2 2 2 2 2 2 2 2 2 2
left_child=2 -2 -1 -3 5 9 -6 -7 10 -4 -9
right_child=1 3 4 -5 6 7 -8 8 -10 -11 -12
leaf_value=-1.2033429275507941 -0.89608183374984651 -0.49322839965527066 -0.83462961498965715 -0.73513554652077873 -1.2033429275507943 -1.0998444538494225 -0.97644242751317134 -0.95753405251003609 -1.0394703441902888 -0.9411467941739855 -0.90080892750063035
leaf_weight=3.6613813340663937 3.2545611858367902 3.661381334066391 3.2545611858367982 4.2716115564107895 2.0341007411479941 3.8647914081811887 2.6443309634923935 2.440920889377594 2.440920889377594 3.0511511117219925 2.6443309634923935
leaf_count=18 16 18 16 21 10 19 13 12 12 15 13
internal_value=-0.923954 -0.702787 -1.01899 -0.623486 -0.988819 -0.96601 -1.07509 -1.01021 -0.964178 -0.88617 -0.928037
internal_weight=0 11.1876 26.0365 7.93299 22.3751 17.6967 4.67843 11.391 7.52617 6.30571 5.08525
internal_count=183 55 128 39 110 87 23 56 37 31 25
shrinkage=1


Tree=1
num_leaves=13
num_cat=0
split_feature=4 2 3 0 0 2 8 0 2 2 2 2
split_gain=11.2255 4.34438 1.90798 1.48679 1.17534 0.811179 0.774937 0.300603 0.106241 0.294331 0.00446152 4.69941e-05
threshold=1.5000000000000002 1.5000000000000002 2.5000000000000004 1.5000000000000002 2.5000000000000004 3.5000000000000004 1.0000000180025095e-35 1.0000000180025095e-35 4.5000000000000009 3.5000000000000004 5.5000000000000009 4.5000000000000009
decision_type=2 2 2 2 2 2 2 2 2 2 2 2
left_child=1 -1 3 7 5 -5 -2 -3 9 -9 -7 -6
right_child=6 2 -4 4 11 10 -8 8 -10 -11 -12 -13
leaf_value=-0.26250186211384668 0.28044059581853831 0.060708188377652877 0.12421051619375995 -0.058323598273614163 -0.016627185213817952 -0.19023913294639822 0.15128028369326474 -0.042671045747201687 -0.04214771470710376 0.054989499488798568 -0.20259424881470223 -0.017905300216245885
leaf_weight=3.6080291569232967 3.840895637869834 2.8790307044982955 2.9133103787899008 2.6762994825839979 2.2568251341581345 2.3483960628509521 3.5993361920118332 2.5726664662361145 3.3000798523426056 2.3730150163173676 2.3280641734600067 2.3477854281663895
leaf_count=20 18 14 14 13 11 12 17 13 16 12 11 12
internal_value=0 -0.0568484 -0.0283048 -0.0475545 -0.0965148 -0.146136 0.217957 0.00506998 -0.0143563 0.00418801 -0.19639 -0.0172789
internal_weight=0 29.6035 25.9955 23.0822 11.9574 7.35276 7.44023 11.1248 8.24576 4.94568 4.67646 4.60461
internal_count=183 148 128 114 59 36 35 55 41 25 23 23
shrinkage=0.2


Tree=2
num_leaves=12
num_cat=0
split_feature=5 3 0 7 0 3 7 5 7 7 5
split_gain=10.559 5.88652 0.970012 0.703205 1.17436 1.06018 1.04638 0.671188 0.727019 0.327371 0.293691
threshold=2.5000000000000004 1.0000000180025095e-35 1.5000000000000002 3.5000000000000004 1.5000000000000002 1.5000000000000002 4.5000000000000009 1.5000000000000002 2.5000000000000004 2.5000000000000004 1.5000000000000002
decision_type=2 2 2 2 2 2 2 2 2 2 2
left_child=3 2 -2 4 5 10 -5 -6 -9 -3 -1
right_child=1 9 -4 6 7 -7 -8 8 -10 -11 -12
leaf_value=0.095090683586271096 0.1026243697357427 0.36263774323760217 -0.048140387726109977 -0.25604684517695991 -0.16858730198312577 -0.12169533111784732 -0.068775523063290267 -0.0086102933374630052 -0.14251704275306745 0.2630419077748844 0.0047331286170746202
leaf_weight=2.1606930196285301 3.3755272477865201 2.3269900530576706 3.4534222781658173 2.0215243846178046 4.1356727331876737 2.359727531671524 2.9135367274284363 3.7905576974153519 2.8346234858036041 3.0510081648826599 4.3070810735225677
leaf_count=11 15 10 17 12 23 11 15 20 14 13 22
internal_value=0 0.149633 0.0263821 -0.0780131 -0.0610139 -0.00694648 -0.145487 -0.105367 -0.0659031 0.306136 0.0349189
internal_weight=0 12.2069 6.82895 24.5234 19.5884 8.8275 4.93506 10.7609 6.62518 5.378 6.46777
internal_count=183 55 32 128 101 44 27 57 34 23 33
shrinkage=0.2


Tree=3
num_leaves=14
num_cat=0
split_feature=5 4 2 2 1 2 2 6 2 1 2 1 6
split_gain=6.74533 3.31024 2.82051 2.15858 0.61857 0.612489 1.32541 0.704199 0.595448 3.48845 0.0890582 0.0649195 0.0172288
threshold=2.5000000000000004 1.5000000000000002 3.5000000000000004 1.5000000000000002 1.5000000000000002 3.5000000000000004 4.5000000000000009 1.0000000180025095e-35 2.5000000000000004 1.5000000000000002 6.5000000000000009 1.5000000000000002 1.0000000180025095e-35
decision_type=2 2 2 2 2 2 2 2 2 2 2 2 2
left_child=3 2 -2 -1 -4 8 12 11 -5 -10 -9 -8 -7
right_child=1 -3 4 5 -6 6 7 10 9 -11 -12 -13 -14
leaf_value=-0.24082913954900828 -0.12981326061947171 0.25459712523164535 0.066614889539331201 -0.086311818523274977 0.20441716380635327 -0.17638585390176631 -0.062325674790395837 -0.0052330880299653621 0.21254814760461394 -0.11935242467800081 0.046014888066031163 -0.11172937554670417 -0.15019550058724454
leaf_weight=2.5152391642332104 2.6421273201704008 4.4441611170768729 3.2259820401668549 2.1273678392171886 2.1858312338590622 2.3111968189477912 1.9122229218482951 2.9515010565519333 2.4328555166721344 2.642644464969635 2.509739562869072 2.3983543515205383 1.7772954106330869
leaf_count=18 13 18 15 11 9 13 10 15 12 14 13 12 10
internal_value=0 0.116034 0.0395752 -0.0657117 0.122273 -0.0448002 -0.069386 -0.0293812 0.00250955 0.0397385 0.0183182 -0.0898133 -0.165001
internal_weight=0 12.4981 8.05394 23.5784 5.41181 21.0632 13.8603 9.77182 7.20287 5.0755 5.46124 4.31058 4.08849
internal_count=183 55 37 128 24 110 73 50 37 26 28 22 23
shrinkage=0.2


Tree=4
num_leaves=12
num_cat=0
split_feature=2 4 2 0 2 1 2 2 2 0 2
split_gain=3.59408 2.45315 1.13548 1.11289 1.32439 0.771739 0.869282 0.75191 0.341374 2.94232 0.0149837
threshold=1.5000000000000002 1.5000000000000002 6.5000000000000009 1.0000000180025095e-35 2.5000000000000004 1.5000000000000002 3.5000000000000004 3.5000000000000004 5.5000000000000009 1.5000000000000002 4.5000000000000009
decision_type=2 2 2 2 2 2 2 2 2 2 2
left_child=-1 2 3 -2 -5 7 -7 -6 9 -3 -8
right_child=1 8 -4 4 5 6 10 -9 -10 -11 -12
leaf_value=-0.23557761376539976 0.12032972276720165 0.28730322406513997 -0.1164128040861877 -0.16857621431769398 0.11571055168938454 -0.15853595721797839 -0.013486946911887239 -0.0057042562644879346 0.04634562960811156 -0.0011712544275151429 0.0070133778891613074
leaf_weight=2.4724319204688063 2.7491082996130052 2.7196080237627021 3.8531597107648841 2.027193799614909 3.4964533746242541 1.9420527070760716 2.9718172177672386 4.8987670689821243 2.3299659341573715 2.9465956836938858 2.7419455349445343
leaf_count=20 13 12 20 11 17 11 17 25 10 13 14
internal_value=0 0.0145146 -0.016677 0.00177459 -0.0162538 0.00298405 -0.0429393 0.0448628 0.110789 0.137288 -0.00364916
internal_weight=0 32.6767 24.6805 20.8273 18.0782 16.051 7.65582 8.39522 7.99617 5.6662 5.71376
internal_count=183 163 128 108 95 84 42 42 35 25 31
shrinkage=0.2


end of trees

feature_importances:
Column_2=25
Column_0=9
Column_1=5
Column_5=5
Column_7=5
Column_3=3
Column_4=3
Column_6=2
Column_8=1

parameters:
[boosting: gbdt]
[objective: binary]
[metric: binary_logloss]
[tree_learner: serial]
[device_type: cpu]
[data: ]
[valid: ]
[num_iterations: 10000]
[learning_rate: 0.2]
[num_leaves: 63]
[num_threads: 0]
[force_col_wise: 0]
[force_row_wise: 0]
[histogram_pool_size: -1]
[max_depth: -1]
[min_data_in_leaf: 10]
[min_sum_hessian_in_leaf: 0.001]
[bagging_fraction: 1]
[pos_bagging_fraction: 1]
[neg_bagging_fraction: 1]
[bagging_freq: 0]
[bagging_seed: 21709]
[feature_fraction: 0.5]
[feature_fraction_bynode: 1]
[feature_fraction_seed: 24116]
[extra_trees: 0]
[extra_seed: 15571]
[early_stopping_round: 50]
[first_metric_only: 0]
[max_delta_step: 0]
[lambda_l1: 0]
[lambda_l2: 0]
[min_gain_to_split: 0]
[drop_rate: 0.1]
[max_drop: 50]
[skip_drop: 0.5]
[xgboost_dart_mode: 0]
[uniform_drop: 0]
[drop_seed: 15722]
[top_rate: 0.2]
[other_rate: 0.1]
[min_data_per_group: 100]
[max_cat_threshold: 32]
[cat_l2: 10]
[cat_smooth: 10]
[max_cat_to_onehot: 4]
[top_k: 20]
[monotone_constraints: ]
[monotone_constraints_method: basic]
[monotone_penalty: 0]
[feature_contri: ]
[forcedsplits_filename: ]
[refit_decay_rate: 0.9]
[cegb_tradeoff: 1]
[cegb_penalty_split: 0]
[cegb_penalty_feature_lazy: ]
[cegb_penalty_feature_coupled: ]
[path_smooth: 0]
[interaction_constraints: ]
[verbosity: -1]
[saved_feature_importance_type: 0]
[max_bin: 255]
[max_bin_by_feature: ]
[min_data_in_bin: 3]
[bin_construct_sample_cnt: 200000]
[data_random_seed: 4074]
[is_enable_sparse: 1]
[enable_bundle: 1]
[use_missing: 1]
[zero_as_missing: 0]
[feature_pre_filter: 1]
[pre_partition: 0]
[two_round: 0]
[header: 0]
[label_column: ]
[weight_column: ]
[group_column: ]
[ignore_column: ]
[categorical_feature: ]
[forcedbins_filename: ]
[objective_seed: 10917]
[num_class: 1]
[is_unbalance: 0]
[scale_pos_weight: 1]
[sigmoid: 1]
[boost_from_average: 1]
[reg_sqrt: 0]
[alpha: 0.9]
[fair_c: 1]
[poisson_max_delta_step: 0.7]
[tweedie_variance_power: 1.5]
[lambdarank_truncation_level: 20]
[lambdarank_norm: 1]
[label_gain: ]
[eval_at: ]
[multi_error_top_k: 1]
[auc_mu_weights: ]
[num_machines: 1]
[local_listen_port: 12400]
[time_out: 120]
[machine_list_filename: ]
[machines: ]
[gpu_platform_id: -1]
[gpu_device_id: -1]
[gpu_use_dp: 0]

end of parameters

pandas_categorical:null
