tree
version=v3
num_class=1
num_tree_per_iteration=1
label_index=0
max_feature_idx=8
objective=binary sigmoid:1
feature_names=Column_0 Column_1 Column_2 Column_3 Column_4 Column_5 Column_6 Column_7 Column_8
feature_infos=[0:4] [0:2] [0:10] [0:5] [0:2] [1:3] [0:1] [0:5] [0:1]
tree_sizes=1437 1360 1457 1351 1557 1470 1461 1256 1158 1553 1449 1155

Tree=0
num_leaves=13
num_cat=0
split_feature=5 1 2 7 2 2 2 1 7 0 2 7
split_gain=14.3684 7.71779 5.23301 0.842246 0.821376 0.879993 0.835306 4.71154 1.76002 6.2475 0.0530088 1.77636e-15
threshold=2.5000000000000004 1.5000000000000002 1.5000000000000002 2.5000000000000004 5.5000000000000009 2.5000000000000004 3.5000000000000004 1.5000000000000002 3.5000000000000004 1.5000000000000002 4.5000000000000009 2.5000000000000004
decision_type=2 2 2 2 2 2 2 2 2 2 2 2
left_child=2 10 11 -3 5 -4 7 -7 9 -8 -2 -1
right_child=1 3 4 -5 -6 6 8 -9 -10 -11 -12 -13
leaf_value=-1.1962907347947822 -0.86962406958842964 -0.66174528263893251 -1.0455215046995425 -0.50452603200485879 -1.0415538933812469 -0.66859842946144332 -0.80429073654715899 -1.0455215046995427 -0.81936765955668311 -1.1962907347947827 -0.90805544196564769 -1.1962907347947827
leaf_weight=2.0408163964748409 2.4489796757698041 2.2448980361223221 2.653061315417296 3.469387874007225 3.8775511533021918 2.6530613154172888 3.0612245947122556 2.6530613154172897 2.6530613154172897 3.469387874007225 3.469387874007225 2.4489796757698059
leaf_count=10 12 11 13 17 19 13 15 13 13 17 17 12
internal_value=-0.916291 -0.73208 -1.00029 -0.566291 -0.958427 -0.939624 -0.920234 -0.85706 -0.956735 -1.01254 -0.892153 -1.19629
internal_weight=0 11.6327 25.5102 5.71429 21.0204 17.1429 14.4898 5.30612 9.18367 6.53061 5.91837 4.4898
internal_count=182 57 125 28 103 84 71 26 45 32 29 22
shrinkage=1


Tree=1
num_leaves=12
num_cat=0
split_feature=3 2 0 0 8 2 2 2 0 0 2
split_gain=13.1946 4.50258 3.53588 0.909754 1.56943 0.861153 0.723718 0.0624661 0.191879 0.594789 0.0454682
threshold=1.0000000180025095e-35 1.5000000000000002 1.0000000180025095e-35 1.5000000000000002 1.0000000180025095e-35 2.5000000000000004 5.5000000000000009 3.5000000000000004 1.5000000000000002 2.5000000000000004 4.5000000000000009
decision_type=2 2 2 2 2 2 2 2 2 2 2
left_child=1 -1 -3 -2 -5 -4 7 -7 10 -10 -9
right_child=3 2 5 4 -6 6 -8 8 9 -11 -12
leaf_value=-0.26503912654966705 0.26447516370811425 0.21840329081337037 -0.18315848857562583 0.044973089190512308 0.25615755949052249 -0.011270933129575091 -0.12553618371038541 0.0072423505237476371 -0.12857793147862415 0.012888997177218121 -0.031663426116075054
leaf_weight=4.1922456622123745 4.2831797301769239 1.9447901546955133 2.1591550707817104 3.0533864349126816 2.6114719361066818 5.0442846566438702 3.9700406193733206 2.6237983554601652 2.7269373387098312 2.1076399385929108 2.2166232913732529
leaf_count=23 20 9 11 15 13 24 20 12 14 11 10
internal_value=0 -0.0745477 -0.0395116 0.194919 0.142328 -0.0635704 -0.0497546 -0.029315 -0.0387227 -0.0669052 -0.0105742
internal_weight=0 26.9855 22.7933 9.94804 5.66486 20.8485 18.6893 14.7193 9.675 4.83458 4.84042
internal_count=182 134 111 48 28 102 91 71 47 25 22
shrinkage=0.2


Tree=2
num_leaves=13
num_cat=0
split_feature=3 5 0 7 7 0 7 5 3 8 5 7
split_gain=8.10918 3.81837 2.37062 1.31041 1.52032 0.409029 0.620294 0.420144 0.187167 0.180276 0.163509 0.243815
threshold=1.0000000180025095e-35 2.5000000000000004 1.0000000180025095e-35 4.5000000000000009 3.5000000000000004 1.5000000000000002 2.5000000000000004 2.5000000000000004 3.5000000000000004 1.0000000180025095e-35 1.5000000000000002 2.5000000000000004
decision_type=2 2 2 2 2 2 2 2 2 2 2 2
left_child=2 8 -1 4 5 6 -4 10 -2 -3 -7 -12
right_child=1 9 3 -5 -6 7 -8 -9 -10 -11 11 -13
leaf_value=0.13393054682521596 0.00073500121845907829 0.22737622911526142 0.01600934307810321 0.040530269630915126 -0.27162348495593086 -0.095004764214190213 -0.10557325765098419 -0.045429338871780307 0.076062805940656508 0.30337710894557057 -0.10858221772933395 -0.19601793725832439
leaf_weight=2.2330011725425747 3.406286269426344 2.2289528399705887 3.4553690552711585 3.0593434125185004 1.8715129643678654 3.5196155160665494 3.263982817530632 3.4309186041355124 2.1535958796739578 2.837902769446373 2.6276548355817795 2.4793839305639267
leaf_count=10 16 10 18 15 10 20 16 17 10 12 15 13
internal_value=0 0.14436 -0.0630713 -0.0816267 -0.0997258 -0.0825927 -0.0430504 -0.104628 0.0299129 0.269944 -0.128173 -0.151031
internal_weight=0 10.6267 25.9408 23.7078 20.6484 18.7769 6.71935 12.0576 5.55988 5.06686 8.62665 5.10704
internal_count=182 48 134 124 109 99 34 65 26 22 48 28
shrinkage=0.2


Tree=3
num_leaves=12
num_cat=0
split_feature=4 5 2 5 2 6 6 1 2 1 1
split_gain=6.00171 5.04844 4.12811 0.747661 0.335015 2.53426 2.48867 1.89511 1.61882 1.19226 0.954961
threshold=1.5000000000000002 2.5000000000000004 2.5000000000000004 1.5000000000000002 4.5000000000000009 1.0000000180025095e-35 1.0000000180025095e-35 1.5000000000000002 5.5000000000000009 1.5000000000000002 1.0000000180025095e-35
decision_type=2 2 2 2 2 2 2 2 2 2 2
left_child=2 -2 3 -1 6 9 10 -8 -7 -6 -4
right_child=1 -3 4 -5 5 8 7 -9 -10 -11 -12
leaf_value=-0.12430820653457378 -0.020968714395898147 0.29680664170604459 0.013543473593881609 -0.2658798386102918 -0.21195545188295842 0.16716202493085841 0.039594291939279602 -0.20473341088788685 -0.065462089617837199 -0.031544022368778742 0.17322675802931062
leaf_weight=3.0202352106571224 3.7318059951066953 4.3085888624191284 2.6521084159612673 2.9492035657167435 2.9025290459394437 2.9640718251466751 2.4746586978435516 2.608206570148468 2.0067147463560104 2.958912655711174 3.4426340311765671
leaf_count=19 18 18 13 18 15 14 12 13 11 14 17
internal_value=0 0.149317 -0.0467392 -0.194252 -0.00673135 -0.0317964 0.0175593 -0.0857793 0.0732513 -0.120882 0.103741
internal_weight=0 8.04039 27.9793 5.96944 22.0098 10.8322 11.1776 5.08287 4.97079 5.86144 6.09474
internal_count=182 36 146 37 109 54 55 25 25 29 30
shrinkage=0.2


Tree=4
num_leaves=14
num_cat=0
split_feature=4 2 1 0 8 0 2 1 2 2 2 1 2
split_gain=3.87846 3.57933 2.72747 2.10622 1.86726 0.781846 1.27963 0.499587 1.26082 0.506915 0.35518 0.00098345 2.23334e-09
threshold=1.5000000000000002 1.5000000000000002 1.5000000000000002 1.0000000180025095e-35 1.0000000180025095e-35 2.5000000000000004 5.5000000000000009 1.5000000000000002 3.5000000000000004 3.5000000000000004 4.5000000000000009 1.5000000000000002 4.5000000000000009
decision_type=2 2 2 2 2 2 2 2 2 2 2 2 2
left_child=1 11 -2 -3 -4 6 7 9 -9 -5 -10 -1 -7
right_child=2 3 4 5 -6 12 -8 8 10 -11 -12 -13 -14
leaf_value=-0.23519082849382969 -0.020872281747562713 0.14901615053202064 0.34767448587453964 0.074442267344079743 0.097121911116056725 0.031791574350407123 -0.1843418691847549 -0.18977815684972782 0.031591509715300781 -0.049978770806073936 -0.068572396351966325 -0.24228306856531456 0.031783134810723909
leaf_weight=1.3918031007051495 3.33556020259857 2.8225883096456554 2.2437215894460678 2.7938027977943438 2.5329156965017319 3.222716510295867 2.6357143670320502 2.2596023231744766 3.1564782112836838 2.4658743292093277 2.5682616978883743 1.7851839512586594 2.0533663332462311
leaf_count=11 15 12 10 14 11 17 15 12 16 12 12 13 12
internal_value=0 -0.0396932 0.117905 -0.013263 0.214814 -0.0349141 -0.0570761 -0.0317488 -0.063276 0.0161104 -0.0133445 -0.239176 0.0317883
internal_weight=0 27.1554 8.1122 23.9784 4.77664 21.1558 15.8797 13.244 7.98434 5.25968 5.72474 3.17699 5.27608
internal_count=182 146 36 122 21 110 81 66 40 26 28 24 29
shrinkage=0.2


Tree=5
num_leaves=13
num_cat=0
split_feature=5 4 3 6 7 7 5 6 6 5 7 6
split_gain=3.10239 2.81628 1.07033 1.33156 0.852289 0.376923 0.6241 0.323274 0.0398272 0.927266 0.00524346 7.33897e-06
threshold=2.5000000000000004 1.5000000000000002 2.5000000000000004 1.0000000180025095e-35 2.5000000000000004 4.5000000000000009 1.5000000000000002 1.0000000180025095e-35 1.0000000180025095e-35 1.5000000000000002 2.5000000000000004 1.0000000180025095e-35
decision_type=2 2 2 2 2 2 2 2 2 2 2 2
left_child=2 7 4 -4 8 6 -6 10 9 -1 -2 -8
right_child=1 -3 3 -5 5 -7 11 -9 -10 -11 -12 -13
leaf_value=0.076105579378722407 -0.014191116172861269 0.20596314180258857 0.14837790725321803 -0.053376306310629486 -0.063134861982581794 -0.029066560821515836 -0.18210961284136656 0.0647963578909376 -0.0070306580947203075 -0.11100132102632482 -0.026491592367477654 -0.18159579675085483
leaf_weight=1.7599091902375281 2.6687472462654096 4.3489245474338523 2.1991303861141196 3.2309850305318832 2.940799765288828 1.6552285850048063 2.1326240301132202 2.6067070215940475 3.1232915744185448 2.6619418263435364 2.8845393061637878 2.3232734575867653
leaf_count=11 13 18 10 15 19 9 12 12 19 16 14 14
internal_value=0 0.0759726 -0.0487444 0.0283317 -0.0739616 -0.11534 -0.134646 0.00669321 -0.0243201 -0.0365322 -0.0205803 -0.181842
internal_weight=0 12.5089 22.0272 5.43012 16.5971 9.05193 7.3967 8.15999 7.54514 4.42185 5.55329 4.4559
internal_count=182 57 125 25 100 54 45 39 46 27 27 26
shrinkage=0.2


Tree=6
num_leaves=13
num_cat=0
split_feature=2 0 2 7 8 0 6 7 0 6 7 7
split_gain=2.36889 1.56988 1.25474 2.11583 1.89025 1.13957 1.19277 0.7442 0.457608 0.341295 0.56506 0.217004
threshold=1.5000000000000002 1.0000000180025095e-35 5.5000000000000009 4.5000000000000009 1.0000000180025095e-35 1.5000000000000002 1.0000000180025095e-35 2.5000000000000004 1.5000000000000002 1.0000000180025095e-35 2.5000000000000004 2.5000000000000004
decision_type=2 2 2 2 2 2 2 2 2 2 2 2
left_child=11 -2 3 4 5 6 -3 -6 -4 10 -7 -1
right_child=1 2 8 -5 7 9 -8 -9 -10 -11 -12 -13
leaf_value=-0.23333281914308124 0.13359754792769096 -0.070284540247552638 -0.17282901042579216 0.16561597117448953 0.15976171782698056 -0.11926884943789505 0.12443200784026312 0.0078929428162676663 -0.048445785758806627 -0.13450907523434541 0.023655195815945527 -0.12285607186062651
leaf_weight=1.4175981208682054 3.7781813144683865 2.5141456201672652 1.8389051258563984 3.256628453731536 2.9388889223337165 2.4429415464401227 2.5193672776222229 2.3013276159763336 3.3176438212394714 4.0888223052024841 2.0225598514080048 1.4271928220987318
leaf_count=12 16 13 10 15 14 13 13 11 19 22 11 13
internal_value=0 0.0127832 -0.00397296 0.0167679 -0.00897788 -0.0483316 0.0271747 0.093066 -0.0928028 -0.0927609 -0.0545343 -0.177908
internal_weight=0 31.0194 27.2412 22.0847 18.8281 13.5878 5.03351 5.24022 5.15655 8.55432 4.4655 2.84479
internal_count=182 157 141 112 97 72 26 25 29 46 24 25
shrinkage=0.2


Tree=7
num_leaves=11
num_cat=0
split_feature=8 6 0 4 7 6 7 6 7 0
split_gain=1.42595 4.32013 0.948092 0.758146 0.684398 0.745335 0.25891 0.227494 0.315753 0.111583
threshold=1.0000000180025095e-35 1.0000000180025095e-35 1.5000000000000002 1.5000000000000002 2.5000000000000004 1.0000000180025095e-35 4.5000000000000009 1.0000000180025095e-35 2.5000000000000004 2.5000000000000004
decision_type=2 2 2 2 2 2 2 2 2 2
left_child=2 3 7 -2 5 -4 9 8 -1 -6
right_child=1 -3 4 -5 6 -7 -8 -9 -10 -11
leaf_value=0.03512933195458233 0.1092520271380758 -0.10091958688914651 -0.1657164710805282 0.26073070109318591 -0.068744476712189723 -0.0032414258745185813 0.031388778957585878 0.047334791035498432 -0.064667333128106463 -0.014139401844828873
leaf_weight=2.6692846938967723 2.8132773488759977 3.7098400518298149 3.8339293450117102 2.492620587348938 3.8998175561428052 1.6009830757975576 2.235742598772049 5.1558942943811417 2.4159910008311272 2.4293956607580185
leaf_count=14 14 18 24 11 23 11 11 29 12 15
internal_value=0 0.0646496 -0.0285141 0.180414 -0.0623433 -0.117856 -0.0271179 0.0177311 -0.0122836 -0.0477849
internal_weight=0 9.01574 24.241 5.3059 13.9999 5.43491 8.56496 10.2412 5.08528 6.32921
internal_count=182 43 139 25 84 35 49 55 26 38
shrinkage=0.2


Tree=8
num_leaves=10
num_cat=0
split_feature=3 0 0 6 6 0 0 3 0
split_gain=1.4739 0.453765 0.517664 2.89562 1.78433 0.587116 0.25939 0.621165 0.0425892
threshold=1.0000000180025095e-35 1.0000000180025095e-35 2.5000000000000004 1.0000000180025095e-35 1.0000000180025095e-35 1.5000000000000002 1.5000000000000002 3.5000000000000004 1.5000000000000002
decision_type=2 2 2 2 2 2 2 2 2
left_child=1 -1 4 -4 8 -6 -2 -8 -3
right_child=6 2 3 -5 5 -7 7 -9 -10
leaf_value=0.051775879231678638 0.096468193876635522 0.021668423689654815 -0.15259716634605766 0.17402615848868697 -0.081242767334919128 -0.19405418321172557 -0.020797798141568756 0.10796111050316037 -0.0075392859429984612
leaf_weight=2.3154463469982174 4.3219414502382261 4.0279889926314372 2.0641159787774077 2.2904157340526581 4.4321122244000435 3.1617814972996712 3.6147858202457428 2.5601192861795425 3.960328996181488
leaf_count=10 20 23 15 14 25 21 17 11 26
internal_value=0 -0.0320289 -0.041762 0.0192016 -0.0587986 -0.128213 0.0588885 0.0325857 0.00718826
internal_weight=0 22.2522 19.9367 4.35453 15.5822 7.59389 10.4968 6.17491 7.98832
internal_count=182 134 124 29 95 46 48 28 49
shrinkage=0.2


Tree=9
num_leaves=14
num_cat=0
split_feature=2 7 3 4 7 2 2 6 7 7 2 7 3
split_gain=1.65985 0.508362 0.845122 1.2215 1.46567 0.420261 0.770652 0.620673 0.360274 0.290049 0.184595 0.17689 0.0860896
threshold=1.5000000000000002 1.5000000000000002 2.5000000000000004 1.5000000000000002 3.5000000000000004 5.5000000000000009 4.5000000000000009 1.0000000180025095e-35 2.5000000000000004 2.5000000000000004 4.5000000000000009 2.5000000000000004 3.5000000000000004
decision_type=2 2 2 2 2 2 2 2 2 2 2 2 2
left_child=11 -2 3 4 5 6 7 9 -4 -3 -6 -1 -10
right_child=1 2 8 -5 10 -7 -8 -9 12 -11 -12 -13 -14
leaf_value=-0.22457221001649963 -0.090743497800712558 0.016736912756957739 0.017984802179878974 0.1388999290953003 -0.090837294156767792 0.075499806285885415 -0.096969495996708427 -0.041087008688880274 0.12935691200234828 0.11937231236043333 -0.17865203989528666 -0.113919731054266 0.077534291662977803
leaf_weight=1.087334115058183 1.8852994889020944 2.0550976321101277 3.3051790297031385 2.0769454836845389 2.0163817033171649 2.8559760004281989 3.0013035461306572 3.4849646985530853 2.4875187426805496 2.3732782602310181 1.8233810514211652 1.233391363173723 2.6463911086320877
leaf_count=12 10 12 15 10 11 18 16 20 11 12 10 13 12
internal_value=0 0.00979637 0.0165355 -0.00616245 -0.0232709 0.00719675 -0.0106757 0.022053 0.069487 0.0717418 -0.132538 -0.165764 0.102644
internal_weight=0 30.0117 28.1264 19.6873 17.6104 13.7706 10.9146 7.91334 8.43909 4.42838 3.83976 2.32073 5.13391
internal_count=182 157 147 109 99 78 60 44 38 24 21 25 23
shrinkage=0.2


Tree=10
num_leaves=13
num_cat=0
split_feature=5 2 2 2 0 0 7 2 0 5 7 7
split_gain=1.37184 1.1917 1.15983 0.912343 0.879727 0.748688 0.735833 1.11287 0.950187 0.583046 0.371049 0.350543
threshold=2.5000000000000004 2.5000000000000004 3.5000000000000004 3.5000000000000004 1.5000000000000002 1.5000000000000002 4.5000000000000009 4.5000000000000009 1.5000000000000002 1.5000000000000002 2.5000000000000004 2.5000000000000004
decision_type=2 2 2 2 2 2 2 2 2 2 2 2
left_child=1 9 5 -2 -5 -3 7 8 -4 -1 -9 -6
right_child=3 2 6 4 11 -7 -8 10 -10 -11 -12 -13
leaf_value=-0.068950372395208265 -0.045872353793165961 -0.017802267886606122 -0.057995588648438547 0.15426907022308323 -0.039453522156039721 0.13727021112366916 0.058601334856192989 0.054361121617166976 -0.26624996289646735 -0.23160697621571052 -0.052645269943592046 0.070255321239750354
leaf_weight=2.0603951439261463 2.8803400844335583 2.2403793931007412 1.7900708764791473 3.926582142710684 1.9200541526079176 2.8039937913417816 2.1640737056732169 1.9264605492353437 1.7168840765953062 1.5406115278601649 3.9619620144367218 2.9623915553092957
leaf_count=19 14 12 9 18 10 14 11 12 11 16 21 15
internal_value=0 -0.034241 -0.0116209 0.0518414 0.0837914 0.0683972 -0.0465397 -0.0707572 -0.15995 -0.138539 -0.017637 0.0271116
internal_weight=0 20.2048 16.6038 11.6894 8.80903 5.04437 11.5595 9.39538 3.50695 3.60101 5.88842 4.88245
internal_count=182 125 90 57 43 26 64 53 20 35 33 25
shrinkage=0.2


Tree=11
num_leaves=10
num_cat=0
split_feature=5 4 7 3 8 7 5 5 7
split_gain=0.910516 1.13886 0.350642 0.728339 0.385125 0.237102 0.578202 0.0921748 0.0201037
threshold=2.5000000000000004 1.5000000000000002 2.5000000000000004 2.5000000000000004 1.0000000180025095e-35 4.5000000000000009 1.5000000000000002 1.5000000000000002 2.5000000000000004
decision_type=2 2 2 2 2 2 2 2 2
left_child=2 8 4 5 7 6 -4 -1 -2
right_child=1 -3 3 -5 -6 -7 -8 -9 -10
leaf_value=0.0057902588677292421 -0.017102309914637813 0.13141986264422098 -0.028797148961632921 0.026095425439073894 0.064775490730139038 -0.015592198085437329 -0.15297227363322116 -0.045694948828779634 0.0048359251473494005
leaf_weight=2.199894670397045 2.414440833032133 3.8061074167490005 2.5049711763858777 3.3184548243880272 2.6541287153959274 1.5427664667367933 3.7384158708155155 3.7825322113931179 5.4250433593988419
leaf_count=16 13 18 19 15 13 9 26 27 26
internal_value=0 0.0416587 -0.028856 -0.0523628 0.00136835 -0.0858017 -0.103151 -0.0267625 -0.00192071
internal_weight=0 11.6456 19.7412 11.1046 8.63656 7.78615 6.24339 5.98243 7.83948
internal_count=182 57 125 69 56 54 45 43 39
shrinkage=0.2


end of trees

feature_importances:
Column_2=29
Column_7=28
Column_0=22
Column_5=14
Column_6=14
Column_3=9
Column_1=8
Column_4=6
Column_8=6

parameters:
[boosting: gbdt]
[objective: binary]
[metric: binary_logloss]
[tree_learner: serial]
[device_type: cpu]
[data: ]
[valid: ]
[num_iterations: 10000]
[learning_rate: 0.2]
[num_leaves: 63]
[num_threads: 0]
[force_col_wise: 0]
[force_row_wise: 0]
[histogram_pool_size: -1]
[max_depth: -1]
[min_data_in_leaf: 10]
[min_sum_hessian_in_leaf: 0.001]
[bagging_fraction: 1]
[pos_bagging_fraction: 1]
[neg_bagging_fraction: 1]
[bagging_freq: 0]
[bagging_seed: 21709]
[feature_fraction: 0.5]
[feature_fraction_bynode: 1]
[feature_fraction_seed: 24116]
[extra_trees: 0]
[extra_seed: 15571]
[early_stopping_round: 50]
[first_metric_only: 0]
[max_delta_step: 0]
[lambda_l1: 0]
[lambda_l2: 0]
[min_gain_to_split: 0]
[drop_rate: 0.1]
[max_drop: 50]
[skip_drop: 0.5]
[xgboost_dart_mode: 0]
[uniform_drop: 0]
[drop_seed: 15722]
[top_rate: 0.2]
[other_rate: 0.1]
[min_data_per_group: 100]
[max_cat_threshold: 32]
[cat_l2: 10]
[cat_smooth: 10]
[max_cat_to_onehot: 4]
[top_k: 20]
[monotone_constraints: ]
[monotone_constraints_method: basic]
[monotone_penalty: 0]
[feature_contri: ]
[forcedsplits_filename: ]
[refit_decay_rate: 0.9]
[cegb_tradeoff: 1]
[cegb_penalty_split: 0]
[cegb_penalty_feature_lazy: ]
[cegb_penalty_feature_coupled: ]
[path_smooth: 0]
[interaction_constraints: ]
[verbosity: -1]
[saved_feature_importance_type: 0]
[max_bin: 255]
[max_bin_by_feature: ]
[min_data_in_bin: 3]
[bin_construct_sample_cnt: 200000]
[data_random_seed: 4074]
[is_enable_sparse: 1]
[enable_bundle: 1]
[use_missing: 1]
[zero_as_missing: 0]
[feature_pre_filter: 1]
[pre_partition: 0]
[two_round: 0]
[header: 0]
[label_column: ]
[weight_column: ]
[group_column: ]
[ignore_column: ]
[categorical_feature: ]
[forcedbins_filename: ]
[objective_seed: 10917]
[num_class: 1]
[is_unbalance: 0]
[scale_pos_weight: 1]
[sigmoid: 1]
[boost_from_average: 1]
[reg_sqrt: 0]
[alpha: 0.9]
[fair_c: 1]
[poisson_max_delta_step: 0.7]
[tweedie_variance_power: 1.5]
[lambdarank_truncation_level: 20]
[lambdarank_norm: 1]
[label_gain: ]
[eval_at: ]
[multi_error_top_k: 1]
[auc_mu_weights: ]
[num_machines: 1]
[local_listen_port: 12400]
[time_out: 120]
[machine_list_filename: ]
[machines: ]
[gpu_platform_id: -1]
[gpu_device_id: -1]
[gpu_use_dp: 0]

end of parameters

pandas_categorical:null
