tree
version=v3
num_class=1
num_tree_per_iteration=1
label_index=0
max_feature_idx=8
objective=binary sigmoid:1
feature_names=Column_0 Column_1 Column_2 Column_3 Column_4 Column_5 Column_6 Column_7 Column_8
feature_infos=[0:4] [0:2] [0:10] none none [1:3] [0:1] [0:5] none
tree_sizes=438 436 436 438 333 331 429 431 334 432 441 335 336 432 432 435 432 436 434 434

Tree=0
num_leaves=3
num_cat=0
split_feature=5 1
split_gain=14.3684 0.50963
threshold=2.5000000000000004 1.0000000180025095e-35
decision_type=2 2
left_child=1 -1
right_child=-2 -3
leaf_value=-1.0301890406220608 -0.73208021055417583 -0.97356346306317831
leaf_weight=12.040816739201546 11.632653459906576 13.469388216733932
leaf_count=59 57 66
internal_value=-0.916291 -1.00029
internal_weight=0 25.5102
internal_count=182 125
shrinkage=1


Tree=1
num_leaves=3
num_cat=0
split_feature=5 1
split_gain=8.78681 0.372814
threshold=2.5000000000000004 1.0000000180025095e-35
decision_type=2 2
left_child=1 -1
right_child=-2 -3
leaf_value=-0.096522304236579898 0.13584779372736971 -0.047133455268901975
leaf_weight=11.437356352806091 12.499152213335035 13.13407775759697
leaf_count=59 57 66
internal_value=0 -0.0701227
internal_weight=0 24.5714
internal_count=182 125
shrinkage=0.2


Tree=2
num_leaves=3
num_cat=0
split_feature=5 6
split_gain=5.51062 0.320505
threshold=2.5000000000000004 1.0000000180025095e-35
decision_type=2 2
left_child=1 -1
right_child=-2 -3
leaf_value=-0.033350372284624029 0.10345861092609808 -0.07992641832742256
leaf_weight=11.037449359893799 13.054979994893072 12.720895737409592
leaf_count=58 57 67
internal_value=0 -0.0582885
internal_weight=0 23.7583
internal_count=182 125
shrinkage=0.2


Tree=3
num_leaves=3
num_cat=0
split_feature=5 1
split_gain=3.49961 0.275378
threshold=2.5000000000000004 1.0000000180025095e-35
decision_type=2 2
left_child=1 -1
right_child=-2 -3
leaf_value=-0.071967607066813724 0.080235353671554488 -0.028117356610805395
leaf_weight=10.573763981461525 13.418775424361227 12.501482486724854
leaf_count=59 57 66
internal_value=0 -0.0482108
internal_weight=0 23.0752
internal_count=182 125
shrinkage=0.2


Tree=4
num_leaves=2
num_cat=0
split_feature=1
split_gain=2.92611
threshold=1.0000000180025095e-35
decision_type=2
left_child=-1
right_child=-2
leaf_value=-0.061749827379495609 0.052295242761308008
leaf_weight=16.87772561609745 19.277938276529312
leaf_count=87 95
internal_value=0
internal_weight=0
internal_count=182
shrinkage=0.2


Tree=5
num_leaves=2
num_cat=0
split_feature=0
split_gain=2.11006
threshold=1.5000000000000002
decision_type=2
left_child=-1
right_child=-2
leaf_value=0.053033856641886291 -0.044238362350776966
leaf_weight=16.092108339071274 20.015043571591377
leaf_count=78 104
internal_value=0
internal_weight=0
internal_count=182
shrinkage=0.2


Tree=6
num_leaves=3
num_cat=0
split_feature=2 0
split_gain=1.64348 2.57407
threshold=3.5000000000000004 1.5000000000000002
decision_type=2 2
left_child=-1 -2
right_child=1 -3
leaf_value=-0.053748159773583271 0.10688747825424603 -0.030748152417300452
leaf_weight=14.20682282745838 10.214590564370157 11.616397053003309
leaf_count=75 48 59
internal_value=0 0.0336507
internal_weight=0 21.831
internal_count=182 107
shrinkage=0.2


Tree=7
num_leaves=3
num_cat=0
split_feature=5 1
split_gain=2.1856 0.519037
threshold=2.5000000000000004 1.5000000000000002
decision_type=2 2
left_child=1 -1
right_child=-2 -3
leaf_value=-0.0047904225920324828 0.062401528524266774 -0.066288113394666476
leaf_weight=9.7698985189199448 13.591873764991758 12.530135318636894
leaf_count=61 57 64
internal_value=0 -0.0393453
internal_weight=0 22.3
internal_count=182 125
shrinkage=0.2


Tree=8
num_leaves=2
num_cat=0
split_feature=1
split_gain=1.22253
threshold=1.0000000180025095e-35
decision_type=2
left_child=-1
right_child=-2
leaf_value=-0.041862533523037711 0.032629228011146379
leaf_weight=15.970345884561537 19.662647128105164
leaf_count=87 95
internal_value=0
internal_weight=0
internal_count=182
shrinkage=0.2


Tree=9
num_leaves=3
num_cat=0
split_feature=5 1
split_gain=1.43318 0.558735
threshold=2.5000000000000004 1.5000000000000002
decision_type=2 2
left_child=1 -1
right_child=-2 -3
leaf_value=0.0039538484307992611 0.050040103910331424 -0.06055660103537483
leaf_weight=9.5120509266853333 13.703328564763067 12.334042981266975
leaf_count=61 57 64
internal_value=0 -0.032468
internal_weight=0 21.8461
internal_count=182 125
shrinkage=0.2


Tree=10
num_leaves=3
num_cat=0
split_feature=5 6
split_gain=0.920328 0.236569
threshold=2.5000000000000004 1.0000000180025095e-35
decision_type=2 2
left_child=1 -1
right_child=-2 -3
leaf_value=-0.0042814203256923205 0.039675879998583713 -0.046296862584894231
leaf_weight=10.145699128508568 13.812289535999296 11.365189254283905
leaf_count=58 57 67
internal_value=0 -0.0264801
internal_weight=0 21.5109
internal_count=182 125
shrinkage=0.2


Tree=11
num_leaves=2
num_cat=0
split_feature=1
split_gain=1.05092
threshold=1.0000000180025095e-35
decision_type=2
left_child=-1
right_child=-2
leaf_value=-0.039060136293518698 0.030566907537486723
leaf_weight=15.673467412590979 19.408568009734154
leaf_count=87 95
internal_value=0
internal_weight=0
internal_count=182
shrinkage=0.2


Tree=12
num_leaves=2
num_cat=0
split_feature=1
split_gain=0.677516
threshold=1.0000000180025095e-35
decision_type=2
left_child=-1
right_child=-2
leaf_value=-0.031880622223572373 0.024177533140148345
leaf_weight=15.396396189928053 19.605162963271141
leaf_count=87 95
internal_value=0
internal_weight=0
internal_count=182
shrinkage=0.2


Tree=13
num_leaves=3
num_cat=0
split_feature=2 5
split_gain=0.779008 0.697272
threshold=3.5000000000000004 2.5000000000000004
decision_type=2 2
left_child=-1 -2
right_child=1 -3
leaf_value=-0.038387551816858545 -0.011644420039152715 0.060309453011570563
leaf_weight=13.350906908512114 11.162810161709785 10.41169561445713
leaf_count=75 64 43
internal_value=0 0.02308
internal_weight=0 21.5745
internal_count=182 107
shrinkage=0.2


Tree=14
num_leaves=3
num_cat=0
split_feature=2 0
split_gain=0.50536 1.20847
threshold=3.5000000000000004 1.5000000000000002
decision_type=2 2
left_child=-1 -2
right_child=1 -3
leaf_value=-0.031346879918213416 0.067663754068827089 -0.027083681545986567
leaf_weight=13.109226107597349 10.365399211645128 11.20622245967388
leaf_count=75 48 59
internal_value=0 0.0184435
internal_weight=0 21.5716
internal_count=182 107
shrinkage=0.2


Tree=15
num_leaves=3
num_cat=0
split_feature=2 0
split_gain=0.326087 0.761923
threshold=3.5000000000000004 1.5000000000000002
decision_type=2 2
left_child=-1 -2
right_child=1 -3
leaf_value=-0.025511702475352789 0.053199023543284485 -0.021929066510015704
leaf_weight=12.910506576299666 10.526207372546198 11.086966305971144
leaf_count=75 48 59
internal_value=0 0.0146604
internal_weight=0 21.6132
internal_count=182 107
shrinkage=0.2


Tree=16
num_leaves=3
num_cat=0
split_feature=2 0
split_gain=0.210269 0.482656
threshold=3.5000000000000004 1.5000000000000002
decision_type=2 2
left_child=-1 -2
right_child=1 -3
leaf_value=-0.020702000459973936 0.042039718786164401 -0.01771869746783614
leaf_weight=12.748017832636831 10.641483008861544 10.9892600774765
leaf_count=75 48 59
internal_value=0 0.0116801
internal_weight=0 21.6307
internal_count=182 107
shrinkage=0.2


Tree=17
num_leaves=3
num_cat=0
split_feature=2 0
split_gain=0.135465 0.306697
threshold=3.5000000000000004 1.5000000000000002
decision_type=2 2
left_child=-1 -2
right_child=1 -3
leaf_value=-0.016756953506154516 0.033335621029018901 -0.014291378299549623
leaf_weight=12.615737602114676 10.725312888622286 10.909601747989653
leaf_count=75 48 59
internal_value=0 0.00931928
internal_weight=0 21.6349
internal_count=182 107
shrinkage=0.2


Tree=18
num_leaves=3
num_cat=0
split_feature=5 1
split_gain=0.353859 1.31339
threshold=2.5000000000000004 1.5000000000000002
decision_type=2 2
left_child=1 -1
right_child=-2 -3
leaf_value=0.043862399537608565 0.024805898865016326 -0.058926261382779024
leaf_weight=8.4261698573827744 13.583169639110563 12.131074070930481
leaf_count=61 57 64
internal_value=0 -0.0167944
internal_weight=0 20.5572
internal_count=182 125
shrinkage=0.2


Tree=19
num_leaves=3
num_cat=0
split_feature=5 1
split_gain=0.228516 0.853112
threshold=2.5000000000000004 1.5000000000000002
decision_type=2 2
left_child=1 -1
right_child=-2 -3
leaf_value=0.033970686306945212 0.019788417691812183 -0.048666427205235729
leaf_weight=8.672087773680687 13.617442190647123 11.791797235608101
leaf_count=61 57 64
internal_value=0 -0.0136469
internal_weight=0 20.4639
internal_count=182 125
shrinkage=0.2


end of trees

feature_importances:
Column_1=11
Column_5=10
Column_0=6
Column_2=6
Column_6=2

parameters:
[boosting: gbdt]
[objective: binary]
[metric: binary_logloss]
[tree_learner: serial]
[device_type: cpu]
[data: ]
[valid: ]
[num_iterations: 10000]
[learning_rate: 0.2]
[num_leaves: 95]
[num_threads: 0]
[force_col_wise: 0]
[force_row_wise: 0]
[histogram_pool_size: -1]
[max_depth: -1]
[min_data_in_leaf: 50]
[min_sum_hessian_in_leaf: 0.001]
[bagging_fraction: 1]
[pos_bagging_fraction: 1]
[neg_bagging_fraction: 1]
[bagging_freq: 0]
[bagging_seed: 32458]
[feature_fraction: 0.9]
[feature_fraction_bynode: 1]
[feature_fraction_seed: 15412]
[extra_trees: 0]
[extra_seed: 19498]
[early_stopping_round: 50]
[first_metric_only: 0]
[max_delta_step: 0]
[lambda_l1: 0]
[lambda_l2: 0]
[min_gain_to_split: 0]
[drop_rate: 0.1]
[max_drop: 50]
[skip_drop: 0.5]
[xgboost_dart_mode: 0]
[uniform_drop: 0]
[drop_seed: 818]
[top_rate: 0.2]
[other_rate: 0.1]
[min_data_per_group: 100]
[max_cat_threshold: 32]
[cat_l2: 10]
[cat_smooth: 10]
[max_cat_to_onehot: 4]
[top_k: 20]
[monotone_constraints: ]
[monotone_constraints_method: basic]
[monotone_penalty: 0]
[feature_contri: ]
[forcedsplits_filename: ]
[refit_decay_rate: 0.9]
[cegb_tradeoff: 1]
[cegb_penalty_split: 0]
[cegb_penalty_feature_lazy: ]
[cegb_penalty_feature_coupled: ]
[path_smooth: 0]
[interaction_constraints: ]
[verbosity: -1]
[saved_feature_importance_type: 0]
[max_bin: 255]
[max_bin_by_feature: ]
[min_data_in_bin: 3]
[bin_construct_sample_cnt: 200000]
[data_random_seed: 4078]
[is_enable_sparse: 1]
[enable_bundle: 1]
[use_missing: 1]
[zero_as_missing: 0]
[feature_pre_filter: 1]
[pre_partition: 0]
[two_round: 0]
[header: 0]
[label_column: ]
[weight_column: ]
[group_column: ]
[ignore_column: ]
[categorical_feature: ]
[forcedbins_filename: ]
[objective_seed: 21231]
[num_class: 1]
[is_unbalance: 0]
[scale_pos_weight: 1]
[sigmoid: 1]
[boost_from_average: 1]
[reg_sqrt: 0]
[alpha: 0.9]
[fair_c: 1]
[poisson_max_delta_step: 0.7]
[tweedie_variance_power: 1.5]
[lambdarank_truncation_level: 20]
[lambdarank_norm: 1]
[label_gain: ]
[eval_at: ]
[multi_error_top_k: 1]
[auc_mu_weights: ]
[num_machines: 1]
[local_listen_port: 12400]
[time_out: 120]
[machine_list_filename: ]
[machines: ]
[gpu_platform_id: -1]
[gpu_device_id: -1]
[gpu_use_dp: 0]

end of parameters

pandas_categorical:null
