tree
version=v3
num_class=1
num_tree_per_iteration=1
label_index=0
max_feature_idx=8
objective=binary sigmoid:1
feature_names=Column_0 Column_1 Column_2 Column_3 Column_4 Column_5 Column_6 Column_7 Column_8
feature_infos=[0:4] [0:2] [0:10] [0:5] [0:2] [1:3] [0:1] [0:4] [0:1]
tree_sizes=831 835 728 830 845 743 845 743 740 846 743 851

Tree=0
num_leaves=7
num_cat=0
split_feature=5 3 2 3 2 2
split_gain=16.5579 7.21067 5.32319 1.21777 0.769163 1.70168
threshold=2.5000000000000004 1.0000000180025095e-35 1.5000000000000002 2.5000000000000004 3.5000000000000004 5.5000000000000009
decision_type=2 2 2 2 2 2
left_child=2 -2 -1 4 -4 -6
right_child=1 -3 3 -5 5 -7
leaf_value=-1.1962907347947824 -0.86962406958842964 -0.52989073777382267 -0.92901800871685747 -0.86962406958842964 -1.077502856537927 -0.91629073604648015
leaf_weight=4.4897960722446468 4.89795935153961 5.1020409911870956 6.7346941083669725 4.8979593515396109 6.7346941083669645 4.2857144325971603
leaf_count=22 24 25 33 24 33 21
internal_value=-0.916291 -0.696291 -0.997343 -0.957912 -0.982268 -1.01481
internal_weight=0 10 27.1429 22.6531 17.7551 11.0204
internal_count=182 49 133 111 87 54
shrinkage=1


Tree=1
num_leaves=7
num_cat=0
split_feature=5 4 2 3 2 2
split_gain=9.94911 4.9966 4.2627 0.807693 0.544151 1.24852
threshold=2.5000000000000004 1.5000000000000002 1.5000000000000002 2.5000000000000004 3.5000000000000004 5.5000000000000009
decision_type=2 2 2 2 2 2
left_child=2 -2 -1 4 -4 -6
right_child=1 -3 3 -5 5 -7
leaf_value=-0.26046269583776027 0.047742285571236505 0.32456535540971032 -0.010244828094904773 0.03651970422492317 -0.14014274706225341 -4.1723249912806224e-09
leaf_weight=3.9214721322059658 6.4443727731704694 4.381314754486084 6.6978383213281694 4.9946694374084464 6.2526287734508497 4.2857144325971603
leaf_count=22 30 19 33 24 33 21
internal_value=0 0.159777 -0.0682108 -0.0342981 -0.0548195 -0.0831497
internal_weight=0 10.8257 26.1523 22.2309 17.2362 10.5383
internal_count=182 49 133 111 87 54
shrinkage=0.2


Tree=2
num_leaves=6
num_cat=0
split_feature=5 4 2 1 2
split_gain=6.27182 2.83378 2.64143 2.73175 0.620681
threshold=2.5000000000000004 1.5000000000000002 2.5000000000000004 1.5000000000000002 4.5000000000000009
decision_type=2 2 2 2 2
left_child=2 -2 -1 -4 -5
right_child=1 -3 3 4 -6
leaf_value=-0.16828321852024253 0.037470061670813223 0.24134383833933837 0.074545438689373481 -0.12123194213577587 -0.026519992025816747
leaf_weight=6.4116854816675213 6.5546992719173414 4.670147493481636 7.443024307489396 6.5735147744417191 4.7804457694292068
leaf_count=37 30 19 38 34 24
internal_value=0 0.122293 -0.0574339 -0.019623 -0.0813546
internal_weight=0 11.2248 25.2087 18.797 11.354
internal_count=182 49 133 96 58
shrinkage=0.2


Tree=3
num_leaves=7
num_cat=0
split_feature=2 5 1 1 2 2
split_gain=4.68495 3.21818 3.78455 1.77888 0.562804 0.452135
threshold=2.5000000000000004 2.5000000000000004 1.5000000000000002 1.5000000000000002 1.5000000000000002 4.5000000000000009
decision_type=2 2 2 2 2 2
left_child=4 3 -3 -2 -1 -5
right_child=1 2 -4 5 -6 -7
leaf_value=-0.20274799568524926 0.05745510227828235 0.005860664967231667 0.24915297481787524 -0.10364640725784885 -0.088831562731104236 -0.021501508854200567
leaf_weight=3.7041004598140708 7.692980408668519 5.2945995479822177 4.9472249150276184 6.1950833201408386 3.2629540860652924 4.7239220887422562
leaf_count=25 38 23 21 34 17 24
internal_value=0 0.0333397 0.123381 -0.0162083 -0.149396 -0.0681078
internal_weight=0 28.8538 10.2418 18.612 6.96705 10.919
internal_count=182 140 44 96 42 58
shrinkage=0.2


Tree=4
num_leaves=7
num_cat=0
split_feature=3 2 6 2 2 2
split_gain=3.80864 3.12504 2.82871 0.733986 1.12705 0.0672639
threshold=1.0000000180025095e-35 2.5000000000000004 1.0000000180025095e-35 3.5000000000000004 5.5000000000000009 4.5000000000000009
decision_type=2 2 2 2 2 2
left_child=1 -1 -2 -3 5 -5
right_child=2 3 -4 4 -6 -7
leaf_value=-0.17827901073201879 0.19160859701019295 0.055086511531860616 -0.0083396980412536372 -0.102797030800984 0.035450857398165635 -0.06476658231612531
leaf_weight=5.6044290363788631 5.7507480382919294 5.3090092092752483 5.5727593600749969 3.7555435299873334 5.4973123818635941 3.6862309575080872
leaf_count=38 25 26 26 22 26 19
internal_value=0 -0.0476518 0.0932059 -0.00753306 -0.0332264 -0.0839589
internal_weight=0 23.8525 11.3235 18.2481 12.9391 7.44177
internal_count=182 131 51 93 67 41
shrinkage=0.2


Tree=5
num_leaves=6
num_cat=0
split_feature=0 2 4 1 6
split_gain=3.33151 2.07379 0.93508 0.534385 2.27781
threshold=1.0000000180025095e-35 2.5000000000000004 1.5000000000000002 1.5000000000000002 1.0000000180025095e-35
decision_type=2 2 2 2 2
left_child=-1 -2 3 4 -3
right_child=1 2 -4 -5 -6
leaf_value=0.15552428208214497 -0.14054135430747297 -0.08450007313848211 0.064919727903794466 -0.064659240470627891 0.10066677597955238
leaf_weight=4.6291971057653418 5.2800495103001621 5.5477110892534309 6.1793178766965857 7.8197889178991309 5.1005128771066666
leaf_count=24 38 26 27 43 24
internal_value=0 -0.0267934 -0.00242589 -0.0249594 0.00419508
internal_weight=0 29.9274 24.6473 18.468 10.6482
internal_count=182 158 120 93 50
shrinkage=0.2


Tree=6
num_leaves=7
num_cat=0
split_feature=3 2 6 2 2 2
split_gain=1.98928 1.94949 1.89233 0.467587 0.67498 0.0393647
threshold=1.0000000180025095e-35 2.5000000000000004 1.0000000180025095e-35 3.5000000000000004 5.5000000000000009 4.5000000000000009
decision_type=2 2 2 2 2 2
left_child=1 -1 -2 -3 5 -5
right_child=2 3 -4 4 -6 -7
leaf_value=-0.15202370493488199 0.14557791739983925 0.042381789344305747 -0.017243048127870499 -0.083992790522557648 0.024140011301913355 -0.054156853216929625
leaf_weight=4.6537136286497143 5.8211193531751615 5.4059747755527523 5.6038107201457024 3.4961030036210996 5.5777074545621872 3.5802411586046219
leaf_count=38 25 26 26 22 26 19
internal_value=0 -0.0365971 0.0657159 -0.00685388 -0.027888 -0.0688974
internal_weight=0 22.7137 11.4249 18.06 12.6541 7.07634
internal_count=182 131 51 93 67 41
shrinkage=0.2


Tree=7
num_leaves=6
num_cat=0
split_feature=0 2 7 0 6
split_gain=2.03496 1.04551 0.608281 1.35488 1.14309
threshold=1.0000000180025095e-35 2.5000000000000004 2.5000000000000004 1.5000000000000002 1.0000000180025095e-35
decision_type=2 2 2 2 2
left_child=-1 -2 3 -3 -5
right_child=1 2 -4 4 -6
leaf_value=0.11893164820652086 -0.11160183500224752 0.045445385797546201 0.062247907664830231 -0.11130138929238907 0.012683350556905738
leaf_weight=4.7588115632534018 4.4318402782082584 7.6654082685709062 4.3021118491888037 7.412263020873068 4.9680277854204178
leaf_count=24 38 39 22 36 23
internal_value=0 -0.0222529 -0.00598941 -0.0206342 -0.0615481
internal_weight=0 28.7797 24.3478 20.0457 12.3803
internal_count=182 158 120 98 59
shrinkage=0.2


Tree=8
num_leaves=6
num_cat=0
split_feature=5 1 1 6 7
split_gain=1.32738 1.11317 0.529853 0.314919 0.177828
threshold=2.5000000000000004 1.5000000000000002 1.5000000000000002 1.0000000180025095e-35 1.5000000000000002
decision_type=2 2 2 2 2
left_child=2 -2 4 -4 -1
right_child=1 -3 3 -5 -6
leaf_value=-0.02308930345872862 -0.0068968070311570323 0.11993646716409989 -0.023541010645448807 -0.087427000557782145 0.030666407491557458
leaf_weight=4.8125729560852051 5.7190290689468366 5.3641035258769989 5.768817275762558 6.6374935731291771 5.0388623550534248
leaf_count=30 25 24 36 39 28
internal_value=0 0.054489 -0.030223 -0.0577206 0.00440594
internal_weight=0 11.0831 22.2577 12.4063 9.85144
internal_count=182 49 133 75 58
shrinkage=0.2


Tree=9
num_leaves=7
num_cat=0
split_feature=0 4 2 2 0 6
split_gain=1.22807 0.831253 0.921679 0.244167 1.07424 0.701763
threshold=1.0000000180025095e-35 1.5000000000000002 2.5000000000000004 3.5000000000000004 1.5000000000000002 1.0000000180025095e-35
decision_type=2 2 2 2 2 2
left_child=-1 2 -2 -4 -5 -6
right_child=1 -3 3 4 5 -7
leaf_value=0.091708300854950436 -0.12711436259102746 0.045169274859368454 0.018446255172214349 0.048353800061138145 -0.13451479888176551 -0.018675500171732761
leaf_weight=4.8035945966839781 3.7185311466455522 6.4770518094301215 5.2740887552499798 4.312401369214057 4.0376475825905782 4.3408813998103142
leaf_count=24 36 29 26 24 22 21
internal_value=0 -0.017702 -0.0364821 -0.0177224 -0.0327534 -0.0744989
internal_weight=0 28.1606 21.6836 17.965 12.6909 8.37853
internal_count=182 158 129 93 67 43
shrinkage=0.2


Tree=10
num_leaves=6
num_cat=0
split_feature=3 2 5 0 7
split_gain=1.0011 0.918438 0.799488 0.699333 0.774181
threshold=1.0000000180025095e-35 2.5000000000000004 2.5000000000000004 2.5000000000000004 1.5000000000000002
decision_type=2 2 2 2 2
left_child=1 -1 -2 4 -3
right_child=2 3 -4 -5 -6
leaf_value=-0.11878329564048835 -0.0079052253340388869 0.026244637218935631 0.098978783136590601 0.064686208527979114 -0.070092087653405716
leaf_weight=3.6264365687966373 5.4754349812865239 5.7259886190295237 5.7273473739624023 4.0500609576702109 7.9965602234005928
leaf_count=38 26 31 25 21 41
internal_value=0 -0.0270571 0.0467385 -0.0083407 -0.0298938
internal_weight=0 21.399 11.2028 17.7726 13.7225
internal_count=182 131 51 93 72
shrinkage=0.2


Tree=11
num_leaves=7
num_cat=0
split_feature=2 4 3 1 6 6
split_gain=0.911525 1.54748 1.11827 0.920103 1.95317 1.23413
threshold=6.5000000000000009 1.5000000000000002 2.5000000000000004 1.0000000180025095e-35 1.0000000180025095e-35 1.0000000180025095e-35
decision_type=2 2 2 2 2 2
left_child=1 2 3 5 -5 -1
right_child=-2 -3 -4 4 -6 -7
leaf_value=-0.16478698843601988 -0.081700228170390965 0.09851432485062972 0.081396145470965464 0.082225276544746345 -0.10354748445574485 -0.0030131487644747164
leaf_weight=3.9791794642806133 4.8239267468452445 6.416789859533309 3.9953784942626944 5.4971976205706596 3.8487316220998764 3.5863291621208191
leaf_count=27 22 30 19 36 26 22
internal_value=0 0.0126013 -0.0137674 -0.0362501 0.0057225 -0.0881002
internal_weight=0 27.3236 20.9068 16.9114 9.34593 7.56551
internal_count=182 160 130 111 62 49
shrinkage=0.2


end of trees

feature_importances:
Column_2=25
Column_6=8
Column_1=7
Column_3=7
Column_0=6
Column_5=6
Column_4=5
Column_7=3

parameters:
[boosting: gbdt]
[objective: binary]
[metric: binary_logloss]
[tree_learner: serial]
[device_type: cpu]
[data: ]
[valid: ]
[num_iterations: 10000]
[learning_rate: 0.2]
[num_leaves: 95]
[num_threads: 0]
[force_col_wise: 0]
[force_row_wise: 0]
[histogram_pool_size: -1]
[max_depth: -1]
[min_data_in_leaf: 20]
[min_sum_hessian_in_leaf: 0.001]
[bagging_fraction: 1]
[pos_bagging_fraction: 1]
[neg_bagging_fraction: 1]
[bagging_freq: 0]
[bagging_seed: 32458]
[feature_fraction: 0.9]
[feature_fraction_bynode: 1]
[feature_fraction_seed: 15412]
[extra_trees: 0]
[extra_seed: 19498]
[early_stopping_round: 50]
[first_metric_only: 0]
[max_delta_step: 0]
[lambda_l1: 0]
[lambda_l2: 0]
[min_gain_to_split: 0]
[drop_rate: 0.1]
[max_drop: 50]
[skip_drop: 0.5]
[xgboost_dart_mode: 0]
[uniform_drop: 0]
[drop_seed: 818]
[top_rate: 0.2]
[other_rate: 0.1]
[min_data_per_group: 100]
[max_cat_threshold: 32]
[cat_l2: 10]
[cat_smooth: 10]
[max_cat_to_onehot: 4]
[top_k: 20]
[monotone_constraints: ]
[monotone_constraints_method: basic]
[monotone_penalty: 0]
[feature_contri: ]
[forcedsplits_filename: ]
[refit_decay_rate: 0.9]
[cegb_tradeoff: 1]
[cegb_penalty_split: 0]
[cegb_penalty_feature_lazy: ]
[cegb_penalty_feature_coupled: ]
[path_smooth: 0]
[interaction_constraints: ]
[verbosity: -1]
[saved_feature_importance_type: 0]
[max_bin: 255]
[max_bin_by_feature: ]
[min_data_in_bin: 3]
[bin_construct_sample_cnt: 200000]
[data_random_seed: 4078]
[is_enable_sparse: 1]
[enable_bundle: 1]
[use_missing: 1]
[zero_as_missing: 0]
[feature_pre_filter: 1]
[pre_partition: 0]
[two_round: 0]
[header: 0]
[label_column: ]
[weight_column: ]
[group_column: ]
[ignore_column: ]
[categorical_feature: ]
[forcedbins_filename: ]
[objective_seed: 21231]
[num_class: 1]
[is_unbalance: 0]
[scale_pos_weight: 1]
[sigmoid: 1]
[boost_from_average: 1]
[reg_sqrt: 0]
[alpha: 0.9]
[fair_c: 1]
[poisson_max_delta_step: 0.7]
[tweedie_variance_power: 1.5]
[lambdarank_truncation_level: 20]
[lambdarank_norm: 1]
[label_gain: ]
[eval_at: ]
[multi_error_top_k: 1]
[auc_mu_weights: ]
[num_machines: 1]
[local_listen_port: 12400]
[time_out: 120]
[machine_list_filename: ]
[machines: ]
[gpu_platform_id: -1]
[gpu_device_id: -1]
[gpu_use_dp: 0]

end of parameters

pandas_categorical:null
