tree
version=v3
num_class=1
num_tree_per_iteration=1
label_index=0
max_feature_idx=8
objective=binary sigmoid:1
feature_names=Column_0 Column_1 Column_2 Column_3 Column_4 Column_5 Column_6 Column_7 Column_8
feature_infos=[0:4] [0:2] [0:10] [0:5] [0:2] [1:3] [0:1] [0:5] [0:1]
tree_sizes=1453 1575 1356 1352 1662 1566 1573 1570 1577 1567

Tree=0
num_leaves=13
num_cat=0
split_feature=4 5 2 5 6 8 2 2 2 6 7 8
split_gain=16.9947 11.0982 5.21318 2.15032 1.69959 1.65238 0.944824 0.675496 0.504368 0.51839 0.420917 0.41713
threshold=1.5000000000000002 2.5000000000000004 1.5000000000000002 2.5000000000000004 1.0000000180025095e-35 1.0000000180025095e-35 5.5000000000000009 4.5000000000000009 4.5000000000000009 1.0000000180025095e-35 2.5000000000000004 1.0000000180025095e-35
decision_type=2 2 2 2 2 2 2 2 2 2 2 2
left_child=2 11 -1 5 7 6 8 -5 9 -4 -11 -2
right_child=1 -3 3 4 -6 -7 -8 -9 -10 10 -12 -13
leaf_value=-1.0636482660852593 -0.92957069788120938 -0.65878658954753999 -0.95191695924855102 -0.884878175146526 -0.8178393910445011 -0.89977568272475383 -0.92318605177625457 -0.95830160535350584 -1.0258315160789888 -0.96532471606895598 -1.0258315160789888 -0.86700116605265276
leaf_weight=4.0682014822959927 2.2375108152627936 3.4579712599515915 4.4750216305255943 2.2375108152627936 2.034100741147995 3.6613813340663901 2.8477410376071921 2.847741037607193 2.6443309634923926 2.034100741147995 2.6443309634923935 2.034100741147995
leaf_count=20 11 17 22 11 10 18 14 14 13 10 13 10
internal_value=-0.923954 -0.791965 -0.958544 -0.941727 -0.895094 -0.959862 -0.974884 -0.925995 -0.987363 -0.97625 -0.999524 -0.899776
internal_weight=0 7.72958 29.4945 25.4263 7.11935 18.3069 14.6455 5.08525 11.7978 9.15345 4.67843 4.27161
internal_count=183 38 145 125 35 90 72 25 58 45 23 21
shrinkage=1


Tree=1
num_leaves=14
num_cat=0
split_feature=5 3 2 1 3 6 2 1 0 5 0 2 2
split_gain=13.0814 4.69722 4.09627 2.59869 2.55245 3.80228 1.01765 1.21642 0.826092 0.096953 0.0217253 0.00889463 0.00587657
threshold=2.5000000000000004 1.0000000180025095e-35 1.5000000000000002 1.5000000000000002 2.5000000000000004 1.0000000180025095e-35 5.5000000000000009 1.0000000180025095e-35 1.5000000000000002 1.5000000000000002 1.5000000000000002 3.5000000000000004 3.5000000000000004
decision_type=2 2 2 2 2 2 2 2 2 2 2 2 2
left_child=2 3 -1 -2 6 -6 7 12 -3 -9 -8 -11 -4
right_child=1 8 4 -5 5 -7 10 9 -10 11 -12 -13 -14
leaf_value=-0.13451942056273178 -0.013907845010648848 0.21485640508799944 -0.099465904415608916 0.11316855197099188 0.12261524301858402 -0.041022775041118655 -0.0070235630653744871 -0.019196786082154256 0.12792308092671484 -0.037145000821160859 0.0072262775653799405 -0.046385963757483148 -0.092432116018265315
leaf_weight=3.8152542710304287 3.9245525300502759 2.1983291506767273 2.5924328863620811 2.7277659177780151 2.6615461111068717 3.0439199656248093 2.2512782365083686 3.3759197890758514 2.174165278673172 1.9881259202957151 2.0388591587543488 2.1877431273460388 2.1922568827867508
leaf_count=20 19 10 13 13 13 15 11 17 10 10 10 11 11
internal_value=0 0.0911187 -0.0387595 0.0381995 -0.0223997 0.0353128 -0.0422039 -0.0567933 0.17163 -0.0317986 -0.000251421 -0.0419864 -0.0962432
internal_weight=0 11.0248 26.1473 6.65232 22.3321 5.70547 16.6266 12.3365 4.37249 7.55179 4.29014 4.17587 4.78469
internal_count=183 52 131 32 111 28 83 62 20 38 21 21 24
shrinkage=0.1


Tree=2
num_leaves=12
num_cat=0
split_feature=4 5 5 0 8 8 0 7 5 5 7
split_gain=10.887 6.12981 2.40477 2.18365 1.56948 0.315747 0.176971 2.40046 1.5197 0.844532 0.418059
threshold=1.5000000000000002 2.5000000000000004 2.5000000000000004 1.5000000000000002 1.0000000180025095e-35 1.0000000180025095e-35 1.5000000000000002 3.5000000000000004 1.5000000000000002 1.5000000000000002 2.5000000000000004
decision_type=2 2 2 2 2 2 2 2 2 2 2
left_child=2 5 4 -4 6 -2 7 8 -1 -8 -11
right_child=1 -3 3 -5 -6 -7 9 -9 -10 10 -12
leaf_value=0.052611029509595286 -0.0079198006678597981 0.18949401838583793 0.084781537528202472 -0.025927353117410991 0.0094249090486045808 0.045898986860260949 -0.10700279003210283 -0.13534911220182985 -0.053714664322520339 -0.069635351254231329 -0.01442661604511123
leaf_weight=2.1230108141899198 2.2565317302942258 3.995647132396698 3.0247961133718482 4.3349836468696594 4.0329713970422736 2.1089088767766953 3.613735690712927 2.3069010525941849 3.6646770834922791 3.0580916702747345 2.4870457202196121
leaf_count=11 11 17 14 21 20 10 19 12 19 16 13
internal_value=0 0.0999962 -0.0297016 0.0195729 -0.0467382 0.0180796 -0.0598663 -0.0490933 -0.0147128 -0.0693874 -0.0448737
internal_weight=0 8.36109 28.6462 7.35978 21.2864 4.36544 17.2535 8.09459 5.78769 9.15887 5.54514
internal_count=183 38 145 35 110 21 90 42 30 48 29
shrinkage=0.1


Tree=3
num_leaves=12
num_cat=0
split_feature=4 5 5 0 8 8 0 7 0 1 5
split_gain=8.69433 4.65826 2.00765 1.7178 1.34069 0.249908 0.17057 0.790008 0.754309 1.63084 1.24159
threshold=1.5000000000000002 2.5000000000000004 2.5000000000000004 1.5000000000000002 1.0000000180025095e-35 1.0000000180025095e-35 2.5000000000000004 3.5000000000000004 1.5000000000000002 1.5000000000000002 1.5000000000000002
decision_type=2 2 2 2 2 2 2 2 2 2 2
left_child=2 5 4 -4 6 -2 7 8 10 -10 -1
right_child=1 -3 3 -5 -6 -7 -8 -9 9 -11 -12
leaf_value=0.046145525312580468 -0.0071530282901350051 0.1638794943804798 0.073969390848968544 -0.023605231310331872 0.0084458455797988136 0.040550122933150634 -0.075309942819501596 -0.096697878423549613 -0.014181391603088353 -0.13378223778816936 -0.04969284206634212
leaf_weight=2.175423964858064 2.2489969283342344 4.148685023188591 3.1150025427341452 4.2878685295581818 4.04951487481594 2.1462552547454834 3.4992458224296561 2.8919340819120398 2.5474425107240677 2.0636924207210541 3.5702361911535263
leaf_count=11 11 17 14 21 20 10 19 16 14 11 19
internal_value=0 0.0878785 -0.0272696 0.0174525 -0.0431884 0.016141 -0.0556732 -0.0504867 -0.0375831 -0.0677082 -0.0134065
internal_weight=0 8.54394 28.2004 7.40287 20.7975 4.39525 16.748 13.2487 10.3568 4.61113 5.74566
internal_count=183 38 145 35 110 21 90 71 55 25 30
shrinkage=0.1


Tree=4
num_leaves=15
num_cat=0
split_feature=4 2 5 3 5 2 2 1 7 7 2 2 7 1
split_gain=7.00776 4.07545 3.66257 1.0427 0.663865 1.21632 1.05173 1.89088 0.955407 0.775702 0.328269 0.245863 0.193032 0.0452043
threshold=1.5000000000000002 1.5000000000000002 2.5000000000000004 2.5000000000000004 2.5000000000000004 3.5000000000000004 5.5000000000000009 1.0000000180025095e-35 2.5000000000000004 3.5000000000000004 3.5000000000000004 3.5000000000000004 2.5000000000000004 1.0000000180025095e-35
decision_type=2 2 2 2 2 2 2 2 2 2 2 2 2 2
left_child=1 -1 12 4 6 -6 7 11 -8 10 -9 -3 -2 -7
right_child=2 3 -4 -5 5 13 8 9 -10 -11 -12 -13 -14 -15
leaf_value=-0.1278537811235094 -0.0070186228846069862 -0.079798570547712153 0.14463233606718656 0.041828350884039994 -0.054111934348375627 0.028408902946798105 0.06187784005119415 0.030416798074090503 -0.036257110716306336 -0.07310500672538725 -0.020504435158742132 -0.13099419050816505 0.034789803662652406 0.048762828089814539
leaf_weight=3.3848686963319805 2.1526874303817731 1.9696750640869194 4.2258197069168091 3.2658294439315787 2.1492294818162909 2.3988619446754456 1.9968901276588433 2.4367994368076324 1.9715409427881239 1.7590444833040235 2.6349265724420547 1.791022315621376 2.2676414400339127 2.0015904456377029
leaf_count=20 10 11 17 16 10 12 10 13 10 10 14 10 11 9
internal_value=0 -0.025033 0.0780662 -0.0107549 -0.01889 0.00755049 -0.0307841 -0.0472355 0.0131238 -0.0158844 0.00396156 -0.10418 0.0144292 0.0376671
internal_weight=0 27.7603 8.64615 24.3754 21.1096 6.54968 14.5599 10.5915 3.96843 6.83077 5.07173 3.7607 4.42033 4.40045
internal_count=183 145 38 125 109 31 78 58 20 37 27 21 21 21
shrinkage=0.1


Tree=5
num_leaves=14
num_cat=0
split_feature=5 2 3 3 1 1 2 1 7 7 8 7 2
split_gain=5.57785 3.3664 1.70493 1.39071 1.01516 0.729375 0.626175 1.05312 1.02708 0.67981 0.60319 0.182211 0.234632
threshold=2.5000000000000004 1.5000000000000002 1.0000000180025095e-35 2.5000000000000004 1.5000000000000002 1.5000000000000002 5.5000000000000009 1.0000000180025095e-35 2.5000000000000004 2.5000000000000004 1.0000000180025095e-35 2.5000000000000004 3.5000000000000004
decision_type=2 2 2 2 2 2 2 2 2 2 2 2 2
left_child=1 -1 4 6 -2 -5 7 9 -8 -3 -4 12 -9
right_child=2 3 10 5 -6 -7 8 11 -10 -11 -12 -13 -14
leaf_value=-0.12452270878341849 -0.0099314079889495123 -0.12943637964859339 0.13656678648238971 0.071512413904354699 0.067507922575190712 -0.00070798045504791903 0.054134849560349363 0.021391532912851296 -0.044708420553256058 -0.047478103336107941 0.065937943780097666 -0.03572856667948849 -0.028312997807267766
leaf_weight=3.140431463718417 3.8534068167209607 1.7336103022098557 2.4412104040384293 2.3176501691341391 3.0191657245159149 3.525697335600853 2.0511410832405081 1.9145839810371401 2.1565230041742325 2.4315339773893356 2.3959232270717621 3.1726103872060776 1.88452373445034
leaf_count=20 19 10 10 11 13 17 10 10 11 14 10 18 10
internal_value=0 -0.0279007 0.0561003 -0.0135796 0.0240882 0.0279368 -0.0293894 -0.0418062 0.00347544 -0.0815907 0.101583 -0.0180377 -0.00326409
internal_weight=0 24.3283 11.7097 21.1879 6.87257 5.84335 15.3445 11.1369 4.20766 4.16514 4.83713 6.97172 3.79911
internal_count=183 131 52 111 32 28 83 62 21 24 20 38 20
shrinkage=0.1


Tree=6
num_leaves=14
num_cat=0
split_feature=4 2 5 0 0 6 2 2 1 6 0 1 6
split_gain=4.90361 3.2536 2.5145 1.24465 1.16367 1.60285 1.54059 1.02521 1.29091 0.675778 0.352641 0.0988462 0.000185056
threshold=1.5000000000000002 1.5000000000000002 2.5000000000000004 1.0000000180025095e-35 2.5000000000000004 1.0000000180025095e-35 3.5000000000000004 4.5000000000000009 1.5000000000000002 1.0000000180025095e-35 1.5000000000000002 1.5000000000000002 1.0000000180025095e-35
decision_type=2 2 2 2 2 2 2 2 2 2 2 2 2
left_child=1 12 11 -3 5 7 -7 8 -5 -6 -9 -2 -1
right_child=2 3 -4 4 9 6 -8 10 -10 -11 -12 -13 -14
leaf_value=-0.12084690530220908 -0.0034243396081579773 0.049699716602605221 0.1198422544027086 -0.030689433015741854 -0.018410249597314802 -0.13500945253124719 -0.032482486906949611 -0.0081702962840969427 0.080796330595330687 0.050325059802283523 -0.062431359440518454 0.02640751601052916 -0.12244351195919714
leaf_weight=1.4236440509557751 2.1176523119211179 3.0833909213542965 4.2360682487487793 1.9017384648323075 2.5736994147300711 2.3885997682809821 3.7926797568798065 2.2211782783269882 2.2884489893913269 3.2197800129652023 2.5993809849023819 2.3358659595251083 1.4813116043806076
leaf_count=10 10 15 17 10 14 13 20 11 12 17 13 11 10
internal_value=0 -0.0216913 0.0646858 -0.00962562 -0.0183423 -0.032884 -0.0721015 -0.00598125 0.0301979 0.01979 -0.0374294 0.0122224 -0.121661
internal_weight=0 26.9739 8.68959 24.0689 20.9855 15.192 6.18128 9.01075 4.19019 5.79348 4.82056 4.45352 2.90496
internal_count=183 145 38 125 110 79 33 46 22 31 24 21 20
shrinkage=0.1


Tree=7
num_leaves=14
num_cat=0
split_feature=3 2 6 0 8 7 0 1 7 2 6 2 2
split_gain=3.49352 2.71564 2.53907 4.15285 2.13517 0.995263 1.22241 1.98116 0.552059 0.47794 0.369585 0.15798 0.123019
threshold=1.0000000180025095e-35 1.5000000000000002 1.0000000180025095e-35 1.5000000000000002 1.0000000180025095e-35 4.5000000000000009 1.5000000000000002 1.5000000000000002 2.5000000000000004 3.5000000000000004 1.0000000180025095e-35 4.5000000000000009 4.5000000000000009
decision_type=2 2 2 2 2 2 2 2 2 2 2 2 2
left_child=1 -1 3 -2 -4 6 10 8 11 -10 12 -8 -3
right_child=2 5 4 -5 -6 -7 7 -9 9 -11 -12 -13 -14
leaf_value=-0.11932217610551586 0.19468079694298598 0.0068033946487736198 0.055736523875642575 0.023525022131886661 -0.074097786309570132 0.040748518309122447 -0.013296598778990341 -0.13216538782784673 -0.080974653775941416 -0.015016678356052979 0.034728893831900039 0.028852902061021663 -0.02414162487849526
leaf_weight=2.5597340315580395 2.3227415382862073 2.661725461483007 2.6636051163077354 3.6380005925893784 2.4151072055101395 3.2351291924715033 1.7176789939403501 1.9961100518703467 1.9759161323308942 2.4742877632379532 3.30367112159729 1.8437357693910597 2.4831541478633881
leaf_count=19 10 13 13 16 11 17 10 11 11 13 17 10 12
internal_value=0 -0.0219093 0.0459518 0.0902198 -0.00600428 -0.0104139 -0.019382 -0.0430281 -0.0208194 -0.0443024 0.00862802 0.0085241 -0.00813209
internal_weight=0 24.2511 11.0395 5.96074 5.07871 21.6914 18.4563 10.0077 8.01162 4.4502 8.44855 3.56141 5.14488
internal_count=183 133 50 26 24 114 97 55 44 24 42 20 25
shrinkage=0.1


Tree=8
num_leaves=14
num_cat=0
split_feature=5 4 8 0 6 0 1 5 0 6 0 7 5
split_gain=3.57207 2.16091 1.50176 2.08966 1.29164 2.09552 0.754606 0.821692 0.285972 0.950708 0.396886 0.0193959 0.00180045
threshold=2.5000000000000004 1.5000000000000002 1.0000000180025095e-35 2.5000000000000004 1.0000000180025095e-35 1.5000000000000002 1.0000000180025095e-35 1.5000000000000002 1.0000000180025095e-35 1.0000000180025095e-35 1.5000000000000002 2.5000000000000004 1.5000000000000002
decision_type=2 2 2 2 2 2 2 2 2 2 2 2 2
left_child=2 4 6 -4 5 -2 7 -1 -8 10 -10 -9 -11
right_child=1 -3 3 -5 -6 -7 8 11 9 12 -12 -13 -14
leaf_value=-0.12367298275841752 0.057027911789255537 0.10254250096021181 -0.021844921231811431 0.10206176379304904 0.076998760308646774 -0.070070651569746928 0.011458523395738138 -0.049431359261717683 0.030424754870007672 -0.065169579775784039 -0.030173875396831598 -0.036359205478308121 -0.060982154082729757
leaf_weight=1.7692351415753407 2.3096520453691465 4.1435099691152573 4.1079664528369895 2.0355164408683777 2.1913165599107742 2.9592795521020889 2.0286365747451791 2.4614700525999069 2.3944728523492795 1.5888234749436376 1.9699611514806745 2.1063518822193146 2.9027418717741966
leaf_count=12 10 17 20 10 10 15 11 15 13 10 11 12 17
internal_value=0 0.0446382 -0.023238 0.019209 0.0124774 -0.0143566 -0.03838 -0.0658138 -0.022408 -0.0301658 0.00307254 -0.0434034 -0.0624634
internal_weight=0 11.6038 23.3652 6.14348 7.46025 5.26893 17.2217 6.33706 10.8846 8.856 4.36443 4.56782 4.49157
internal_count=183 52 131 30 35 25 101 39 62 51 24 27 27
shrinkage=0.1


Tree=9
num_leaves=14
num_cat=0
split_feature=5 2 4 2 7 8 2 6 2 6 6 1 6
split_gain=2.92792 2.43453 1.80711 1.09368 0.985733 0.649008 2.14111 1.10625 0.839165 2.0607 1.40356 0.472139 0.000143592
threshold=2.5000000000000004 1.5000000000000002 1.5000000000000002 3.5000000000000004 4.5000000000000009 1.0000000180025095e-35 5.5000000000000009 1.0000000180025095e-35 3.5000000000000004 1.0000000180025095e-35 1.0000000180025095e-35 1.5000000000000002 1.0000000180025095e-35
decision_type=2 2 2 2 2 2 2 2 2 2 2 2 2
left_child=1 12 3 -2 5 6 8 -7 9 -3 -10 -5 -1
right_child=2 4 -4 11 -6 7 -8 -9 10 -11 -12 -13 -14
leaf_value=-0.11573307026243379 -0.050229771216460772 0.028828849650861368 0.094005071781680272 0.011140018761815557 0.045453334932591911 0.050086098704303333 0.048239923043603243 -0.044934500238419411 -0.13158207737236288 -0.092160578355804421 -0.016875946204894573 0.071863973803428557 -0.1172791462732819
leaf_weight=1.1673773080110577 2.0886548161506635 3.075979441404348 4.07158263027668 3.2493460178375244 2.7562535703182212 3.0132037848234168 2.702456757426261 2.064836397767067 2.6092910170555115 2.5956384837627411 1.804435536265373 2.1130746304988861 1.2375218197703362
leaf_count=10 10 17 17 16 15 14 14 10 15 15 11 9 10
internal_value=0 -0.0213133 0.0404324 0.011158 -0.0102095 -0.0187969 -0.0308075 0.0114488 -0.0519889 -0.0265424 -0.0846875 0.0350684 -0.116529
internal_weight=0 23.027 11.5227 7.45108 20.6221 17.8658 12.7878 5.07804 10.0853 5.67162 4.41373 5.36242 2.4049
internal_count=183 131 52 35 111 96 72 24 58 32 26 25 20
shrinkage=0.1


end of trees

feature_importances:
Column_2=27
Column_5=19
Column_0=16
Column_6=14
Column_7=14
Column_1=13
Column_8=10
Column_4=7
Column_3=6

parameters:
[boosting: gbdt]
[objective: binary]
[metric: binary_logloss]
[tree_learner: serial]
[device_type: cpu]
[data: ]
[valid: ]
[num_iterations: 10000]
[learning_rate: 0.1]
[num_leaves: 15]
[num_threads: 0]
[force_col_wise: 0]
[force_row_wise: 0]
[histogram_pool_size: -1]
[max_depth: -1]
[min_data_in_leaf: 10]
[min_sum_hessian_in_leaf: 0.001]
[bagging_fraction: 0.8]
[pos_bagging_fraction: 1]
[neg_bagging_fraction: 1]
[bagging_freq: 0]
[bagging_seed: 10961]
[feature_fraction: 0.8]
[feature_fraction_bynode: 1]
[feature_fraction_seed: 53]
[extra_trees: 0]
[extra_seed: 11644]
[early_stopping_round: 50]
[first_metric_only: 0]
[max_delta_step: 0]
[lambda_l1: 0]
[lambda_l2: 0]
[min_gain_to_split: 0]
[drop_rate: 0.1]
[max_drop: 50]
[skip_drop: 0.5]
[xgboost_dart_mode: 0]
[uniform_drop: 0]
[drop_seed: 30626]
[top_rate: 0.2]
[other_rate: 0.1]
[min_data_per_group: 100]
[max_cat_threshold: 32]
[cat_l2: 10]
[cat_smooth: 10]
[max_cat_to_onehot: 4]
[top_k: 20]
[monotone_constraints: ]
[monotone_constraints_method: basic]
[monotone_penalty: 0]
[feature_contri: ]
[forcedsplits_filename: ]
[refit_decay_rate: 0.9]
[cegb_tradeoff: 1]
[cegb_penalty_split: 0]
[cegb_penalty_feature_lazy: ]
[cegb_penalty_feature_coupled: ]
[path_smooth: 0]
[interaction_constraints: ]
[verbosity: -1]
[saved_feature_importance_type: 0]
[max_bin: 255]
[max_bin_by_feature: ]
[min_data_in_bin: 3]
[bin_construct_sample_cnt: 200000]
[data_random_seed: 4071]
[is_enable_sparse: 1]
[enable_bundle: 1]
[use_missing: 1]
[zero_as_missing: 0]
[feature_pre_filter: 1]
[pre_partition: 0]
[two_round: 0]
[header: 0]
[label_column: ]
[weight_column: ]
[group_column: ]
[ignore_column: ]
[categorical_feature: ]
[forcedbins_filename: ]
[objective_seed: 602]
[num_class: 1]
[is_unbalance: 0]
[scale_pos_weight: 1]
[sigmoid: 1]
[boost_from_average: 1]
[reg_sqrt: 0]
[alpha: 0.9]
[fair_c: 1]
[poisson_max_delta_step: 0.7]
[tweedie_variance_power: 1.5]
[lambdarank_truncation_level: 20]
[lambdarank_norm: 1]
[label_gain: ]
[eval_at: ]
[multi_error_top_k: 1]
[auc_mu_weights: ]
[num_machines: 1]
[local_listen_port: 12400]
[time_out: 120]
[machine_list_filename: ]
[machines: ]
[gpu_platform_id: -1]
[gpu_device_id: -1]
[gpu_use_dp: 0]

end of parameters

pandas_categorical:null
