tree
version=v3
num_class=1
num_tree_per_iteration=1
label_index=0
max_feature_idx=8
objective=binary sigmoid:1
feature_names=Column_0 Column_1 Column_2 Column_3 Column_4 Column_5 Column_6 Column_7 Column_8
feature_infos=[0:4] [0:2] [0:10] [0:5] [0:2] [1:3] [0:1] [0:5] [0:1]
tree_sizes=1549 1354 1367 1461 1675

Tree=0
num_leaves=14
num_cat=0
split_feature=3 5 2 5 6 2 2 2 7 7 6 2 2
split_gain=14.6687 6.57902 5.94035 2.85486 1.88462 1.2547 1.03083 2.60464 1.08599 0.326667 0.259849 0.415758 0.245
threshold=1.0000000180025095e-35 2.5000000000000004 1.5000000000000002 2.5000000000000004 1.0000000180025095e-35 4.5000000000000009 2.5000000000000004 3.5000000000000004 2.5000000000000004 3.5000000000000004 1.0000000180025095e-35 4.5000000000000009 4.5000000000000009
decision_type=2 2 2 2 2 2 2 2 2 2 2 2 2
left_child=2 4 -1 6 -2 -3 -4 -8 12 -10 11 -5 -9
right_child=1 5 3 10 -6 -7 7 8 9 -11 -12 -13 -14
leaf_value=-1.0562907333344687 -0.81129073442970412 -0.66429073508684544 -1.0154574001836747 -0.86029073421065716 -0.93379073388208655 -0.77045740127891005 -0.87576441835201069 -0.95829073377256302 -1.0236240668138334 -0.97462406703288063 -0.8521240675804983 -0.92265437029550634 -0.90929073399161009
leaf_weight=4.6938777118921307 2.0408163964748365 2.0408163964748383 2.4489796757698086 2.0408163964748374 3.2653062343597412 2.4489796757698059 3.8775511533021918 2.0408163964748365 3.0612245947122574 2.4489796757698059 2.4489796757698059 2.2448980361223221 2.0408163964748383
leaf_count=23 10 10 12 10 16 12 19 10 15 12 12 11 10
internal_value=-0.916291 -0.811291 -0.953903 -0.932687 -0.886675 -0.7222 -0.955778 -0.944927 -0.972886 -1.00185 -0.878109 -0.892957 -0.933791
internal_weight=0 9.79592 27.3469 22.6531 5.30612 4.4898 15.9184 13.4694 9.59184 5.5102 6.73469 4.28571 4.08163
internal_count=182 48 134 111 26 22 78 66 47 27 33 21 20
shrinkage=1


Tree=1
num_leaves=12
num_cat=0
split_feature=3 2 5 1 0 5 6 0 6 6 5
split_gain=11.5326 5.286 4.6442 5.01749 2.34107 3.982 1.44958 0.641892 2.54595 1.46132 0.304684
threshold=1.0000000180025095e-35 1.5000000000000002 2.5000000000000004 1.5000000000000002 1.5000000000000002 2.5000000000000004 1.0000000180025095e-35 2.5000000000000004 1.0000000180025095e-35 1.0000000180025095e-35 1.5000000000000002
decision_type=2 2 2 2 2 2 2 2 2 2 2
left_child=1 -1 6 -4 5 10 -2 9 -9 -6 -3
right_child=2 4 3 -5 7 -7 -8 8 -10 -11 -12
leaf_value=-0.13477432636023898 0.090326351391485218 0.0037903593006116906 0.059147899857245327 0.262810800159895 -0.022542361508737691 0.11494882386033101 -0.015876189423789842 -0.094004447896878979 0.051562262826472249 -0.11017348628443829 -0.039141605816240883
leaf_weight=4.4032389521598843 2.1298821270465833 2.8087952584028262 2.4112998694181442 2.4273891597986221 4.2670273482799512 3.1161805242300034 3.2407059669494629 2.2179927825927734 2.6216986477375031 3.434716060757637 4.0174490213394165
leaf_count=23 10 14 11 11 21 15 16 11 13 17 20
internal_value=0 -0.0345805 0.0902612 0.161318 -0.0149585 0.0212824 0.0262419 -0.0436891 -0.0151498 -0.0616229 -0.0214764
internal_weight=0 26.8871 10.2093 4.83869 22.4839 9.94242 5.37059 12.5414 4.83969 7.70174 6.82624
internal_count=182 134 48 22 111 49 26 62 24 38 34
shrinkage=0.1


Tree=2
num_leaves=12
num_cat=0
split_feature=5 4 0 8 6 1 6 0 0 7 7
split_gain=9.12181 7.63898 1.51729 1.25263 2.24929 0.625384 1.02048 0.711379 0.199714 0.76602 0.151122
threshold=2.5000000000000004 1.5000000000000002 1.5000000000000002 1.0000000180025095e-35 1.0000000180025095e-35 1.0000000180025095e-35 1.0000000180025095e-35 2.5000000000000004 1.5000000000000002 2.5000000000000004 3.5000000000000004
decision_type=2 2 2 2 2 2 2 2 2 2 2
left_child=3 2 -2 5 -5 6 -1 -8 9 -7 -11
right_child=1 -3 -4 4 -6 8 7 -9 -10 10 -12
leaf_value=-0.10799306012105102 0.066879699668103879 0.18036501655320036 -0.020993314598266935 0.0675312918174997 -0.060965487922397837 -0.00097454825266551047 -0.069160305792656529 0.0071500476592346847 -0.010113496045916864 -0.049893397688715146 -0.08752020425354598
leaf_weight=3.6300978362560308 3.2545879483222944 4.1437833607196799 4.9589711576700211 2.8709367364644995 2.5923186838626862 2.9405607134103775 3.0492191910743713 2.0381714105606079 3.1434457898139954 2.3186598718166351 1.9780169278383253
leaf_count=19 15 18 24 14 13 15 16 10 16 12 10
internal_value=0 0.0696715 0.013826 -0.0356641 0.00655948 -0.0477426 -0.0674893 -0.0385879 -0.0311597 -0.040301 -0.0672153
internal_weight=0 12.3573 8.21356 24.5614 5.46326 19.0982 8.71749 5.08739 10.3807 7.23724 4.29668
internal_count=182 57 39 125 27 98 45 26 53 37 22
shrinkage=0.1


Tree=3
num_leaves=13
num_cat=0
split_feature=3 0 5 1 7 7 4 0 1 5 0 7
split_gain=8.08771 3.89343 2.41439 3.11878 1.57138 1.33771 0.636725 0.491518 1.59004 0.435577 0.753562 0.433728
threshold=1.0000000180025095e-35 1.0000000180025095e-35 2.5000000000000004 1.5000000000000002 4.5000000000000009 3.5000000000000004 1.5000000000000002 1.5000000000000002 1.5000000000000002 2.5000000000000004 2.5000000000000004 2.5000000000000004
decision_type=2 2 2 2 2 2 2 2 2 2 2 2
left_child=1 -1 6 -4 5 7 -2 11 9 10 -9 -3
right_child=2 4 3 -5 -6 -7 -8 8 -10 -11 -12 -13
leaf_value=0.10201549552653884 0.063815265509235261 0.0022159531675829125 0.041885715007237138 0.19669750857017446 0.026049865773088838 -0.13268413265708179 -0.0054131635102421588 -0.018929887265589255 -0.13476924611671087 -0.0073043380591568509 -0.083137028777926156 -0.048400619815024616
leaf_weight=2.0483837425708797 2.4443918168544752 3.5673683285713294 2.5207699537277222 2.6899091005325317 3.0055067092180243 1.8406342566013325 2.9104334264993668 3.5085078775882703 2.0921065509319297 3.0306539088487625 3.8159953355789185 3.2218327969312668
leaf_count=10 12 18 11 11 15 10 14 19 11 15 20 16
internal_value=0 -0.0303376 0.0733441 0.121804 -0.0415951 -0.051241 0.0261885 -0.0434481 -0.0552535 -0.0391885 -0.0523812 -0.0218043
internal_weight=0 26.131 10.5655 5.21068 24.0826 21.0771 5.35483 19.2365 12.4473 10.3552 7.3245 6.7892
internal_count=182 134 48 22 124 109 26 99 65 54 39 34
shrinkage=0.1


Tree=4
num_leaves=15
num_cat=0
split_feature=3 2 5 1 1 5 6 7 6 2 5 7 5 7
split_gain=6.52803 4.49624 1.91389 2.45337 1.44243 1.89631 1.36246 1.14038 1.07051 0.576723 0.494311 0.257464 0.160764 0.000458304
threshold=1.0000000180025095e-35 1.5000000000000002 2.5000000000000004 1.5000000000000002 1.0000000180025095e-35 2.5000000000000004 1.0000000180025095e-35 2.5000000000000004 1.0000000180025095e-35 4.5000000000000009 1.5000000000000002 3.5000000000000004 2.5000000000000004 2.5000000000000004
decision_type=2 2 2 2 2 2 2 2 2 2 2 2 2 2
left_child=1 13 8 -4 6 7 12 10 -2 -8 -6 -9 -3 -1
right_child=2 4 3 -5 5 -7 9 11 -10 -11 -12 -13 -14 -15
leaf_value=-0.12837251287355494 0.076852478410523742 -0.09274100360130573 0.037247387765174257 0.17353490554128634 0.057959323345954807 0.074747300516314452 -0.031952504197390277 -0.027300519219345277 -0.013634647347773872 0.034869682726192452 -0.0094448396288354039 -0.07975974640077188 -0.056772342159268768 -0.12618879283291481
leaf_weight=2.0545017421245606 2.2081654667854291 2.5507372468709946 2.5495722591876984 2.7406915128231049 2.0249523073434812 3.5453234165906915 2.8909452110528946 1.8773299902677538 3.2051920741796494 2.334650993347168 2.3513786345720291 1.8649635612964628 2.4230451285839081 1.8058387786149976
leaf_count=12 10 14 11 11 10 16 15 10 16 12 12 10 12 11
internal_value=0 -0.0278554 0.0650782 0.107853 -0.0102878 0.0137311 -0.0377557 -0.0129141 0.023276 -0.00209821 0.0217434 -0.0534435 -0.0752184 -0.127351
internal_weight=0 25.7237 10.7036 5.29026 21.8633 11.6639 10.1994 8.11862 5.41336 5.2256 4.37633 3.74229 4.97378 3.86034
internal_count=182 134 48 22 111 58 53 42 26 27 22 20 26 23
shrinkage=0.1


end of trees

feature_importances:
Column_5=12
Column_7=10
Column_2=9
Column_6=9
Column_0=8
Column_1=6
Column_3=4
Column_4=2
Column_8=1

parameters:
[boosting: gbdt]
[objective: binary]
[metric: binary_logloss]
[tree_learner: serial]
[device_type: cpu]
[data: ]
[valid: ]
[num_iterations: 10000]
[learning_rate: 0.1]
[num_leaves: 15]
[num_threads: 0]
[force_col_wise: 0]
[force_row_wise: 0]
[histogram_pool_size: -1]
[max_depth: -1]
[min_data_in_leaf: 10]
[min_sum_hessian_in_leaf: 0.001]
[bagging_fraction: 0.8]
[pos_bagging_fraction: 1]
[neg_bagging_fraction: 1]
[bagging_freq: 0]
[bagging_seed: 10961]
[feature_fraction: 0.8]
[feature_fraction_bynode: 1]
[feature_fraction_seed: 53]
[extra_trees: 0]
[extra_seed: 11644]
[early_stopping_round: 50]
[first_metric_only: 0]
[max_delta_step: 0]
[lambda_l1: 0]
[lambda_l2: 0]
[min_gain_to_split: 0]
[drop_rate: 0.1]
[max_drop: 50]
[skip_drop: 0.5]
[xgboost_dart_mode: 0]
[uniform_drop: 0]
[drop_seed: 30626]
[top_rate: 0.2]
[other_rate: 0.1]
[min_data_per_group: 100]
[max_cat_threshold: 32]
[cat_l2: 10]
[cat_smooth: 10]
[max_cat_to_onehot: 4]
[top_k: 20]
[monotone_constraints: ]
[monotone_constraints_method: basic]
[monotone_penalty: 0]
[feature_contri: ]
[forcedsplits_filename: ]
[refit_decay_rate: 0.9]
[cegb_tradeoff: 1]
[cegb_penalty_split: 0]
[cegb_penalty_feature_lazy: ]
[cegb_penalty_feature_coupled: ]
[path_smooth: 0]
[interaction_constraints: ]
[verbosity: -1]
[saved_feature_importance_type: 0]
[max_bin: 255]
[max_bin_by_feature: ]
[min_data_in_bin: 3]
[bin_construct_sample_cnt: 200000]
[data_random_seed: 4071]
[is_enable_sparse: 1]
[enable_bundle: 1]
[use_missing: 1]
[zero_as_missing: 0]
[feature_pre_filter: 1]
[pre_partition: 0]
[two_round: 0]
[header: 0]
[label_column: ]
[weight_column: ]
[group_column: ]
[ignore_column: ]
[categorical_feature: ]
[forcedbins_filename: ]
[objective_seed: 602]
[num_class: 1]
[is_unbalance: 0]
[scale_pos_weight: 1]
[sigmoid: 1]
[boost_from_average: 1]
[reg_sqrt: 0]
[alpha: 0.9]
[fair_c: 1]
[poisson_max_delta_step: 0.7]
[tweedie_variance_power: 1.5]
[lambdarank_truncation_level: 20]
[lambdarank_norm: 1]
[label_gain: ]
[eval_at: ]
[multi_error_top_k: 1]
[auc_mu_weights: ]
[num_machines: 1]
[local_listen_port: 12400]
[time_out: 120]
[machine_list_filename: ]
[machines: ]
[gpu_platform_id: -1]
[gpu_device_id: -1]
[gpu_use_dp: 0]

end of parameters

pandas_categorical:null
