tree
version=v3
num_class=1
num_tree_per_iteration=1
label_index=0
max_feature_idx=8
objective=binary sigmoid:1
feature_names=Column_0 Column_1 Column_2 Column_3 Column_4 Column_5 Column_6 Column_7 Column_8
feature_infos=[0:4] [0:2] [0:10] [0:5] [0:2] [1:3] [0:1] [0:5] [0:1]
tree_sizes=1452 1450 1475 1555 1461 1457 1553 1471 1347 1677 1461 1464

Tree=0
num_leaves=13
num_cat=0
split_feature=5 3 2 2 7 2 6 8 2 6 2 7
split_gain=19.5595 10.2843 3.62009 1.37397 1.10076 1.56116 1.55063 2.12128 1.47979 0.446685 0.322703 0.322264
threshold=2.5000000000000004 1.0000000180025095e-35 1.5000000000000002 3.5000000000000004 3.5000000000000004 3.5000000000000004 1.0000000180025095e-35 1.0000000180025095e-35 4.5000000000000009 1.0000000180025095e-35 5.5000000000000009 2.5000000000000004
decision_type=2 2 2 2 2 2 2 2 2 2 2 2
left_child=2 3 -1 -2 5 9 7 -7 -6 -4 -8 -3
right_child=1 11 4 -5 8 6 10 -9 -10 -11 -12 -13
leaf_value=-1.0636482660852591 -0.95019801606644783 -0.67035406602004621 -0.87929160980469079 -0.85665131868251554 -1.0636482660852593 -1.0402378970337585 -0.95019801606644783 -0.91616294106080443 -0.95019801606644783 -0.93255019939685491 -0.89977568272475383 -0.72329751602882486
leaf_weight=3.6613813340663937 2.6443309634923917 2.034100741147995 3.2545611858367982 3.8647914081811905 2.0341007411479941 4.2716115564107877 2.6443309634923935 2.034100741147995 2.6443309634923935 3.0511511117219925 2.440920889377594 2.6443309634923935
leaf_count=18 13 10 16 19 10 21 13 10 13 15 12 13
internal_value=-0.923954 -0.81337 -0.97147 -0.894655 -0.956386 -0.944982 -0.96708 -1.00021 -0.999524 -0.905062 -0.925995 -0.700279
internal_weight=0 11.1876 26.0365 6.50912 22.3751 17.6967 11.391 6.30571 4.67843 6.30571 5.08525 4.67843
internal_count=183 55 128 32 110 87 56 31 23 31 25 23
shrinkage=1


Tree=1
num_leaves=13
num_cat=0
split_feature=5 3 2 1 2 2 0 1 3 8 0 2
split_gain=15.406 7.1558 3.26266 2.91033 0.62645 1.68304 0.798533 0.669882 0.664606 1.18194 0.614919 0.507901
threshold=2.5000000000000004 1.0000000180025095e-35 1.5000000000000002 1.5000000000000002 3.5000000000000004 4.5000000000000009 1.5000000000000002 1.5000000000000002 2.5000000000000004 1.0000000180025095e-35 1.5000000000000002 5.5000000000000009
decision_type=2 2 2 2 2 2 2 2 2 2 2 2
left_child=2 3 -1 -2 7 6 -6 -4 9 11 -3 -7
right_child=1 10 4 -5 5 8 -8 -9 -10 -11 -12 -13
leaf_value=-0.13451942056273178 -0.032726451761532806 0.22008617061180497 0.024390997366784031 0.10121383881879589 -0.052379177761670982 -0.094737118643738794 -0.13656726949342141 -0.03539613911075274 0.026687979614094318 0.02379871913248123 0.1505583467755838 -0.03183744531338558
leaf_weight=3.4337288439273861 3.7008432149887067 2.4352547377347946 3.6564043313264873 2.888359859585762 2.362785577774047 2.3641152977943403 2.1535333842039108 3.8445396274328232 2.4160547256469727 2.4443875551223755 2.6630811989307404 2.8091953694820404
leaf_count=18 18 11 18 14 12 12 11 19 12 12 12 14
internal_value=0 0.0948139 -0.0438466 0.0259859 -0.0297272 -0.0418291 -0.0925229 -0.00625235 -0.0190112 -0.0335054 0.183769 -0.0605815
internal_weight=0 11.6875 25.4847 6.5892 22.051 14.5501 4.51632 7.50094 10.0338 7.6177 5.09834 5.17331
internal_count=183 55 128 32 110 73 23 37 50 38 23 26
shrinkage=0.1


Tree=2
num_leaves=13
num_cat=0
split_feature=5 4 0 7 0 7 5 1 5 8 0 6
split_gain=12.2867 5.72342 1.54905 0.872448 1.43694 1.15872 0.861059 0.745767 0.689745 0.344214 0.257332 0.000791627
threshold=2.5000000000000004 1.5000000000000002 1.5000000000000002 3.5000000000000004 1.5000000000000002 4.5000000000000009 1.5000000000000002 1.0000000180025095e-35 1.5000000000000002 1.0000000180025095e-35 2.5000000000000004 1.0000000180025095e-35
decision_type=2 2 2 2 2 2 2 2 2 2 2 2
left_child=3 2 -2 4 8 -5 -6 10 -1 11 -8 -10
right_child=1 -3 -4 5 6 -7 7 -9 9 -11 -12 -13
leaf_value=0.048483811270660176 0.082247169606751144 0.17723680085091109 -0.0071248311141610416 -0.13203001508120027 -0.089330746623169421 -0.036252377859537853 0.017002137053177283 -0.084540242561585002 0.0009609893047939134 -0.048795006111917949 -0.030382045392645263 -0.0017317089006507311
leaf_weight=2.156719803810125 3.4730280935764295 4.1723127216100693 4.3918215930461884 2.2001868635416022 4.3767814934253675 2.9658148735761642 1.9501278698444364 1.9349685013294218 2.1689695566892624 2.2143466621637344 2.7798713743686676 2.1984525173902512
leaf_count=11 16 18 21 12 23 15 10 10 11 11 14 11
internal_value=0 0.0825646 0.0323408 -0.0404502 -0.030893 -0.0770438 -0.0548704 -0.0322409 -0.000595731 -0.0166782 -0.0108461 -0.000394449
internal_weight=0 12.0372 7.86485 24.9462 19.7802 5.166 11.0417 6.66497 8.73849 6.58177 4.73 4.36742
internal_count=183 55 37 128 101 27 57 34 44 33 24 22
shrinkage=0.1


Tree=3
num_leaves=14
num_cat=0
split_feature=5 3 1 4 7 0 1 0 5 1 5 7 7
split_gain=9.87178 4.39507 1.88148 0.836718 2.0626 1.89148 1.45871 0.684851 0.37063 0.365672 0.27106 0.143007 0.131084
threshold=2.5000000000000004 1.0000000180025095e-35 1.5000000000000002 1.5000000000000002 3.5000000000000004 1.5000000000000002 1.5000000000000002 2.5000000000000004 1.5000000000000002 1.5000000000000002 1.5000000000000002 2.5000000000000004 2.5000000000000004
decision_type=2 2 2 2 2 2 2 2 2 2 2 2 2
left_child=3 2 -2 4 5 8 7 -7 -1 -3 -6 -9 -10
right_child=1 9 -4 -5 10 6 -8 11 12 -11 -12 -13 -14
leaf_value=0.042638012576901849 -0.03012955156613641 0.11385431638384767 0.075764267844268984 0.0087961885945944795 -0.080933687641346605 -0.0010554772614672643 -0.13121617038806918 -0.046644624175586125 -0.018147227665746599 0.165295928490306 -0.13201567085449356 -0.083715407802987141 0.014315625406832856
leaf_weight=2.2044482976198294 3.6540012061595899 2.8620938360691071 3.1024858057498932 3.3986859917640677 1.9820549488067616 3.0008323937654477 2.1610813289880753 2.2706695050001144 3.3547574877738953 2.6718598604202271 2.182803139090538 1.9209937155246732 1.9768403321504591
leaf_count=11 18 12 14 17 11 16 12 12 17 11 12 10 10
internal_value=0 0.0726153 0.0184954 -0.0372442 -0.0446762 -0.0291335 -0.0591717 -0.037525 0.00814929 0.138691 -0.107706 -0.0636338 -0.00611071
internal_weight=0 12.2904 6.75649 24.4532 21.0545 16.8896 9.35358 7.1925 7.53605 5.53395 4.16486 4.19166 5.3316
internal_count=183 55 32 128 111 88 50 38 38 23 23 22 27
shrinkage=0.1


Tree=4
num_leaves=13
num_cat=0
split_feature=5 4 2 2 7 2 2 6 1 6 2 1
split_gain=7.99342 3.57339 3.70031 2.94403 0.707826 1.31535 1.1347 1.36634 0.457963 0.435102 0.217845 0.0838489
threshold=2.5000000000000004 1.5000000000000002 3.5000000000000004 1.5000000000000002 3.5000000000000004 4.5000000000000009 3.5000000000000004 1.0000000180025095e-35 1.0000000180025095e-35 1.0000000180025095e-35 5.5000000000000009 1.5000000000000002
decision_type=2 2 2 2 2 2 2 2 2 2 2 2
left_child=3 2 -2 -1 6 -6 9 11 -4 -5 -9 -8
right_child=1 -3 8 4 5 -7 7 10 -10 -11 -12 -13
leaf_value=-0.12702332131779198 -0.070577510169681709 0.13664814923094062 0.047668954896160493 0.047480866482104395 -0.1268890686310073 -0.011664478924571391 -0.050486299369480771 -0.013609242538333911 0.10700300337671953 -0.0054331191848288277 0.02871286655509063 -0.074911341697810649
leaf_weight=2.9966375678777721 2.7028468102216703 4.4228859990835181 3.0276496112346649 3.218002572655684 1.6632921397685994 2.450081467628479 2.4143941849470121 2.4716210514307022 2.2807774841785431 3.0052566528320312 2.3944828361272812 3.3634393513202667
leaf_count=18 13 18 14 16 10 13 13 13 10 15 12 18
internal_value=0 0.0644992 0.0246671 -0.0343054 -0.0210626 -0.0582569 -0.0119921 -0.0318245 0.073162 0.0219283 0.00721636 -0.0647048
internal_weight=0 12.4342 8.01127 23.9772 20.9806 4.11337 16.8672 10.6439 5.30843 6.22326 4.8661 5.77783
internal_count=183 55 37 128 110 23 87 56 24 31 25 31
shrinkage=0.1


Tree=5
num_leaves=13
num_cat=0
split_feature=5 3 2 1 7 2 2 0 1 0 0 7
split_gain=6.49701 2.91898 2.67781 1.2825 0.608216 0.93135 0.887977 0.451108 0.429674 0.358899 0.31236 0.082128
threshold=2.5000000000000004 1.0000000180025095e-35 1.5000000000000002 1.5000000000000002 3.5000000000000004 3.5000000000000004 4.5000000000000009 1.5000000000000002 1.5000000000000002 2.5000000000000004 1.5000000000000002 2.5000000000000004
decision_type=2 2 2 2 2 2 2 2 2 2 2 2
left_child=2 3 -1 -2 5 8 -7 -6 -4 11 -3 -8
right_child=1 10 4 -5 7 6 9 -9 -10 -11 -12 -13
leaf_value=-0.12380944665030527 -0.02756749175020002 0.13475284715482777 0.044781320135946157 0.059264538649641985 -0.08427614940017554 -0.071421749029130552 -0.0075774536003699409 -0.016438552301116009 -0.0075545673066195491 -0.042531644322588921 0.087879471866116041 0.018378551128609279
leaf_weight=2.7782013863325146 3.6005103737115842 2.7387847155332565 3.2505355179309907 3.2241490036249161 2.22675709426403 3.3730804026126844 2.3269015103578568 1.7511332780122755 3.0318737626075745 2.2113782465457916 2.9562571346759796 2.5603829026222229
leaf_count=18 18 11 16 14 13 19 12 10 15 12 12 13
internal_value=0 0.0575632 -0.0316159 0.0134542 -0.0192615 -0.0109156 -0.0291776 -0.0544129 0.0195242 -0.00910445 0.110421 0.00602055
internal_weight=0 12.5197 23.5102 6.82466 20.732 16.7542 10.4717 3.97789 6.28241 7.09866 5.69504 4.88728
internal_count=183 55 128 32 110 87 56 23 31 37 23 25
shrinkage=0.1


Tree=6
num_leaves=14
num_cat=0
split_feature=5 2 4 2 0 2 2 2 0 2 1 0 2
split_gain=5.30265 2.44289 2.43885 2.87597 1.49531 0.340673 0.538153 0.904355 0.746531 0.670548 3.14417 0.260665 0.228705
threshold=2.5000000000000004 1.5000000000000002 1.5000000000000002 3.5000000000000004 1.5000000000000002 7.5000000000000009 3.5000000000000004 4.5000000000000009 1.5000000000000002 2.5000000000000004 1.5000000000000002 2.5000000000000004 5.5000000000000009
decision_type=2 2 2 2 2 2 2 2 2 2 2 2 2
left_child=1 -1 3 -2 -5 6 9 8 -8 -3 -11 12 -9
right_child=2 5 -4 4 -6 -7 7 11 -10 10 -12 -13 -14
leaf_value=-0.12104450422438467 -0.067047381657328251 -0.046887344424415681 0.11088084004615502 0.11913595476651236 0.013597398783780313 0.022726669171450636 -0.03514957773801583 -0.0091359813025242414 -0.12412868089407847 0.099870764415436131 -0.057543346220002081 0.015487083322506402 -0.050401969457791795
leaf_weight=2.5682690143585232 2.6287543624639493 2.175461992621428 4.4754413217306128 2.4095233827829361 3.0314955115318298 1.9017226994037617 2.1059057265520083 3.1935825943946838 1.707394406199455 2.4841882288455963 2.5936727225780487 2.0220228135585785 2.3177700042724609
leaf_count=18 13 11 18 10 14 10 12 17 11 12 14 11 12
internal_value=0 -0.0291048 0.0516748 0.0188395 0.0603345 -0.0175874 -0.0217093 -0.035309 -0.0749897 -0.000434624 0.0194667 -0.0152231 -0.0264902
internal_weight=0 23.07 12.5452 8.06977 5.44102 20.5017 18.6 11.3467 3.8133 7.25332 5.07786 7.53338 5.51135
internal_count=183 128 55 37 24 110 100 63 23 37 26 40 29
shrinkage=0.1


Tree=7
num_leaves=13
num_cat=0
split_feature=2 3 6 8 0 8 2 0 6 1 7 2
split_gain=4.50793 2.11524 4.13739 4.3159 2.40576 1.18945 1.63376 1.05293 1.87446 0.640865 1.07733 0.157376
threshold=1.5000000000000002 1.0000000180025095e-35 1.0000000180025095e-35 1.0000000180025095e-35 1.5000000000000002 1.0000000180025095e-35 6.5000000000000009 1.5000000000000002 1.0000000180025095e-35 1.0000000180025095e-35 2.5000000000000004 3.5000000000000004
decision_type=2 2 2 2 2 2 2 2 2 2 2 2
left_child=-1 5 4 -4 -3 6 7 8 11 10 -9 -2
right_child=1 2 3 -5 -6 -7 -8 9 -10 -11 -12 -13
leaf_value=-0.12257015468134869 -0.04116604266504173 0.18721459588617409 0.067617082356222977 -0.11365363953231283 0.048144326866930071 0.043466610222443205 -0.094130341112013294 0.037705505111424079 0.078146517691394177 -0.081107346810381079 -0.050344856719071719 -0.0046011497218360958
leaf_weight=2.7937242016196242 2.0921510159969383 2.3137498050928098 2.905722364783287 2.3969296813011169 2.6901486217975616 3.7737631797790518 2.4533319026231757 2.2926497757434845 3.214651957154274 2.0140515118837357 3.5278681367635727 2.6912460923194885
leaf_count=20 11 10 13 12 12 19 13 12 17 12 19 13
internal_value=0 0.00982585 0.0472263 -0.0143218 0.112449 -0.00764805 -0.0181968 -0.00643061 0.0190928 -0.0324866 -0.0156626 -0.0205938
internal_weight=0 32.3663 10.3066 5.30265 5.0039 22.0597 18.286 15.8326 7.99805 7.83457 5.82052 4.7834
internal_count=183 163 47 25 22 116 97 84 41 43 31 24
shrinkage=0.1


Tree=8
num_leaves=12
num_cat=0
split_feature=5 4 0 4 7 0 6 1 0 5 7
split_gain=3.95372 1.54282 0.547761 0.501702 1.66556 1.34501 1.41891 1.24168 0.75806 0.297525 0.15089
threshold=2.5000000000000004 1.5000000000000002 1.5000000000000002 1.5000000000000002 3.5000000000000004 1.5000000000000002 1.0000000180025095e-35 1.5000000000000002 2.5000000000000004 1.5000000000000002 2.5000000000000004
decision_type=2 2 2 2 2 2 2 2 2 2 2
left_child=3 2 -2 4 5 6 -1 8 -7 -6 -10
right_child=1 -3 -4 -5 9 7 -8 -9 10 -11 -12
leaf_value=-0.029687205755154957 0.046522911750287069 0.09203977118679732 -0.006016104204293389 0.0097778124490863864 -0.06472830194739132 0.014436118753867994 0.058300723992090187 -0.12196037622407573 -0.036328560098659722 -0.12356297540816803 -0.076044722602311127
leaf_weight=3.782960891723639 3.700060695409773 4.4113149791955948 4.2795973271131516 3.365492418408393 1.6665409207344046 2.7055857926607114 3.5552089214324951 1.7033337503671644 2.0752814114093781 1.7749657183885574 1.774571053683758
leaf_count=20 16 18 21 17 11 16 18 12 12 12 10
internal_value=0 0.0445814 0.0183455 -0.0258142 -0.0321059 -0.0182122 0.0129413 -0.045893 -0.026128 -0.0950724 -0.0546355
internal_weight=0 12.391 7.97966 22.4039 19.0384 15.5969 7.33817 8.25877 6.55544 3.44151 3.84985
internal_count=183 55 37 128 111 88 38 50 38 23 22
shrinkage=0.1


Tree=9
num_leaves=15
num_cat=0
split_feature=2 5 1 7 8 7 2 6 8 6 1 1 2 2
split_gain=3.88766 2.71306 1.29321 1.35389 0.999643 0.40192 0.633665 1.13292 1.62732 0.57084 0.568527 0.293027 0.205584 0.0673834
threshold=1.5000000000000002 2.5000000000000004 1.5000000000000002 2.5000000000000004 1.0000000180025095e-35 3.5000000000000004 3.5000000000000004 1.0000000180025095e-35 1.0000000180025095e-35 1.0000000180025095e-35 1.5000000000000002 1.5000000000000002 5.5000000000000009 4.5000000000000009
decision_type=2 2 2 2 2 2 2 2 2 2 2 2 2 2
left_child=-1 5 3 -3 -4 6 9 8 11 -2 -7 -8 -9 -5
right_child=1 2 4 13 -6 10 7 12 -10 -11 -12 -13 -14 -15
leaf_value=-0.12005855124403469 0.04721422363012797 0.077964420065459006 0.11894319900219708 -0.030155038991117475 0.033272141415557864 0.0029045628386046443 -0.066867770557334047 -0.0079015956488661214 0.018343922569096834 -0.012997161856134965 -0.077416335316933871 -0.12601913317991539 0.033942491618483346 -0.0046091591295244292
leaf_weight=2.5302092209458342 3.2070873379707399 2.2652989625930804 3.1370422840118408 2.2011716812849045 2.4070664346218109 1.5093916133046144 1.6560024470090848 2.3625891208648682 1.9379943609237669 3.0931835472583771 2.117535337805748 1.6943807527422905 2.3341565281152725 1.9448709487915037
leaf_count=20 16 10 13 11 10 9 10 13 10 15 14 11 12 9
internal_value=0 0.00872391 0.0463797 0.0157958 0.0817477 -0.0138848 -0.0071801 -0.0228488 -0.0545928 0.0176528 -0.0439898 -0.0967822 0.0128938 -0.0181717
internal_weight=0 31.8678 11.9555 6.41134 5.54411 19.9123 16.2854 9.98512 5.28838 6.30027 3.62693 3.35038 4.69675 4.14604
internal_count=183 163 53 30 23 110 87 56 31 31 23 21 25 20
shrinkage=0.1


Tree=10
num_leaves=13
num_cat=0
split_feature=5 4 6 0 4 7 0 1 6 0 5 7
split_gain=2.64502 1.24467 0.398235 1.03534 0.38189 1.42629 1.08843 1.14905 1.08583 0.702253 0.294267 0.139074
threshold=2.5000000000000004 1.5000000000000002 1.0000000180025095e-35 1.5000000000000002 1.5000000000000002 3.5000000000000004 1.5000000000000002 1.5000000000000002 1.0000000180025095e-35 2.5000000000000004 1.5000000000000002 2.5000000000000004
decision_type=2 2 2 2 2 2 2 2 2 2 2 2
left_child=4 2 3 -2 5 6 8 9 -1 -8 -7 -11
right_child=1 -3 -4 -5 -6 10 7 -9 -10 11 -12 -13
leaf_value=-0.025411237285157859 0.041995634733701735 0.079445067615837417 0.047091603102605586 -0.043786427605657957 0.0090956025271274558 -0.058267159297459487 0.017287410408705562 -0.11909277368227705 0.051668619950855733 -0.032366563296541265 -0.11967852614478031 -0.071286885885804827
leaf_weight=3.6755484566092544 2.76550045609474 4.3215829432010642 2.387393593788147 2.8641623854637146 3.3731225430965415 1.5548164919018737 2.6467027589678764 1.5102292820811269 3.6350593566894531 2.0059578567743301 1.5663043037056923 1.6929538026452067
leaf_count=20 12 18 11 14 17 11 16 12 18 12 12 10
internal_value=0 0.0361857 0.0128668 -0.00164708 -0.0218212 -0.0275238 -0.0148549 -0.0406976 0.0129152 -0.0220399 -0.0890859 -0.05018
internal_weight=0 12.3386 8.01706 5.62966 21.6607 18.2876 15.1665 7.85584 7.31061 6.34561 3.12112 3.69891
internal_count=183 55 37 26 128 111 88 50 38 38 23 22
shrinkage=0.1


Tree=11
num_leaves=13
num_cat=0
split_feature=2 0 0 6 6 8 3 0 0 2 2 2
split_gain=3.36917 1.30955 1.1594 2.38222 1.21496 1.98714 1.5063 1.49111 0.86285 0.180882 0.169865 0.0937258
threshold=1.5000000000000002 1.0000000180025095e-35 2.5000000000000004 1.0000000180025095e-35 1.0000000180025095e-35 1.0000000180025095e-35 1.5000000000000002 1.5000000000000002 1.5000000000000002 4.5000000000000009 4.5000000000000009 4.5000000000000009
decision_type=2 2 2 2 2 2 2 2 2 2 2 2
left_child=-1 11 4 -4 8 6 7 -6 9 -3 -10 -2
right_child=1 2 3 -5 5 -7 -8 -9 10 -11 -12 -13
leaf_value=-0.11788921777188521 0.046016700574066233 0.058532236563873422 -0.021598333907738913 0.10557022055092427 0.0047058943294386556 -0.1190040738803704 0.052455957316665025 -0.096416624713071358 0.0015347388003118783 0.021467845032411403 -0.034436851057790818 0.075908494845318003
leaf_weight=2.2887637168169013 2.3267033249139812 2.8340982645750081 3.0973308831453314 2.8090027123689651 3.2759060785174352 2.2299617081880578 2.4883330017328262 2.627947099506855 2.7107063010334969 2.4592031389474869 2.5455219373106956 1.910069480538368
leaf_count=20 12 15 17 15 17 11 11 15 16 12 13 9
internal_value=0 0.00779439 -0.000294635 0.038882 -0.0112239 -0.0350973 -0.0128017 -0.0403062 0.0128139 0.0413126 -0.0158858 0.0594929
internal_weight=0 31.3148 27.078 5.90633 21.1717 10.6221 8.39219 5.90385 10.5495 5.2933 5.25623 4.23677
internal_count=183 163 142 32 110 54 43 32 56 27 29 21
shrinkage=0.1


end of trees

feature_importances:
Column_2=35
Column_0=25
Column_1=17
Column_7=17
Column_5=16
Column_6=14
Column_4=8
Column_8=8
Column_3=7

parameters:
[boosting: gbdt]
[objective: binary]
[metric: binary_logloss]
[tree_learner: serial]
[device_type: cpu]
[data: ]
[valid: ]
[num_iterations: 10000]
[learning_rate: 0.1]
[num_leaves: 15]
[num_threads: 0]
[force_col_wise: 0]
[force_row_wise: 0]
[histogram_pool_size: -1]
[max_depth: -1]
[min_data_in_leaf: 10]
[min_sum_hessian_in_leaf: 0.001]
[bagging_fraction: 0.8]
[pos_bagging_fraction: 1]
[neg_bagging_fraction: 1]
[bagging_freq: 0]
[bagging_seed: 10961]
[feature_fraction: 0.8]
[feature_fraction_bynode: 1]
[feature_fraction_seed: 53]
[extra_trees: 0]
[extra_seed: 11644]
[early_stopping_round: 50]
[first_metric_only: 0]
[max_delta_step: 0]
[lambda_l1: 0]
[lambda_l2: 0]
[min_gain_to_split: 0]
[drop_rate: 0.1]
[max_drop: 50]
[skip_drop: 0.5]
[xgboost_dart_mode: 0]
[uniform_drop: 0]
[drop_seed: 30626]
[top_rate: 0.2]
[other_rate: 0.1]
[min_data_per_group: 100]
[max_cat_threshold: 32]
[cat_l2: 10]
[cat_smooth: 10]
[max_cat_to_onehot: 4]
[top_k: 20]
[monotone_constraints: ]
[monotone_constraints_method: basic]
[monotone_penalty: 0]
[feature_contri: ]
[forcedsplits_filename: ]
[refit_decay_rate: 0.9]
[cegb_tradeoff: 1]
[cegb_penalty_split: 0]
[cegb_penalty_feature_lazy: ]
[cegb_penalty_feature_coupled: ]
[path_smooth: 0]
[interaction_constraints: ]
[verbosity: -1]
[saved_feature_importance_type: 0]
[max_bin: 255]
[max_bin_by_feature: ]
[min_data_in_bin: 3]
[bin_construct_sample_cnt: 200000]
[data_random_seed: 4071]
[is_enable_sparse: 1]
[enable_bundle: 1]
[use_missing: 1]
[zero_as_missing: 0]
[feature_pre_filter: 1]
[pre_partition: 0]
[two_round: 0]
[header: 0]
[label_column: ]
[weight_column: ]
[group_column: ]
[ignore_column: ]
[categorical_feature: ]
[forcedbins_filename: ]
[objective_seed: 602]
[num_class: 1]
[is_unbalance: 0]
[scale_pos_weight: 1]
[sigmoid: 1]
[boost_from_average: 1]
[reg_sqrt: 0]
[alpha: 0.9]
[fair_c: 1]
[poisson_max_delta_step: 0.7]
[tweedie_variance_power: 1.5]
[lambdarank_truncation_level: 20]
[lambdarank_norm: 1]
[label_gain: ]
[eval_at: ]
[multi_error_top_k: 1]
[auc_mu_weights: ]
[num_machines: 1]
[local_listen_port: 12400]
[time_out: 120]
[machine_list_filename: ]
[machines: ]
[gpu_platform_id: -1]
[gpu_device_id: -1]
[gpu_use_dp: 0]

end of parameters

pandas_categorical:null
