tree
version=v3
num_class=1
num_tree_per_iteration=1
label_index=0
max_feature_idx=8
objective=binary sigmoid:1
feature_names=Column_0 Column_1 Column_2 Column_3 Column_4 Column_5 Column_6 Column_7 Column_8
feature_infos=[0:4] [0:2] [0:10] [0:5] [0:2] [1:3] [0:1] [0:5] [0:1]
tree_sizes=1457 1456 1348 1355

Tree=0
num_leaves=13
num_cat=0
split_feature=3 0 7 0 8 7 7 0 6 0 6 6
split_gain=14.6687 4.48538 2.47579 4.27285 2.00455 1.82777 1.47123 0.725627 0.338276 0.314103 1.69615 0.57392
threshold=1.0000000180025095e-35 1.0000000180025095e-35 3.5000000000000004 1.5000000000000002 1.0000000180025095e-35 4.5000000000000009 3.5000000000000004 1.5000000000000002 1.0000000180025095e-35 2.5000000000000004 1.0000000180025095e-35 1.0000000180025095e-35
decision_type=2 2 2 2 2 2 2 2 2 2 2 2
left_child=1 -1 3 -2 -5 6 7 8 -3 11 -11 -9
right_child=2 5 -4 4 -6 -7 -8 9 -10 10 -12 -13
leaf_value=-0.70629073698525358 -0.58379073753287081 -0.92406851378948851 -0.51029073786144163 -1.0181089174094993 -0.75083619133157409 -0.86962406958842964 -1.1962907347947827 -1.0258559529479898 -1.0125407356162091 -1.1209061197471626 -0.89475227460430296 -1.1350407350685914
leaf_weight=2.0408163964748409 3.2653062343597394 3.6734695136547186 2.0408163964748383 2.2448980361223221 2.2448980361223221 3.0612245947122565 2.0408163964748374 4.6938777118921262 3.2653062343597412 2.6530613154172897 2.6530613154172897 3.2653062343597412
leaf_count=10 16 18 10 11 11 15 10 23 16 13 13 16
internal_value=-0.916291 -0.991515 -0.706291 -0.75787 -0.884473 -1.01452 -1.03446 -1.01811 -0.965703 -1.04552 -1.00783 -1.07065
internal_weight=0 27.3469 9.79592 7.7551 4.4898 25.3061 22.2449 20.2041 6.93878 13.2653 5.30612 7.95918
internal_count=182 134 48 38 22 124 109 99 34 65 26 39
shrinkage=1


Tree=1
num_leaves=13
num_cat=0
split_feature=5 1 2 2 8 2 1 1 6 8 2 1
split_gain=12.3337 5.39036 4.57198 0.968572 2.25689 0.496282 1.78913 0.937548 0.512019 0.0742522 0.0387755 0.000867383
threshold=2.5000000000000004 1.5000000000000002 1.5000000000000002 5.5000000000000009 1.0000000180025095e-35 3.5000000000000004 1.5000000000000002 1.5000000000000002 1.0000000180025095e-35 1.0000000180025095e-35 4.5000000000000009 1.5000000000000002
decision_type=2 2 2 2 2 2 2 2 2 2 2 2
left_child=2 10 11 4 5 6 -4 -7 -9 -3 -2 -1
right_child=1 9 3 -5 -6 7 -8 8 -10 -11 -12 -13
leaf_value=-0.26801409952641553 0.048305321870759324 0.281630241754176 0.073893600271331281 -0.13219090758544871 0.10937447201752977 -0.19985882305337821 -0.14019769199030654 -0.10848527821694419 0.03135062362043093 0.32760085119658028 0.015207235680754159 -0.27374980711020691
leaf_weight=2.0753808468580273 2.4258738756179792 3.8355524241924286 3.4731885939836555 3.9248570501804343 4.0000574290752402 2.4217285513877869 2.8365196734666824 2.2603781223297119 1.9517910331487653 2.2182372212409973 3.4004796892404556 2.1442314237356186
leaf_count=11 12 18 18 19 19 12 14 11 10 10 17 11
internal_value=0 0.166311 -0.0810582 -0.0426664 -0.0219288 -0.0625064 -0.0223508 -0.1007 -0.0436896 0.298475 0.028988 -0.270929
internal_weight=0 11.8801 25.0881 20.8685 16.9437 12.9436 6.30971 6.6339 4.21217 6.05379 5.82635 4.21961
internal_count=182 57 125 103 84 65 32 33 21 28 29 22
shrinkage=0.2


Tree=2
num_leaves=12
num_cat=0
split_feature=3 2 0 4 0 8 0 2 0 2 2
split_gain=7.46216 4.63092 0.958664 0.681894 0.722856 0.379151 0.640031 1.63866 1.1438 0.58541 0.0102224
threshold=1.0000000180025095e-35 2.5000000000000004 1.5000000000000002 1.5000000000000002 1.5000000000000002 1.0000000180025095e-35 1.5000000000000002 3.5000000000000004 2.5000000000000004 3.5000000000000004 1.5000000000000002
decision_type=2 2 2 2 2 2 2 2 2 2 2
left_child=1 2 -1 -2 -5 6 9 -8 -9 -3 -4
right_child=3 5 10 4 -6 -7 7 8 -10 -11 -12
leaf_value=-0.10616260092418986 0.075516827867255887 -0.071442689093002235 -0.2560318045398976 0.24905139428736198 0.11520984637980698 0.055126514075785782 0.066230708553751558 -0.17543267511104099 0.0017824350751730338 0.057218773350724984 -0.27615591196980854
leaf_weight=2.4235528707504299 4.1938372999429685 1.9461717456579268 2.3395868986845016 3.0861986726522446 3.3838901817798615 2.9158139526844016 2.9404433667659742 4.2022658586502075 2.2298617213964462 5.1786308884620667 1.7762192934751508
leaf_count=13 19 10 14 13 16 14 15 22 12 25 9
internal_value=0 -0.0603907 -0.205955 0.138334 0.179052 -0.0113572 -0.0231078 -0.0574541 -0.113997 0.0220743 -0.264717
internal_weight=0 25.9525 6.53936 10.6639 6.47009 19.4132 16.4974 9.37257 6.43213 7.1248 4.11581
internal_count=182 134 36 48 29 98 84 49 34 35 23
shrinkage=0.2


Tree=3
num_leaves=12
num_cat=0
split_feature=5 4 6 5 0 5 4 0 0 0 0
split_gain=6.78811 5.94226 0.542676 0.498883 0.465145 0.392468 0.338813 0.426681 0.304877 0.193476 0.00641935
threshold=2.5000000000000004 1.5000000000000002 1.0000000180025095e-35 1.5000000000000002 1.5000000000000002 1.5000000000000002 1.5000000000000002 1.5000000000000002 1.5000000000000002 2.5000000000000004 1.5000000000000002
decision_type=2 2 2 2 2 2 2 2 2 2 2
left_child=2 4 5 8 -2 -1 7 -7 -4 10 -5
right_child=1 -3 3 9 -6 6 -8 -9 -10 -11 -12
leaf_value=0.022520635649376595 0.072520892113255839 0.30847693274210158 -0.091001996070158409 -0.087386722552484267 -0.023583057272113666 -0.1368433309778822 0.013770752266615643 -0.023959426767896093 -0.19232099160226021 -0.013140584130516574 -0.073600615809214162
leaf_weight=3.4745673984289169 3.5064969658851606 4.2493112087249747 2.231153964996337 3.7631771862506866 4.7344416975975037 2.9006888717412949 1.8860610574483869 2.48833167552948 2.5407870560884476 2.2214044630527496 2.1077544093132019
leaf_count=20 15 18 12 18 24 15 9 14 14 11 12
internal_value=0 0.116367 -0.065944 -0.0936594 0.0173089 -0.0327766 -0.0591865 -0.0847202 -0.144949 -0.0634149 -0.0824373
internal_weight=0 12.4902 23.6139 12.8643 8.24094 10.7496 7.27508 5.38902 4.77194 8.09234 5.87093
internal_count=182 57 125 67 39 58 38 29 26 41 30
shrinkage=0.2


end of trees

feature_importances:
Column_0=13
Column_2=8
Column_6=5
Column_1=4
Column_5=4
Column_8=4
Column_4=3
Column_7=3
Column_3=2

parameters:
[boosting: gbdt]
[objective: binary]
[metric: auc]
[tree_learner: serial]
[device_type: cpu]
[data: ]
[valid: ]
[num_iterations: 10000]
[learning_rate: 0.2]
[num_leaves: 31]
[num_threads: 0]
[force_col_wise: 0]
[force_row_wise: 0]
[histogram_pool_size: -1]
[max_depth: -1]
[min_data_in_leaf: 10]
[min_sum_hessian_in_leaf: 0.001]
[bagging_fraction: 0.8]
[pos_bagging_fraction: 1]
[neg_bagging_fraction: 1]
[bagging_freq: 0]
[bagging_seed: 10438]
[feature_fraction: 0.5]
[feature_fraction_bynode: 1]
[feature_fraction_seed: 6707]
[extra_trees: 0]
[extra_seed: 23424]
[early_stopping_round: 50]
[first_metric_only: 0]
[max_delta_step: 0]
[lambda_l1: 0]
[lambda_l2: 0]
[min_gain_to_split: 0]
[drop_rate: 0.1]
[max_drop: 50]
[skip_drop: 0.5]
[xgboost_dart_mode: 0]
[uniform_drop: 0]
[drop_seed: 18682]
[top_rate: 0.2]
[other_rate: 0.1]
[min_data_per_group: 100]
[max_cat_threshold: 32]
[cat_l2: 10]
[cat_smooth: 10]
[max_cat_to_onehot: 4]
[top_k: 20]
[monotone_constraints: ]
[monotone_constraints_method: basic]
[monotone_penalty: 0]
[feature_contri: ]
[forcedsplits_filename: ]
[refit_decay_rate: 0.9]
[cegb_tradeoff: 1]
[cegb_penalty_split: 0]
[cegb_penalty_feature_lazy: ]
[cegb_penalty_feature_coupled: ]
[path_smooth: 0]
[interaction_constraints: ]
[verbosity: -1]
[saved_feature_importance_type: 0]
[max_bin: 255]
[max_bin_by_feature: ]
[min_data_in_bin: 3]
[bin_construct_sample_cnt: 200000]
[data_random_seed: 4081]
[is_enable_sparse: 1]
[enable_bundle: 1]
[use_missing: 1]
[zero_as_missing: 0]
[feature_pre_filter: 1]
[pre_partition: 0]
[two_round: 0]
[header: 0]
[label_column: ]
[weight_column: ]
[group_column: ]
[ignore_column: ]
[categorical_feature: ]
[forcedbins_filename: ]
[objective_seed: 31546]
[num_class: 1]
[is_unbalance: 0]
[scale_pos_weight: 1]
[sigmoid: 1]
[boost_from_average: 1]
[reg_sqrt: 0]
[alpha: 0.9]
[fair_c: 1]
[poisson_max_delta_step: 0.7]
[tweedie_variance_power: 1.5]
[lambdarank_truncation_level: 20]
[lambdarank_norm: 1]
[label_gain: ]
[eval_at: ]
[multi_error_top_k: 1]
[auc_mu_weights: ]
[num_machines: 1]
[local_listen_port: 12400]
[time_out: 120]
[machine_list_filename: ]
[machines: ]
[gpu_platform_id: -1]
[gpu_device_id: -1]
[gpu_use_dp: 0]

end of parameters

pandas_categorical:null
