tree
version=v3
num_class=1
num_tree_per_iteration=1
label_index=0
max_feature_idx=8
objective=binary sigmoid:1
feature_names=Column_0 Column_1 Column_2 Column_3 Column_4 Column_5 Column_6 Column_7 Column_8
feature_infos=[0:4] [0:2] [0:10] [0:5] [0:2] [1:3] [0:1] [0:4] [0:1]
tree_sizes=1356 1451 1543 1252

Tree=0
num_leaves=12
num_cat=0
split_feature=3 6 0 8 0 7 0 6 0 0 6
split_gain=14.517 5.39236 5.52067 4.71154 1.34356 1.35389 0.651609 0.887133 3.64657 1.39844 0.170139
threshold=1.0000000180025095e-35 1.0000000180025095e-35 1.5000000000000002 1.0000000180025095e-35 1.0000000180025095e-35 3.5000000000000004 1.5000000000000002 1.0000000180025095e-35 2.5000000000000004 2.5000000000000004 1.0000000180025095e-35
decision_type=2 2 2 2 2 2 2 2 2 2 2
left_child=4 2 -2 -3 -1 6 10 9 -9 -8 -6
right_child=1 3 -4 -5 5 -7 7 8 -10 -11 -12
leaf_value=-0.86962406958842975 -0.31429073873762947 -0.66859842946144332 -0.73895740350588857 -1.0455215046995427 -0.95129073589001789 -0.86962406958842964 -1.0258559529479898 -1.1350407350685914 -0.81936765955668311 -1.1962907347947827 -1.0125407356162091
leaf_weight=3.06122459471226 2.0408163964748365 2.6530613154172897 3.0612245947122574 2.6530613154172897 4.0816327929496827 2.448979675769805 4.6938777118921262 3.2653062343597412 2.6530613154172897 3.2653062343597412 3.2653062343597412
leaf_count=15 10 13 15 13 20 12 23 16 13 16 16
internal_value=-0.916291 -0.715899 -0.569091 -0.85706 -0.994306 -1.01043 -1.02668 -1.05217 -0.993532 -1.09578 -0.978513
internal_weight=0 10.4082 5.10204 5.30612 26.7347 23.6735 21.2245 13.8776 5.91837 7.95918 7.34694
internal_count=182 51 25 26 131 116 104 68 29 39 36
shrinkage=1


Tree=1
num_leaves=13
num_cat=0
split_feature=5 2 2 1 1 2 5 2 6 6 2 1
split_gain=12.5483 4.99786 3.70819 3.47079 1.6643 1.03704 1.60688 0.388312 2.37917 2.1222 0.449558 0.00307518
threshold=2.5000000000000004 1.5000000000000002 3.5000000000000004 1.5000000000000002 1.5000000000000002 3.5000000000000004 1.5000000000000002 4.5000000000000009 1.0000000180025095e-35 1.0000000180025095e-35 3.5000000000000004 1.5000000000000002
decision_type=2 2 2 2 2 2 2 2 2 2 2 2
left_child=1 11 -2 -4 5 -3 -7 8 10 -9 -6 -1
right_child=2 4 3 -5 7 6 -8 9 -10 -11 -12 -13
leaf_value=-0.26751672929439518 -0.032349704043888115 0.11097146715773534 0.11428653099015465 0.37788559212331713 0.051802212727922431 -0.17210122039939205 0.053011321722472193 -0.19180606672071679 -0.22533170274011677 0.074484295370344789 -0.077575166994914665 -0.27825987020517245
leaf_weight=2.0602837651968029 2.4276181459426862 3.6557983905076981 3.8847224712371826 4.1139515787363052 2.3153042793273908 1.9563595801591871 3.6066537499427795 2.0781196951866159 3.7911821305751801 2.8237540870904922 2.0043185204267502 2.2079510241746902
leaf_count=11 12 19 18 19 11 10 18 10 19 14 10 11
internal_value=0 -0.0748478 0.184154 0.249863 -0.0367902 0.0282239 -0.0261546 -0.0828493 -0.109708 -0.0384079 -0.0082293 -0.273074
internal_weight=0 26.4997 10.4263 7.99867 22.2315 9.21881 5.56301 13.0127 8.1108 4.90187 4.31962 4.26823
internal_count=182 133 49 37 111 47 28 64 40 24 21 22
shrinkage=0.2


Tree=2
num_leaves=14
num_cat=0
split_feature=3 2 2 2 0 0 0 0 0 4 2 0 2
split_gain=6.93474 5.11695 1.22406 2.15798 1.64722 1.12735 1.05909 0.768553 0.35408 0.269363 0.20353 0.170415 0.0174323
threshold=1.0000000180025095e-35 2.5000000000000004 3.5000000000000004 5.5000000000000009 1.5000000000000002 2.5000000000000004 1.5000000000000002 1.5000000000000002 1.5000000000000002 1.5000000000000002 4.5000000000000009 1.5000000000000002 1.5000000000000002
decision_type=2 2 2 2 2 2 2 2 2 2 2 2 2
left_child=1 6 4 10 -3 7 -1 9 -5 -2 11 -4 -8
right_child=5 2 3 8 -6 -7 12 -9 -10 -11 -12 -13 -14
leaf_value=-0.10092275173551771 0.081429570494961495 -0.037146248064746021 -0.093964889821357464 0.11694703128471876 0.18997562314737027 0.25773633859820549 -0.25318699911143372 0.016177195595116524 0.012766429866012627 0.1702195238072475 -0.069318335991298774 -0.17414071106030329 -0.27813044551979216
leaf_weight=2.4079359173774746 2.113275930285452 2.534241363406184 2.1700445115566236 2.473378747701644 2.5752873420715332 2.1590905934572211 2.2976432740688324 3.1022230535745621 2.762295126914978 3.8685348778963089 3.7771215736865997 2.0738519728183746 2.1879715770483017
leaf_count=13 10 13 11 12 13 10 14 14 14 17 19 11 11
internal_value=0 -0.0609879 -0.00583956 -0.0378944 0.0773269 0.127833 -0.207918 0.0969579 0.0619823 0.138851 -0.103088 -0.133144 -0.265354
internal_weight=0 25.2598 18.3662 13.2567 5.10953 11.2431 6.89355 9.08403 5.23567 5.98181 8.02102 4.2439 4.48561
internal_count=182 131 93 67 26 51 38 41 26 27 41 22 25
shrinkage=0.2


Tree=3
num_leaves=11
num_cat=0
split_feature=5 4 0 7 0 5 6 0 7 6
split_gain=6.59967 2.37108 0.703589 0.419498 0.713103 0.384636 0.294227 0.376109 0.361063 0.0975461
threshold=2.5000000000000004 1.5000000000000002 1.5000000000000002 3.5000000000000004 1.5000000000000002 1.5000000000000002 1.0000000180025095e-35 2.5000000000000004 1.5000000000000002 1.0000000180025095e-35
decision_type=2 2 2 2 2 2 2 2 2 2
left_child=3 2 -2 4 5 -1 7 -6 -8 -7
right_child=1 -3 -4 -5 6 9 8 -9 -10 -11
leaf_value=0.035346466531147827 0.12182411158772155 0.23523932701168812 -0.011811231281262434 0.01505501431576084 -0.039294031039686241 -0.030760098168512814 -0.080974537273678718 -0.13227795448531973 -0.19241275481650971 -0.07540589143205377
leaf_weight=2.6277538537979179 2.8159606009721738 4.6065448224544525 3.5787349045276642 2.6598382145166388 4.279696121811865 3.9149436205625534 2.1424135863780975 2.9322168529033661 2.5439291894435883 3.9151810258626938
leaf_count=14 13 19 17 13 23 20 12 17 14 20
internal_value=0 0.125842 0.0470363 -0.0600307 -0.068964 -0.0308638 -0.102452 -0.0770994 -0.141468 -0.0530837
internal_weight=0 11.0012 6.3947 25.016 22.3561 10.4579 11.8983 7.21191 4.68634 7.83012
internal_count=182 49 30 133 120 54 66 40 26 40
shrinkage=0.2


end of trees

feature_importances:
Column_0=14
Column_2=10
Column_6=7
Column_5=4
Column_1=3
Column_7=3
Column_3=2
Column_4=2
Column_8=1

parameters:
[boosting: gbdt]
[objective: binary]
[metric: auc]
[tree_learner: serial]
[device_type: cpu]
[data: ]
[valid: ]
[num_iterations: 10000]
[learning_rate: 0.2]
[num_leaves: 31]
[num_threads: 0]
[force_col_wise: 0]
[force_row_wise: 0]
[histogram_pool_size: -1]
[max_depth: -1]
[min_data_in_leaf: 10]
[min_sum_hessian_in_leaf: 0.001]
[bagging_fraction: 0.8]
[pos_bagging_fraction: 1]
[neg_bagging_fraction: 1]
[bagging_freq: 0]
[bagging_seed: 10438]
[feature_fraction: 0.5]
[feature_fraction_bynode: 1]
[feature_fraction_seed: 6707]
[extra_trees: 0]
[extra_seed: 23424]
[early_stopping_round: 50]
[first_metric_only: 0]
[max_delta_step: 0]
[lambda_l1: 0]
[lambda_l2: 0]
[min_gain_to_split: 0]
[drop_rate: 0.1]
[max_drop: 50]
[skip_drop: 0.5]
[xgboost_dart_mode: 0]
[uniform_drop: 0]
[drop_seed: 18682]
[top_rate: 0.2]
[other_rate: 0.1]
[min_data_per_group: 100]
[max_cat_threshold: 32]
[cat_l2: 10]
[cat_smooth: 10]
[max_cat_to_onehot: 4]
[top_k: 20]
[monotone_constraints: ]
[monotone_constraints_method: basic]
[monotone_penalty: 0]
[feature_contri: ]
[forcedsplits_filename: ]
[refit_decay_rate: 0.9]
[cegb_tradeoff: 1]
[cegb_penalty_split: 0]
[cegb_penalty_feature_lazy: ]
[cegb_penalty_feature_coupled: ]
[path_smooth: 0]
[interaction_constraints: ]
[verbosity: -1]
[saved_feature_importance_type: 0]
[max_bin: 255]
[max_bin_by_feature: ]
[min_data_in_bin: 3]
[bin_construct_sample_cnt: 200000]
[data_random_seed: 4081]
[is_enable_sparse: 1]
[enable_bundle: 1]
[use_missing: 1]
[zero_as_missing: 0]
[feature_pre_filter: 1]
[pre_partition: 0]
[two_round: 0]
[header: 0]
[label_column: ]
[weight_column: ]
[group_column: ]
[ignore_column: ]
[categorical_feature: ]
[forcedbins_filename: ]
[objective_seed: 31546]
[num_class: 1]
[is_unbalance: 0]
[scale_pos_weight: 1]
[sigmoid: 1]
[boost_from_average: 1]
[reg_sqrt: 0]
[alpha: 0.9]
[fair_c: 1]
[poisson_max_delta_step: 0.7]
[tweedie_variance_power: 1.5]
[lambdarank_truncation_level: 20]
[lambdarank_norm: 1]
[label_gain: ]
[eval_at: ]
[multi_error_top_k: 1]
[auc_mu_weights: ]
[num_machines: 1]
[local_listen_port: 12400]
[time_out: 120]
[machine_list_filename: ]
[machines: ]
[gpu_platform_id: -1]
[gpu_device_id: -1]
[gpu_use_dp: 0]

end of parameters

pandas_categorical:null
