tree
version=v3
num_class=1
num_tree_per_iteration=1
label_index=0
max_feature_idx=5
objective=binary sigmoid:1
feature_names=Column_0 Column_1 Column_2 Column_3 Column_4 Column_5
feature_infos=[0:4] [0:2] [0:10] [0:4] [0:2] [1:3]
tree_sizes=836 835 838 837 734 933 735

Tree=0
num_leaves=7
num_cat=0
split_feature=3 5 2 2 1 1
split_gain=22.7877 10.2546 5.13034 1.06048 0.631483 0.49
threshold=1.0000000180025095e-35 2.5000000000000004 2.5000000000000004 5.5000000000000009 1.5000000000000002 1.0000000180025095e-35
decision_type=2 2 2 2 2 2
left_child=2 -2 5 4 -4 -1
right_child=1 -3 3 -5 -6 -7
leaf_value=-1.1962907347947824 -0.83695740306779443 -0.43901801090732817 -0.93495740262970028 -0.86962406958842964 -1.0203932996836695 -1.0982907352328768
leaf_weight=4.0816327929496783 6.122449189424513 4.4897960722446442 6.1224491894245165 4.2857144325971595 7.9591839462518692 4.0816327929496765
leaf_count=20 30 22 30 21 39 20
internal_value=-0.916291 -0.668598 -1.01537 -0.956735 -0.983247 -1.14729
internal_weight=0 10.6122 26.5306 18.3673 14.0816 8.16327
internal_count=182 52 130 90 69 40
shrinkage=1


Tree=1
num_leaves=7
num_cat=0
split_feature=3 5 2 5 5 0
split_gain=13.6494 4.78384 4.10827 1.97677 0.594973 0.441608
threshold=1.0000000180025095e-35 2.5000000000000004 1.5000000000000002 2.5000000000000004 1.5000000000000002 1.5000000000000002
decision_type=2 2 2 2 2 2
left_child=2 -2 -1 4 -4 -6
right_child=1 -3 3 -5 5 -7
leaf_value=-0.26405878537743427 0.061167557007047714 0.3195160696115048 -0.03254650995692554 0.056491685500034507 -0.070606708227140366 -0.15476012797344726
leaf_weight=4.220379218459132 6.325969845056532 5.2432732582092285 5.7553842067718515 5.3993137776851645 4.9174992442131042 5.0618941783905029
leaf_count=23 30 22 29 27 25 26
internal_value=0 0.178253 -0.083903 -0.0479268 -0.0837575 -0.113292
internal_weight=0 11.5692 25.3545 21.1341 15.7348 9.97939
internal_count=182 52 130 107 80 51
shrinkage=0.2


Tree=2
num_leaves=7
num_cat=0
split_feature=3 2 5 5 5 0
split_gain=8.68161 3.39715 2.82929 1.32036 0.434242 0.342989
threshold=1.0000000180025095e-35 1.5000000000000002 2.5000000000000004 2.5000000000000004 1.5000000000000002 1.5000000000000002
decision_type=2 2 2 2 2 2
left_child=1 -1 -2 4 -3 -6
right_child=2 3 -4 -5 5 -7
leaf_value=-0.24920282993404813 0.04765945477375326 -0.026476605738664578 0.24291901090178047 0.043961699950406184 -0.058647989495524758 -0.13487691383355804
leaf_weight=3.6390452533960369 6.4757788181304914 5.6703039854764947 5.4804107844829559 5.5332865417003623 4.755581796169281 4.6889824122190475
leaf_count=23 30 29 22 27 25 26
internal_value=0 -0.0710283 0.137161 -0.0396267 -0.070227 -0.0964937
internal_weight=0 24.2872 11.9562 20.6482 15.1149 9.44456
internal_count=182 130 52 107 80 51
shrinkage=0.2


Tree=3
num_leaves=7
num_cat=0
split_feature=3 2 5 2 1 5
split_gain=5.6548 2.78197 1.84018 0.73497 0.603273 0.556089
threshold=1.0000000180025095e-35 2.5000000000000004 2.5000000000000004 5.5000000000000009 1.0000000180025095e-35 2.5000000000000004
decision_type=2 2 2 2 2 2
left_child=1 4 -2 5 -1 -3
right_child=2 3 -4 -5 -6 -7
leaf_value=-0.24398921719120803 0.037398969630063741 -0.069901638491925169 0.19426757701308481 0.052919715778759868 -0.11623355345812976 0.019768346762261992
leaf_weight=2.8837650865316418 6.5875929594039899 9.2216988503932971 5.4791093170642853 4.218315675854682 3.0339435338973999 3.951869085431098
leaf_count=20 30 50 22 21 20 19
internal_value=0 -0.0600402 0.108628 -0.0197367 -0.17849 -0.043002
internal_weight=0 23.3096 12.0667 17.3919 5.91771 13.1736
internal_count=182 130 52 90 40 69
shrinkage=0.2


Tree=4
num_leaves=6
num_cat=0
split_feature=3 2 0 0 2
split_gain=4.15669 3.25946 0.710777 1.28666 1.21239
threshold=2.5000000000000004 2.5000000000000004 1.5000000000000002 2.5000000000000004 4.5000000000000009
decision_type=2 2 2 2 2
left_child=1 -1 4 -4 -3
right_child=-2 2 3 -5 -6
leaf_value=-0.16859554663949911 0.17765979835605372 -0.022869396020030391 -0.079424574285972854 0.048560937412640177 0.10824661251496233
leaf_weight=5.4870481044054058 4.4609733223915091 6.0092102140188235 8.0701051503419858 5.1451518386602393 5.3167907893657684
leaf_count=41 19 31 40 25 26
internal_value=0 -0.0292426 0.00191458 -0.0295954 0.0386807
internal_weight=0 30.0283 24.5413 13.2153 11.326
internal_count=182 163 122 65 57
shrinkage=0.2


Tree=5
num_leaves=8
num_cat=0
split_feature=4 2 1 2 2 2 1
split_gain=2.9071 2.1101 0.306247 1.42716 1.38559 0.1545 1.93932e-05
threshold=1.5000000000000002 2.5000000000000004 1.5000000000000002 4.5000000000000009 4.5000000000000009 4.5000000000000009 1.5000000000000002
decision_type=2 2 2 2 2 2 2
left_child=1 6 4 -4 -3 -2 -1
right_child=5 2 3 -5 -6 -7 -8
leaf_value=-0.15571558093234897 0.12253527600601587 0.085529367415548938 -0.10819636473990529 0.043163228030485487 -0.06275052972793696 0.069958495562094922 -0.15651623749841187
leaf_weight=2.4177562743425396 4.3125386610627157 5.3381146341562271 5.0753732621669769 4.8950943499803543 4.776108980178833 4.6421165466308594 2.4225986748933792
leaf_count=21 20 27 28 24 23 20 19
internal_value=0 -0.0375785 -0.00901117 -0.033885 0.0155091 0.0952793 -0.156116
internal_weight=0 24.925 20.0847 9.97047 10.1142 8.95466 4.84035
internal_count=182 142 102 52 50 40 40
shrinkage=0.2


Tree=6
num_leaves=6
num_cat=0
split_feature=5 0 2 2 2
split_gain=2.35013 3.1538 1.19034 0.576322 0.841344
threshold=2.5000000000000004 1.5000000000000002 2.5000000000000004 3.5000000000000004 4.5000000000000009
decision_type=2 2 2 2 2
left_child=2 -2 -1 -4 -5
right_child=1 -3 3 4 -6
leaf_value=-0.13678285554263356 0.20078234000313111 -0.016516060216430262 0.039781216492324467 -0.10588635987303363 -0.0010628110871457766
leaf_weight=4.1240387484431293 4.5469397827982885 6.4779158011078835 5.0333541929721859 4.8582999855279914 8.2872333228588086
leaf_count=38 21 30 26 27 40
internal_value=0 0.0731035 -0.0397751 -0.017768 -0.0398033
internal_weight=0 11.0249 22.3029 18.1789 13.1455
internal_count=182 51 131 93 67
shrinkage=0.2


end of trees

feature_importances:
Column_2=15
Column_5=10
Column_0=5
Column_1=5
Column_3=5
Column_4=1

parameters:
[boosting: gbdt]
[objective: binary]
[metric: binary_logloss]
[tree_learner: serial]
[device_type: cpu]
[data: ]
[valid: ]
[num_iterations: 10000]
[learning_rate: 0.2]
[num_leaves: 95]
[num_threads: 0]
[force_col_wise: 0]
[force_row_wise: 0]
[histogram_pool_size: -1]
[max_depth: -1]
[min_data_in_leaf: 20]
[min_sum_hessian_in_leaf: 0.001]
[bagging_fraction: 1]
[pos_bagging_fraction: 1]
[neg_bagging_fraction: 1]
[bagging_freq: 0]
[bagging_seed: 32458]
[feature_fraction: 0.9]
[feature_fraction_bynode: 1]
[feature_fraction_seed: 15412]
[extra_trees: 0]
[extra_seed: 19498]
[early_stopping_round: 50]
[first_metric_only: 0]
[max_delta_step: 0]
[lambda_l1: 0]
[lambda_l2: 0]
[min_gain_to_split: 0]
[drop_rate: 0.1]
[max_drop: 50]
[skip_drop: 0.5]
[xgboost_dart_mode: 0]
[uniform_drop: 0]
[drop_seed: 818]
[top_rate: 0.2]
[other_rate: 0.1]
[min_data_per_group: 100]
[max_cat_threshold: 32]
[cat_l2: 10]
[cat_smooth: 10]
[max_cat_to_onehot: 4]
[top_k: 20]
[monotone_constraints: ]
[monotone_constraints_method: basic]
[monotone_penalty: 0]
[feature_contri: ]
[forcedsplits_filename: ]
[refit_decay_rate: 0.9]
[cegb_tradeoff: 1]
[cegb_penalty_split: 0]
[cegb_penalty_feature_lazy: ]
[cegb_penalty_feature_coupled: ]
[path_smooth: 0]
[interaction_constraints: ]
[verbosity: -1]
[saved_feature_importance_type: 0]
[max_bin: 255]
[max_bin_by_feature: ]
[min_data_in_bin: 3]
[bin_construct_sample_cnt: 200000]
[data_random_seed: 4078]
[is_enable_sparse: 1]
[enable_bundle: 1]
[use_missing: 1]
[zero_as_missing: 0]
[feature_pre_filter: 1]
[pre_partition: 0]
[two_round: 0]
[header: 0]
[label_column: ]
[weight_column: ]
[group_column: ]
[ignore_column: ]
[categorical_feature: ]
[forcedbins_filename: ]
[objective_seed: 21231]
[num_class: 1]
[is_unbalance: 0]
[scale_pos_weight: 1]
[sigmoid: 1]
[boost_from_average: 1]
[reg_sqrt: 0]
[alpha: 0.9]
[fair_c: 1]
[poisson_max_delta_step: 0.7]
[tweedie_variance_power: 1.5]
[lambdarank_truncation_level: 20]
[lambdarank_norm: 1]
[label_gain: ]
[eval_at: ]
[multi_error_top_k: 1]
[auc_mu_weights: ]
[num_machines: 1]
[local_listen_port: 12400]
[time_out: 120]
[machine_list_filename: ]
[machines: ]
[gpu_platform_id: -1]
[gpu_device_id: -1]
[gpu_use_dp: 0]

end of parameters

pandas_categorical:null
